{"learner":{"attributes":{"scikit_learn":"{\"_estimator_type\": \"regressor\"}"},"feature_names":[],"feature_types":[],"gradient_booster":{"model":{"gbtree_model_param":{"num_parallel_tree":"1","num_trees":"1000"},"iteration_indptr":[0,1,2,3,4,5,6,7,8,9,10,11,12,13,14,15,16,17,18,19,20,21,22,23,24,25,26,27,28,29,30,31,32,33,34,35,36,37,38,39,40,41,42,43,44,45,46,47,48,49,50,51,52,53,54,55,56,57,58,59,60,61,62,63,64,65,66,67,68,69,70,71,72,73,74,75,76,77,78,79,80,81,82,83,84,85,86,87,88,89,90,91,92,93,94,95,96,97,98,99,100,101,102,103,104,105,106,107,108,109,110,111,112,113,114,115,116,117,118,119,120,121,122,123,124,125,126,127,128,129,130,131,132,133,134,135,136,137,138,139,140,141,142,143,144,145,146,147,148,149,150,151,152,153,154,155,156,157,158,159,160,161,162,163,164,165,166,167,168,169,170,171,172,173,174,175,176,177,178,179,180,181,182,183,184,185,186,187,188,189,190,191,192,193,194,195,196,197,198,199,200,201,202,203,204,205,206,207,208,209,210,211,212,213,214,215,216,217,218,219,220,221,222,223,224,225,226,227,228,229,230,231,232,233,234,235,236,237,238,239,240,241,242,243,244,245,246,247,248,249,250,251,252,253,254,255,256,257,258,259,260,261,262,263,264,265,266,267,268,269,270,271,272,273,274,275,276,277,278,279,280,281,282,283,284,285,286,287,288,289,290,291,292,293,294,295,296,297,298,299,300,301,302,303,304,305,306,307,308,309,310,311,312,313,314,315,316,317,318,319,320,321,322,323,324,325,326,327,328,329,330,331,332,333,334,335,336,337,338,339,340,341,342,343,344,345,346,347,348,349,350,351,352,353,354,355,356,357,358,359,360,361,362,363,364,365,366,367,368,369,370,371,372,373,374,375,376,377,378,379,380,381,382,383,384,385,386,387,388,389,390,391,392,393,394,395,396,397,398,399,400,401,402,403,404,405,406,407,408,409,410,411,412,413,414,415,416,417,418,419,420,421,422,423,424,425,426,427,428,429,430,431,432,433,434,435,436,437,438,439,440,441,442,443,444,445,446,447,448,449,450,451,452,453,454,455,456,457,458,459,460,461,462,463,464,465,466,467,468,469,470,471,472,473,474,475,476,477,478,479,480,481,482,483,484,485,486,487,488,489,490,491,492,493,494,495,496,497,498,499,500,501,502,503,504,505,506,507,508,509,510,511,512,513,514,515,516,517,518,519,520,521,522,523,524,525,526,527,528,529,530,531,532,533,534,535,536,537,538,539,540,541,542,543,544,545,546,547,548,549,550,551,552,553,554,555,556,557,558,559,560,561,562,563,564,565,566,567,568,569,570,571,572,573,574,575,576,577,578,579,580,581,582,583,584,585,586,587,588,589,590,591,592,593,594,595,596,597,598,599,600,601,602,603,604,605,606,607,608,609,610,611,612,613,614,615,616,617,618,619,620,621,622,623,624,625,626,627,628,629,630,631,632,633,634,635,636,637,638,639,640,641,642,643,644,645,646,647,648,649,650,651,652,653,654,655,656,657,658,659,660,661,662,663,664,665,666,667,668,669,670,671,672,673,674,675,676,677,678,679,680,681,682,683,684,685,686,687,688,689,690,691,692,693,694,695,696,697,698,699,700,701,702,703,704,705,706,707,708,709,710,711,712,713,714,715,716,717,718,719,720,721,722,723,724,725,726,727,728,729,730,731,732,733,734,735,736,737,738,739,740,741,742,743,744,745,746,747,748,749,750,751,752,753,754,755,756,757,758,759,760,761,762,763,764,765,766,767,768,769,770,771,772,773,774,775,776,777,778,779,780,781,782,783,784,785,786,787,788,789,790,791,792,793,794,795,796,797,798,799,800,801,802,803,804,805,806,807,808,809,810,811,812,813,814,815,816,817,818,819,820,821,822,823,824,825,826,827,828,829,830,831,832,833,834,835,836,837,838,839,840,841,842,843,844,845,846,847,848,849,850,851,852,853,854,855,856,857,858,859,860,861,862,863,864,865,866,867,868,869,870,871,872,873,874,875,876,877,878,879,880,881,882,883,884,885,886,887,888,889,890,891,892,893,894,895,896,897,898,899,900,901,902,903,904,905,906,907,908,909,910,911,912,913,914,915,916,917,918,919,920,921,922,923,924,925,926,927,928,929,930,931,932,933,934,935,936,937,938,939,940,941,942,943,944,945,946,947,948,949,950,951,952,953,954,955,956,957,958,959,960,961,962,963,964,965,966,967,968,969,970,971,972,973,974,975,976,977,978,979,980,981,982,983,984,985,986,987,988,989,990,991,992,993,994,995,996,997,998,999,1000],"tree_info":[0,0,0,0,0,0,0,0,0,0,0,0,0,0,0,0,0,0,0,0,0,0,0,0,0,0,0,0,0,0,0,0,0,0,0,0,0,0,0,0,0,0,0,0,0,0,0,0,0,0,0,0,0,0,0,0,0,0,0,0,0,0,0,0,0,0,0,0,0,0,0,0,0,0,0,0,0,0,0,0,0,0,0,0,0,0,0,0,0,0,0,0,0,0,0,0,0,0,0,0,0,0,0,0,0,0,0,0,0,0,0,0,0,0,0,0,0,0,0,0,0,0,0,0,0,0,0,0,0,0,0,0,0,0,0,0,0,0,0,0,0,0,0,0,0,0,0,0,0,0,0,0,0,0,0,0,0,0,0,0,0,0,0,0,0,0,0,0,0,0,0,0,0,0,0,0,0,0,0,0,0,0,0,0,0,0,0,0,0,0,0,0,0,0,0,0,0,0,0,0,0,0,0,0,0,0,0,0,0,0,0,0,0,0,0,0,0,0,0,0,0,0,0,0,0,0,0,0,0,0,0,0,0,0,0,0,0,0,0,0,0,0,0,0,0,0,0,0,0,0,0,0,0,0,0,0,0,0,0,0,0,0,0,0,0,0,0,0,0,0,0,0,0,0,0,0,0,0,0,0,0,0,0,0,0,0,0,0,0,0,0,0,0,0,0,0,0,0,0,0,0,0,0,0,0,0,0,0,0,0,0,0,0,0,0,0,0,0,0,0,0,0,0,0,0,0,0,0,0,0,0,0,0,0,0,0,0,0,0,0,0,0,0,0,0,0,0,0,0,0,0,0,0,0,0,0,0,0,0,0,0,0,0,0,0,0,0,0,0,0,0,0,0,0,0,0,0,0,0,0,0,0,0,0,0,0,0,0,0,0,0,0,0,0,0,0,0,0,0,0,0,0,0,0,0,0,0,0,0,0,0,0,0,0,0,0,0,0,0,0,0,0,0,0,0,0,0,0,0,0,0,0,0,0,0,0,0,0,0,0,0,0,0,0,0,0,0,0,0,0,0,0,0,0,0,0,0,0,0,0,0,0,0,0,0,0,0,0,0,0,0,0,0,0,0,0,0,0,0,0,0,0,0,0,0,0,0,0,0,0,0,0,0,0,0,0,0,0,0,0,0,0,0,0,0,0,0,0,0,0,0,0,0,0,0,0,0,0,0,0,0,0,0,0,0,0,0,0,0,0,0,0,0,0,0,0,0,0,0,0,0,0,0,0,0,0,0,0,0,0,0,0,0,0,0,0,0,0,0,0,0,0,0,0,0,0,0,0,0,0,0,0,0,0,0,0,0,0,0,0,0,0,0,0,0,0,0,0,0,0,0,0,0,0,0,0,0,0,0,0,0,0,0,0,0,0,0,0,0,0,0,0,0,0,0,0,0,0,0,0,0,0,0,0,0,0,0,0,0,0,0,0,0,0,0,0,0,0,0,0,0,0,0,0,0,0,0,0,0,0,0,0,0,0,0,0,0,0,0,0,0,0,0,0,0,0,0,0,0,0,0,0,0,0,0,0,0,0,0,0,0,0,0,0,0,0,0,0,0,0,0,0,0,0,0,0,0,0,0,0,0,0,0,0,0,0,0,0,0,0,0,0,0,0,0,0,0,0,0,0,0,0,0,0,0,0,0,0,0,0,0,0,0,0,0,0,0,0,0,0,0,0,0,0,0,0,0,0,0,0,0,0,0,0,0,0,0,0,0,0,0,0,0,0,0,0,0,0,0,0,0,0,0,0,0,0,0,0,0,0,0,0,0,0,0,0,0,0,0,0,0,0,0,0,0,0,0,0,0,0,0,0,0,0,0,0,0,0,0,0,0,0,0,0,0,0,0,0,0,0,0,0,0,0,0,0,0,0,0,0,0,0,0,0,0,0,0,0,0,0,0,0,0,0,0,0,0,0,0,0,0,0,0,0,0,0,0,0,0,0,0,0,0,0,0,0,0,0,0,0,0,0,0,0,0,0,0,0,0,0,0,0,0,0,0,0,0,0,0,0,0,0,0,0,0,0,0,0,0,0,0,0,0,0,0,0,0,0,0,0,0,0,0,0,0,0,0,0,0,0,0,0,0,0,0,0,0,0,0,0,0,0,0,0,0,0,0,0,0,0,0,0,0,0,0,0,0,0,0,0,0,0,0,0,0,0,0,0,0,0,0,0,0,0,0,0,0,0,0,0,0,0,0,0,0,0,0,0,0,0,0,0,0,0,0,0,0,0,0,0,0,0,0,0,0,0,0,0,0,0],"trees":[{"base_weights":[1.3660896E-9,-1.8470792E-1,2.6487443E-1,-3.0634406E-1,-1.20093554E-1,1.7490652E-1,3.167863E-1,-1.03045024E-1,-7.65649E-2,-1.3772993E-1,-2.86931E-3,7.413604E-2,6.3731186E-2,8.327171E-2,1.10449776E-1,-1.7097794E-1,-1.1041914E-1,-3.402268E-2,2.3211388E-2,5.040597E-2,9.05998E-2,-5.791747E-2,-4.6193417E-2,-1.2215528E-1,-2.6716108E-2,2.2889616E-3,-3.6616493E-2,2.8497064E-2,-1.0341264E-2,1.5719429E-2,2.7798014E-3,6.0748686E-3,2.7971005E-2,-3.6824707E-2,-9.684326E-3,-1.6317926E-2,-6.514218E-3,1.1567225E-2,5.3216056E-3,4.823627E-3,-7.352257E-3],"categories":[],"categories_nodes":[],"categories_segments":[],"categories_sizes":[],"default_left":[0,0,0,0,0,0,0,0,0,0,0,0,0,0,0,0,0,0,0,0,0,0,0,0,0,0,0,0,0,0,0,0,0,0,0,0,0,0,0,0,0],"id":0,"left_children":[1,3,5,7,9,11,13,-1,-1,15,17,19,-1,-1,-1,21,23,25,27,29,31,-1,-1,33,-1,-1,35,37,39,-1,-1,-1,-1,-1,-1,-1,-1,-1,-1,-1,-1],"loss_changes":[4.0607258E1,3.8064785E0,1.537199E0,2.3324394E-1,6.632433E-1,4.6456409E-1,3.3098793E-1,0E0,0E0,2.3446083E-1,3.5727285E-2,9.497941E-3,0E0,0E0,0E0,1.6818523E-2,2.8238416E-2,2.4401564E-3,4.5510596E-3,9.077303E-4,1.8220842E-3,0E0,0E0,1.2670755E-3,0E0,0E0,3.8522799E-3,1.5889369E-3,1.8911418E-3,0E0,0E0,0E0,0E0,0E0,0E0,0E0,0E0,0E0,0E0,0E0,0E0],"parents":[2147483647,0,0,1,1,2,2,3,3,4,4,5,5,6,6,9,9,10,10,11,11,15,15,16,16,17,17,18,18,19,19,20,20,23,23,26,26,27,27,28,28],"right_children":[2,4,6,8,10,12,14,-1,-1,16,18,20,-1,-1,-1,22,24,26,28,30,32,-1,-1,34,-1,-1,36,38,40,-1,-1,-1,-1,-1,-1,-1,-1,-1,-1,-1,-1],"split_conditions":[5.0449264E-1,2.468149E-1,7.057372E-1,1.6388166E-1,4.0393746E-1,5.9319264E-1,7.9306924E-1,-1.03045024E-1,-7.65649E-2,3.2682455E-1,4.589223E-1,5.3804684E-1,6.3731186E-2,8.327171E-2,1.10449776E-1,2.8374863E-1,3.6249766E-1,3.6767426E-1,8.852255E-1,5.682041E-1,5.071919E-1,-5.791747E-2,-4.6193417E-2,3.938256E-1,-2.6716108E-2,2.2889616E-3,7.8215295E-1,7.7890855E-1,4.7531047E-1,1.5719429E-2,2.7798014E-3,6.0748686E-3,2.7971005E-2,-3.6824707E-2,-9.684326E-3,-1.6317926E-2,-6.514218E-3,1.1567225E-2,5.3216056E-3,4.823627E-3,-7.352257E-3],"split_indices":[2,2,2,2,2,2,2,0,0,2,2,2,0,0,0,2,2,1,8,0,0,0,0,1,0,0,8,6,1,0,0,0,0,0,0,0,0,0,0,0,0],"split_type":[0,0,0,0,0,0,0,0,0,0,0,0,0,0,0,0,0,0,0,0,0,0,0,0,0,0,0,0,0,0,0,0,0,0,0,0,0,0,0,0,0],"sum_hessian":[8.28E2,4.88E2,3.4E2,1.68E2,3.2E2,1.26E2,2.14E2,9.4E1,7.4E1,2.78E2,4.2E1,3.5E1,9.1E1,1.25E2,8.9E1,1.23E2,1.55E2,1.9E1,2.3E1,1.6E1,1.9E1,4.9E1,7.4E1,9.7E1,5.8E1,1E0,1.8E1,2E1,3E0,1.5E1,1E0,1E0,1.8E1,9.6E1,1E0,7E0,1.1E1,9E0,1.1E1,1E0,2E0],"tree_param":{"num_deleted":"0","num_feature":"9","num_nodes":"41","size_leaf_vector":"1"}},{"base_weights":[-6.4084445E-5,-1.3003814E-1,1.8632118E-1,-2.2138235E-1,-8.6985044E-2,1.2906751E-1,2.2801872E-1,-7.993785E-2,-2.0010956E-1,-1.02467395E-1,-1.8759899E-2,6.063308E-2,4.6836443E-2,2.0456828E-1,8.103489E-2,-6.026609E-2,-1.7306155E-2,-1.2284278E-1,-8.118875E-2,-3.9654627E-2,1.6846316E-2,4.1650813E-2,8.721473E-2,1.4818991E-2,6.1616477E-2,-4.1812062E-2,-3.2682616E-2,-8.8621356E-2,-2.0995958E-2,-5.0378956E-2,-1.8422151E-2,2.0752177E-2,-7.871039E-3,4.3169316E-2,4.533905E-3,2.6896426E-2,7.2261575E-3,-2.677607E-2,-5.99121E-3,-1.5523766E-2,-2.4308728E-3,-6.2925816E-3,2.598229E-3,3.7514712E-3,9.107733E-3,-8.303878E-3,2.3875027E-3,1.362373E-2,6.0119526E-3],"categories":[],"categories_nodes":[],"categories_segments":[],"categories_sizes":[],"default_left":[0,0,0,0,0,0,0,0,0,0,0,0,0,0,0,0,0,0,0,0,0,0,0,0,0,0,0,0,0,0,0,0,0,0,0,0,0,0,0,0,0,0,0,0,0,0,0,0,0],"id":1,"left_children":[1,3,5,7,9,11,13,-1,15,17,19,21,-1,23,-1,-1,-1,25,27,29,31,33,35,-1,-1,-1,-1,37,-1,39,41,43,45,47,-1,-1,-1,-1,-1,-1,-1,-1,-1,-1,-1,-1,-1,-1,-1],"loss_changes":[2.010696E1,1.9038095E0,7.846527E-1,9.626961E-2,3.5087705E-1,2.6084185E-1,1.3823509E-1,0E0,5.903244E-4,1.0795498E-1,4.753891E-2,1.806438E-2,0E0,6.394863E-3,0E0,0E0,0E0,1.6297579E-2,5.1212907E-3,8.180074E-3,2.480363E-3,4.3562055E-4,4.5901537E-4,0E0,0E0,0E0,0E0,1.6028881E-3,0E0,1.0832027E-3,1.2188503E-3,1.2842137E-3,1.4745123E-3,3.8699433E-4,0E0,0E0,0E0,0E0,0E0,0E0,0E0,0E0,0E0,0E0,0E0,0E0,0E0,0E0,0E0],"parents":[2147483647,0,0,1,1,2,2,3,3,4,4,5,5,6,6,8,8,9,9,10,10,11,11,13,13,17,17,18,18,19,19,20,20,21,21,22,22,27,27,29,29,30,30,31,31,32,32,33,33],"right_children":[2,4,6,8,10,12,14,-1,16,18,20,22,-1,24,-1,-1,-1,26,28,30,32,34,36,-1,-1,-1,-1,38,-1,40,42,44,46,48,-1,-1,-1,-1,-1,-1,-1,-1,-1,-1,-1,-1,-1,-1,-1],"split_conditions":[5.0449264E-1,2.308827E-1,7.173779E-1,1.2694794E-1,3.8872945E-1,6.3321084E-1,8.179867E-1,-7.993785E-2,3.6167112E-1,3.2682455E-1,4.589223E-1,5.6197196E-1,4.6836443E-2,6.780034E-1,8.103489E-2,-6.026609E-2,-1.7306155E-2,2.8240752E-1,3.5597995E-1,4.198035E-1,8.852255E-1,5.982336E-1,8.164273E-1,1.4818991E-2,6.1616477E-2,-4.1812062E-2,-3.2682616E-2,4.0950513E-1,-2.0995958E-2,4.6067575E-1,5.207346E-1,4.964461E-1,5.1807094E-1,8.4487826E-1,4.533905E-3,2.6896426E-2,7.2261575E-3,-2.677607E-2,-5.99121E-3,-1.5523766E-2,-2.4308728E-3,-6.2925816E-3,2.598229E-3,3.7514712E-3,9.107733E-3,-8.303878E-3,2.3875027E-3,1.362373E-2,6.0119526E-3],"split_indices":[2,2,2,2,2,1,2,0,0,2,2,2,0,1,0,0,0,2,2,5,8,0,7,0,0,0,0,0,0,0,0,1,0,8,0,0,0,0,0,0,0,0,0,0,0,0,0,0,0],"split_type":[0,0,0,0,0,0,0,0,0,0,0,0,0,0,0,0,0,0,0,0,0,0,0,0,0,0,0,0,0,0,0,0,0,0,0,0,0,0,0,0,0,0,0,0,0,0,0,0,0],"sum_hessian":[8.28E2,4.88E2,3.4E2,1.55E2,3.33E2,1.45E2,1.95E2,4.6E1,1.09E2,2.71E2,6.2E1,4.2E1,1.03E2,1.29E2,6.6E1,1.08E2,1E0,1.36E2,1.35E2,3.9E1,2.3E1,2.6E1,1.6E1,1E0,1.28E2,5.8E1,7.8E1,7.7E1,5.8E1,2.5E1,1.4E1,2E1,3E0,2.4E1,2E0,1.5E1,1E0,7.6E1,1E0,2.4E1,1E0,1.3E1,1E0,1.2E1,8E0,1E0,2E0,2.1E1,3E0],"tree_param":{"num_deleted":"0","num_feature":"9","num_nodes":"49","size_leaf_vector":"1"}},{"base_weights":[-9.054706E-5,-9.326098E-2,1.2895612E-1,-1.6070192E-1,-6.462182E-2,5.684361E-2,1.4822431E-1,-5.550612E-2,-4.3020107E-2,-8.030859E-2,-3.5193514E-2,2.7959803E-2,7.8872316E-2,3.744251E-2,1.795141E-1,-2.9160092E-2,-6.8401285E-2,-4.6408806E-2,-1.4977205E-3,3.0037086E-2,4.870899E-3,1.8725405E-2,2.6925353E-2,1.6940333E-1,7.565437E-2,-2.0955928E-2,-4.3558735E-2,-1.555396E-2,-3.895982E-2,-1.1939289E-2,1.2034133E-2,2.3871357E-2,3.6737993E-2,2.5329948E-3,-8.769527E-4,5.107137E-2,1.2516681E-2,-1.6851247E-3,-1.4145107E-2,-1.1872226E-2,-2.0662397E-3,-1.1071194E-3,-5.933441E-3,1.981016E-3,5.4523693E-3,9.926077E-3,2.9866546E-3,4.759359E-3,1.1727281E-2],"categories":[],"categories_nodes":[],"categories_segments":[],"categories_sizes":[],"default_left":[0,0,0,0,0,0,0,0,0,0,0,0,0,0,0,0,0,0,0,0,0,0,0,0,0,0,0,0,0,0,0,0,0,0,0,0,0,0,0,0,0,0,0,0,0,0,0,0,0],"id":2,"left_children":[1,3,5,7,9,11,13,-1,-1,15,17,19,21,-1,23,-1,25,27,29,31,33,-1,-1,35,-1,-1,37,-1,39,41,43,45,47,-1,-1,-1,-1,-1,-1,-1,-1,-1,-1,-1,-1,-1,-1,-1,-1],"loss_changes":[9.979371E0,9.2057514E-1,4.7511244E-1,3.36349E-2,1.5412962E-1,4.5515224E-2,1.783495E-1,0E0,0E0,3.780222E-2,4.5279473E-2,1.4844071E-3,1.9160807E-3,0E0,4.1772604E-2,0E0,1.7541647E-3,1.6255677E-3,4.5237863E-3,4.0381216E-4,1.3605603E-4,0E0,0E0,3.9789677E-3,0E0,0E0,1.0978729E-3,0E0,5.5487454E-4,1.0909229E-3,3.4684595E-4,2.1072067E-3,1.832284E-5,0E0,0E0,0E0,0E0,0E0,0E0,0E0,0E0,0E0,0E0,0E0,0E0,0E0,0E0,0E0,0E0],"parents":[2147483647,0,0,1,1,2,2,3,3,4,4,5,5,6,6,9,9,10,10,11,11,12,12,14,14,16,16,17,17,18,18,19,19,20,20,23,23,26,26,28,28,29,29,30,30,31,31,32,32],"right_children":[2,4,6,8,10,12,14,-1,-1,16,18,20,22,-1,24,-1,26,28,30,32,34,-1,-1,36,-1,-1,38,-1,40,42,44,46,48,-1,-1,-1,-1,-1,-1,-1,-1,-1,-1,-1,-1,-1,-1,-1,-1],"split_conditions":[4.9784085E-1,2.1875922E-1,6.711906E-1,1.39286E-1,3.522517E-1,5.6197196E-1,7.7188E-1,-5.550612E-2,-4.3020107E-2,2.9670358E-1,4.198035E-1,8.711386E-1,6.415793E-1,3.744251E-2,8.8434404E-1,-2.9160092E-2,3.6104926E-1,3.7499666E-1,4.774562E-1,8.142366E-1,5.301556E-1,1.8725405E-2,2.6925353E-2,8.9454275E-1,7.565437E-2,-2.0955928E-2,3.6640966E-1,-1.555396E-2,4.889107E-1,4.5293707E-1,8.1002164E-1,5.141217E-1,5.1176137E-1,2.5329948E-3,-8.769527E-4,5.107137E-2,1.2516681E-2,-1.6851247E-3,-1.4145107E-2,-1.1872226E-2,-2.0662397E-3,-1.1071194E-3,-5.933441E-3,1.981016E-3,5.4523693E-3,9.926077E-3,2.9866546E-3,4.759359E-3,1.1727281E-2],"split_indices":[2,1,2,2,2,2,2,0,0,2,5,7,2,0,2,0,1,2,2,7,0,0,0,6,0,0,0,0,0,0,6,1,1,0,0,0,0,0,0,0,0,0,0,0,0,0,0,0,0],"split_type":[0,0,0,0,0,0,0,0,0,0,0,0,0,0,0,0,0,0,0,0,0,0,0,0,0,0,0,0,0,0,0,0,0,0,0,0,0,0,0,0,0,0,0,0,0,0,0,0,0],"sum_hessian":[8.28E2,4.81E2,3.47E2,1.42E2,3.39E2,7.4E1,2.73E2,5.5E1,8.7E1,2.2E2,1.19E2,3.3E1,4.1E1,1.59E2,1.14E2,8.8E1,1.32E2,8.9E1,3E1,3E1,3E0,1.9E1,2.2E1,1.03E2,1.1E1,1.23E2,9E0,4.8E1,4.1E1,1.7E1,1.3E1,1.8E1,1.2E1,2E0,1E0,1.02E2,1E0,1E0,8E0,4E1,1E0,9E0,8E0,8E0,5E0,1E1,8E0,2E0,1E1],"tree_param":{"num_deleted":"0","num_feature":"9","num_nodes":"49","size_leaf_vector":"1"}},{"base_weights":[8.776281E-6,-6.45678E-2,9.26127E-2,-1.1462474E-1,-4.4360545E-2,7.1859695E-2,1.2492723E-1,-4.2436402E-2,-1.0502808E-1,-5.400665E-2,-1.6722478E-2,3.2671757E-2,8.23493E-2,1.153102E-1,5.033131E-2,-3.2901738E-2,-2.4989298E-2,-2.0124E-2,-4.576471E-2,-2.6947968E-2,5.308466E-3,2.054409E-2,4.293278E-2,2.0724008E-2,8.7844186E-2,1.6122848E-2,1.1652278E-1,-5.237685E-2,-4.1876443E-2,-3.0840674E-2,-1.6310086E-2,1.6853958E-2,-2.2628165E-3,2.7384633E-2,1.4190553E-2,4.5906637E-2,4.9760477E-3,3.0442895E-3,8.84473E-2,3.5895385E-2,2.445717E-2,-1.622912E-2,-7.203398E-3,-1.262958E-2,-2.7491928E-3,-3.4910792E-3,-9.729114E-3,2.0856322E-3,-5.396598E-3,7.082089E-3,3.157976E-3,-7.126203E-3,9.754222E-4,1.013487E-2,5.2465918E-3,-6.911552E-4,6.30561E-3,2.6720793E-3,1.4193383E-2,1.7816646E-2,2.721418E-2],"categories":[],"categories_nodes":[],"categories_segments":[],"categories_sizes":[],"default_left":[0,0,0,0,0,0,0,0,0,0,0,0,0,0,0,0,0,0,0,0,0,0,0,0,0,0,0,0,0,0,0,0,0,0,0,0,0,0,0,0,0,0,0,0,0,0,0,0,0,0,0,0,0,0,0,0,0,0,0,0,0],"id":3,"left_children":[1,3,5,7,9,11,13,-1,15,17,19,21,23,25,-1,-1,-1,-1,27,29,31,33,35,-1,37,-1,39,41,43,45,47,49,51,53,55,57,-1,-1,59,-1,-1,-1,-1,-1,-1,-1,-1,-1,-1,-1,-1,-1,-1,-1,-1,-1,-1,-1,-1,-1,-1],"loss_changes":[4.963436E0,4.895451E-1,2.1970582E-1,2.1190166E-2,9.240669E-2,8.36333E-2,3.5042048E-2,0E0,1.6633272E-3,2.4837315E-2,2.0868553E-2,4.8423335E-3,5.962372E-3,2.0246506E-3,0E0,0E0,0E0,0E0,1.971662E-3,2.1058246E-3,2.6605632E-3,6.110156E-4,1.1189356E-3,0E0,4.3976903E-3,0E0,2.0707846E-3,1.4335513E-3,3.9179623E-4,9.963848E-4,8.669575E-4,2.6424415E-4,2.3288715E-3,4.2354222E-5,1.6251907E-3,6.699972E-4,0E0,0E0,1.9894838E-3,0E0,0E0,0E0,0E0,0E0,0E0,0E0,0E0,0E0,0E0,0E0,0E0,0E0,0E0,0E0,0E0,0E0,0E0,0E0,0E0,0E0,0E0],"parents":[2147483647,0,0,1,1,2,2,3,3,4,4,5,5,6,6,8,8,9,9,10,10,11,11,12,12,13,13,18,18,19,19,20,20,21,21,22,22,24,24,26,26,27,27,28,28,29,29,30,30,31,31,32,32,33,33,34,34,35,35,38,38],"right_children":[2,4,6,8,10,12,14,-1,16,18,20,22,24,26,-1,-1,-1,-1,28,30,32,34,36,-1,38,-1,40,42,44,46,48,50,52,54,56,58,-1,-1,60,-1,-1,-1,-1,-1,-1,-1,-1,-1,-1,-1,-1,-1,-1,-1,-1,-1,-1,-1,-1,-1,-1],"split_conditions":[5.0449264E-1,2.1784727E-1,7.603197E-1,9.940187E-2,3.663332E-1,6.415793E-1,8.601776E-1,-4.2436402E-2,1.8863826E-1,3.000027E-1,4.3676743E-1,5.4821235E-1,6.864791E-1,7.224204E-1,5.033131E-2,-3.2901738E-2,-2.4989298E-2,-2.0124E-2,3.2682455E-1,7.2683156E-1,7.943819E-1,5.141217E-1,8.172592E-1,2.0724008E-2,6.6345155E-1,1.6122848E-2,6.822417E-1,3.731109E-1,3.938256E-1,3.677279E-1,3.585588E-1,5.5640286E-1,8.0588984E-1,5.402917E-1,6.329377E-1,5.071919E-1,4.9760477E-3,3.0442895E-3,2.5841606E-1,3.5895385E-2,2.445717E-2,-1.622912E-2,-7.203398E-3,-1.262958E-2,-2.7491928E-3,-3.4910792E-3,-9.729114E-3,2.0856322E-3,-5.396598E-3,7.082089E-3,3.157976E-3,-7.126203E-3,9.754222E-4,1.013487E-2,5.2465918E-3,-6.911552E-4,6.30561E-3,2.6720793E-3,1.4193383E-2,1.7816646E-2,2.721418E-2],"split_indices":[2,2,2,2,2,2,2,0,2,2,2,2,2,1,0,0,0,0,2,8,6,1,8,0,0,0,7,0,1,2,0,6,6,6,7,0,0,0,8,0,0,0,0,0,0,0,0,0,0,0,0,0,0,0,0,0,0,0,0,0,0],"split_type":[0,0,0,0,0,0,0,0,0,0,0,0,0,0,0,0,0,0,0,0,0,0,0,0,0,0,0,0,0,0,0,0,0,0,0,0,0,0,0,0,0,0,0,0,0,0,0,0,0,0,0,0,0,0,0,0,0,0,0,0,0],"sum_hessian":[8.28E2,4.88E2,3.4E2,1.39E2,3.49E2,2.09E2,1.31E2,3.3E1,1.06E2,2.58E2,9.1E1,4.5E1,1.64E2,1.1E2,2.1E1,8.4E1,2.2E1,9.7E1,1.61E2,6.2E1,2.9E1,2.2E1,2.3E1,5.2E1,1.12E2,3E0,1.07E2,5.5E1,1.06E2,4.4E1,1.8E1,1.1E1,1.8E1,9E0,1.3E1,2E1,3E0,1E0,1.11E2,9.6E1,1.1E1,5.1E1,4E0,1.05E2,1E0,4E0,4E1,1E0,1.7E1,4E0,7E0,3E0,1.5E1,4E0,5E0,4E0,9E0,1E0,1.9E1,1E1,1.01E2],"tree_param":{"num_deleted":"0","num_feature":"9","num_nodes":"61","size_leaf_vector":"1"}},{"base_weights":[8.6646265E-5,-4.7432434E-2,6.304586E-2,-8.095394E-2,-3.3239488E-2,3.826805E-2,7.9232745E-2,-1.0026639E-1,-7.406069E-2,-4.378051E-2,-2.4195448E-2,1.5876781E-2,4.9414407E-2,7.5729676E-2,4.529988E-2,-8.236984E-3,-3.049222E-2,-7.44062E-2,-5.6154975E-3,-5.0601088E-2,-3.7728738E-2,-2.6895033E-2,-5.302556E-3,1.29275005E-2,2.4889978E-2,5.023179E-2,2.2812248E-3,6.3810304E-2,8.335096E-2,-2.3289202E-2,-5.939484E-2,-4.2203717E-2,-1.7265815E-2,1.2521669E-3,-3.827727E-2,-2.9029816E-2,-1.9818304E-2,1.13982335E-2,-8.231156E-3,1.9806342E-2,9.872509E-3,-3.400326E-4,2.7605664E-2,3.2964204E-2,5.2382983E-2,4.9962994E-2,6.8439364E-2,8.049798E-3,8.406338E-2,-3.6843182E-3,-1.8293444E-2,-1.4024316E-2,-3.7349255E-3,-1.2325451E-2,-8.369447E-3,-3.6620023E-3,-8.851409E-3,-5.1735344E-5,-6.0952874E-3,3.957126E-3,9.032518E-4,-3.5899095E-3,3.1905214E-3,7.650438E-3,2.3615726E-3,1.6176889E-3,4.2862725E-3,1.0231755E-2,5.2763703E-3,1.4314325E-2,7.13031E-3,1.6242173E-2,8.873226E-3,1.613262E-2,-6.2301815E-3,1.1270569E-2,2.1337207E-2,2.5738725E-2,1.6876368E-2],"categories":[],"categories_nodes":[],"categories_segments":[],"categories_sizes":[],"default_left":[0,0,0,0,0,0,0,0,0,0,0,0,0,0,0,0,0,0,0,0,0,0,0,0,0,0,0,0,0,0,0,0,0,0,0,0,0,0,0,0,0,0,0,0,0,0,0,0,0,0,0,0,0,0,0,0,0,0,0,0,0,0,0,0,0,0,0,0,0,0,0,0,0,0,0,0,0,0,0],"id":4,"left_children":[1,3,5,7,9,11,13,15,17,19,21,23,25,27,-1,-1,-1,29,-1,31,33,35,37,39,41,43,-1,45,47,-1,49,51,-1,-1,53,55,57,59,61,63,65,-1,67,69,71,73,75,-1,77,-1,-1,-1,-1,-1,-1,-1,-1,-1,-1,-1,-1,-1,-1,-1,-1,-1,-1,-1,-1,-1,-1,-1,-1,-1,-1,-1,-1,-1,-1],"loss_changes":[2.4831624E0,2.2234786E-1,1.4015186E-1,1.1211753E-2,3.0782044E-2,3.4905568E-2,4.2616606E-2,6.1151385E-4,6.532669E-4,4.4062436E-3,9.139925E-3,9.807749E-4,2.864644E-3,1.3485432E-2,0E0,0E0,0E0,5.199313E-4,0E0,1.5989542E-3,2.1134764E-3,1.8267334E-3,1.267659E-3,6.240392E-4,8.086753E-4,1.7278045E-3,0E0,2.0290911E-3,2.6970506E-3,0E0,9.668246E-4,4.1500814E-3,0E0,0E0,1.3015717E-3,5.9852004E-4,3.8887747E-4,2.0412786E-5,1.607118E-3,5.469029E-4,4.965896E-4,0E0,5.132286E-5,6.293934E-4,1.6453713E-3,7.858068E-3,2.3835003E-3,0E0,1.0027289E-3,0E0,0E0,0E0,0E0,0E0,0E0,0E0,0E0,0E0,0E0,0E0,0E0,0E0,0E0,0E0,0E0,0E0,0E0,0E0,0E0,0E0,0E0,0E0,0E0,0E0,0E0,0E0,0E0,0E0,0E0],"parents":[2147483647,0,0,1,1,2,2,3,3,4,4,5,5,6,6,7,7,8,8,9,9,10,10,11,11,12,12,13,13,17,17,19,19,20,20,21,21,22,22,23,23,24,24,25,25,27,27,28,28,30,30,31,31,34,34,35,35,36,36,37,37,38,38,39,39,40,40,42,42,43,43,44,44,45,45,46,46,48,48],"right_children":[2,4,6,8,10,12,14,16,18,20,22,24,26,28,-1,-1,-1,30,-1,32,34,36,38,40,42,44,-1,46,48,-1,50,52,-1,-1,54,56,58,60,62,64,66,-1,68,70,72,74,76,-1,78,-1,-1,-1,-1,-1,-1,-1,-1,-1,-1,-1,-1,-1,-1,-1,-1,-1,-1,-1,-1,-1,-1,-1,-1,-1,-1,-1,-1,-1,-1],"split_conditions":[4.8400074E-1,2.1784727E-1,7.0560306E-1,9.940187E-2,3.2682455E-1,5.865944E-1,8.993643E-1,5.6707893E-2,2.7299306E-1,2.802886E-1,4.08524E-1,5.461202E-1,9.665576E-1,7.603197E-1,4.529988E-2,-8.236984E-3,-3.049222E-2,1.8863826E-1,-5.6154975E-3,2.5958222E-1,1.2206755E-1,3.7499666E-1,6.987688E-1,5.740669E-1,5.3727746E-1,6.415793E-1,2.2812248E-3,3.3703068E-1,2.6484942E-1,-2.3289202E-2,8.158172E-2,2.598235E-1,-1.7265815E-2,1.2521669E-3,3.4610963E-1,1.9488658E-1,3.4019348E-1,3.8645732E-1,5.1807094E-1,5.1731354E-1,8.1947756E-1,-3.400326E-4,5.734249E-1,5.8246386E-1,6.9946086E-1,7.512539E-1,6.9342595E-1,8.049798E-3,6.941656E-1,-3.6843182E-3,-1.8293444E-2,-1.4024316E-2,-3.7349255E-3,-1.2325451E-2,-8.369447E-3,-3.6620023E-3,-8.851409E-3,-5.1735344E-5,-6.0952874E-3,3.957126E-3,9.032518E-4,-3.5899095E-3,3.1905214E-3,7.650438E-3,2.3615726E-3,1.6176889E-3,4.2862725E-3,1.0231755E-2,5.2763703E-3,1.4314325E-2,7.13031E-3,1.6242173E-2,8.873226E-3,1.613262E-2,-6.2301815E-3,1.1270569E-2,2.1337207E-2,2.5738725E-2,1.6876368E-2],"split_indices":[2,2,1,2,2,2,2,6,1,2,2,1,7,2,0,0,0,2,0,0,6,2,8,6,0,2,0,7,6,0,6,1,0,0,0,6,0,0,0,1,6,0,1,1,1,2,2,0,8,0,0,0,0,0,0,0,0,0,0,0,0,0,0,0,0,0,0,0,0,0,0,0,0,0,0,0,0,0,0],"split_type":[0,0,0,0,0,0,0,0,0,0,0,0,0,0,0,0,0,0,0,0,0,0,0,0,0,0,0,0,0,0,0,0,0,0,0,0,0,0,0,0,0,0,0,0,0,0,0,0,0,0,0,0,0,0,0,0,0,0,0,0,0,0,0,0,0,0,0,0,0,0,0,0,0,0,0,0,0,0,0],"sum_hessian":[8.28E2,4.72E2,3.56E2,1.39E2,3.33E2,1.42E2,2.14E2,3.3E1,1.06E2,1.52E2,1.81E2,4.8E1,9.4E1,2.06E2,8E0,1E0,3.2E1,1.05E2,1E0,6.8E1,8.4E1,1.58E2,2.3E1,3.8E1,1E1,9.2E1,2E0,8.4E1,1.22E2,8.3E1,2.2E1,3.4E1,3.4E1,1E0,8.3E1,1.19E2,3.9E1,3E0,2E1,1E1,2.8E1,1E0,9E0,1.2E1,8E1,2.4E1,6E1,2E0,1.2E2,1E0,2.1E1,2.9E1,5E0,6.3E1,2E1,4E0,1.15E2,1E0,3.8E1,2E0,1E0,1.7E1,3E0,6E0,4E0,1.5E1,1.3E1,4E0,5E0,3E0,9E0,7.3E1,7E0,2.3E1,1E0,6E0,5.4E1,1.11E2,9E0],"tree_param":{"num_deleted":"0","num_feature":"9","num_nodes":"79","size_leaf_vector":"1"}},{"base_weights":[1.3317818E-4,-3.3537332E-2,4.4743873E-2,-5.304997E-2,-2.126049E-2,2.066818E-2,5.3146794E-2,-6.081134E-2,-4.0347718E-2,-2.4980651E-2,-1.1428605E-2,1.0875153E-2,2.9439833E-2,4.8670836E-2,8.1041746E-2,-2.5797928E-2,-1.7240005E-2,-4.6788782E-2,-3.4915633E-2,-2.6649967E-2,-1.8413544E-2,-1.444955E-2,-3.5259214E-3,7.002438E-3,1.4133375E-2,1.0078701E-2,2.4106402E-2,4.2394523E-2,5.513232E-2,6.8143114E-2,1.1073302E-1,-4.8158452E-2,-1.060246E-3,-1.6846081E-2,-3.796121E-2,-2.7528951E-2,-1.5140371E-2,-1.0763902E-2,-7.880801E-3,-6.959651E-3,-2.0139784E-2,2.3041184E-3,-9.547971E-3,8.343838E-3,-1.4551729E-3,1.4901282E-2,6.5685213E-3,4.9241185E-3,2.9904801E-2,4.703646E-2,3.2189853E-2,5.583301E-2,1.1529982E-2,2.7415553E-2,7.030469E-2,8.87442E-3,3.515379E-2,-4.903706E-3,-1.4972868E-2,-1.9226858E-3,-6.547971E-3,-1.2219229E-2,-7.538081E-3,-7.7688405E-3,-1.6166022E-2,-1.0097117E-2,-2.7748512E-3,-4.207066E-3,1.523822E-3,-4.5074606E-3,-1.4272817E-4,-7.344789E-3,-2.310893E-3,-1.2079716E-3,3.9715613E-3,-4.918146E-3,2.472655E-3,4.239455E-5,2.934909E-3,4.410386E-4,-1.5346617E-3,3.2597978E-3,5.2745733E-3,2.615422E-4,2.453047E-3,-5.30304E-3,3.4911218E-3,1.0629346E-2,4.61084E-3,1.2610089E-2,2.6229935E-2,5.229233E-3,1.0571881E-2,7.2548245E-3,1.7045341E-2,-4.9775722E-3,1.0166064E-2,1.0535342E-2,1.8016577E-3,2.2034045E-2,1.0634047E-2],"categories":[],"categories_nodes":[],"categories_segments":[],"categories_sizes":[],"default_left":[0,0,0,0,0,0,0,0,0,0,0,0,0,0,0,0,0,0,0,0,0,0,0,0,0,0,0,0,0,0,0,0,0,0,0,0,0,0,0,0,0,0,0,0,0,0,0,0,0,0,0,0,0,0,0,0,0,0,0,0,0,0,0,0,0,0,0,0,0,0,0,0,0,0,0,0,0,0,0,0,0,0,0,0,0,0,0,0,0,0,0,0,0,0,0,0,0,0,0,0,0],"id":5,"left_children":[1,3,5,7,9,11,13,15,17,19,21,23,25,27,29,-1,-1,31,33,35,37,39,41,43,45,-1,47,49,51,53,55,57,-1,59,61,63,65,67,-1,69,71,73,75,77,79,81,83,85,87,89,91,93,95,97,99,-1,-1,-1,-1,-1,-1,-1,-1,-1,-1,-1,-1,-1,-1,-1,-1,-1,-1,-1,-1,-1,-1,-1,-1,-1,-1,-1,-1,-1,-1,-1,-1,-1,-1,-1,-1,-1,-1,-1,-1,-1,-1,-1,-1,-1,-1],"loss_changes":[1.2467123E0,1.1218089E-1,7.112485E-2,1.5489221E-2,1.0394767E-2,7.7545308E-3,2.9017746E-2,4.4071972E-3,8.855015E-4,1.8223822E-3,1.9066846E-3,4.814677E-4,2.7621165E-4,6.9901943E-3,5.858496E-3,0E0,0E0,1.6071349E-3,1.7268881E-3,1.2625828E-3,2.481562E-3,2.3743724E-3,8.6461054E-4,2.7307763E-4,4.153885E-5,0E0,2.6334096E-3,4.2176098E-3,2.7169287E-3,4.4952333E-4,1.2418106E-3,7.9970807E-4,0E0,2.759702E-4,2.561845E-4,5.1892623E-3,1.2157997E-3,1.3623224E-3,0E0,1.4047896E-3,1.593777E-3,9.5319736E-4,1.5965854E-3,2.347175E-4,5.03512E-5,3.6114827E-5,2.9519535E-5,1.2677386E-3,9.816606E-4,1.2694776E-2,1.2312196E-3,1.9922256E-3,2.4484026E-3,2.838152E-4,1.3474375E-4,0E0,0E0,0E0,0E0,0E0,0E0,0E0,0E0,0E0,0E0,0E0,0E0,0E0,0E0,0E0,0E0,0E0,0E0,0E0,0E0,0E0,0E0,0E0,0E0,0E0,0E0,0E0,0E0,0E0,0E0,0E0,0E0,0E0,0E0,0E0,0E0,0E0,0E0,0E0,0E0,0E0,0E0,0E0,0E0,0E0,0E0],"parents":[2147483647,0,0,1,1,2,2,3,3,4,4,5,5,6,6,7,7,8,8,9,9,10,10,11,11,12,12,13,13,14,14,17,17,18,18,19,19,20,20,21,21,22,22,23,23,24,24,26,26,27,27,28,28,29,29,30,30,31,31,33,33,34,34,35,35,36,36,37,37,39,39,40,40,41,41,42,42,43,43,44,44,45,45,46,46,47,47,48,48,49,49,50,50,51,51,52,52,53,53,54,54],"right_children":[2,4,6,8,10,12,14,16,18,20,22,24,26,28,30,-1,-1,32,34,36,38,40,42,44,46,-1,48,50,52,54,56,58,-1,60,62,64,66,68,-1,70,72,74,76,78,80,82,84,86,88,90,92,94,96,98,100,-1,-1,-1,-1,-1,-1,-1,-1,-1,-1,-1,-1,-1,-1,-1,-1,-1,-1,-1,-1,-1,-1,-1,-1,-1,-1,-1,-1,-1,-1,-1,-1,-1,-1,-1,-1,-1,-1,-1,-1,-1,-1,-1,-1,-1,-1],"split_conditions":[4.8400074E-1,2.598235E-1,6.7687684E-1,1.8425418E-1,3.6357054E-1,5.736931E-1,8.48215E-1,7.756887E-2,3.1074262E-1,3.480675E-1,4.08524E-1,5.150873E-1,5.159725E-1,7.5120026E-1,8.993643E-1,-2.5797928E-2,-1.7240005E-2,2.7344903E-1,4.3167323E-1,3.731109E-1,3.6683023E-1,5.191892E-1,4.5293707E-1,8.711386E-1,5.734249E-1,1.0078701E-2,5.915368E-1,4.6511564E-1,8.444868E-1,8.323006E-1,4.4423494E-1,1.7316203E-1,-1.060246E-3,2.2785184E-1,2.467781E-1,3.4793338E-1,3.442682E-1,6.673784E-1,-7.880801E-3,4.6214852E-1,3.9173153E-1,4.3676743E-1,5.1807094E-1,4.889107E-1,5.301556E-1,5.3804684E-1,5.8246386E-1,6.22348E-1,6.6494113E-1,4.4847763E-1,5.310576E-1,2.729466E-1,8.7791955E-1,8.1469226E-1,9.2889386E-1,8.87442E-3,3.515379E-2,-4.903706E-3,-1.4972868E-2,-1.9226858E-3,-6.547971E-3,-1.2219229E-2,-7.538081E-3,-7.7688405E-3,-1.6166022E-2,-1.0097117E-2,-2.7748512E-3,-4.207066E-3,1.523822E-3,-4.5074606E-3,-1.4272817E-4,-7.344789E-3,-2.310893E-3,-1.2079716E-3,3.9715613E-3,-4.918146E-3,2.472655E-3,4.239455E-5,2.934909E-3,4.410386E-4,-1.5346617E-3,3.2597978E-3,5.2745733E-3,2.615422E-4,2.453047E-3,-5.30304E-3,3.4911218E-3,1.0629346E-2,4.61084E-3,1.2610089E-2,2.6229935E-2,5.229233E-3,1.0571881E-2,7.2548245E-3,1.7045341E-2,-4.9775722E-3,1.0166064E-2,1.0535342E-2,1.8016577E-3,2.2034045E-2,1.0634047E-2],"split_indices":[2,1,2,5,1,2,2,2,7,2,2,2,7,1,2,0,0,2,7,0,0,6,0,8,1,0,6,7,2,0,6,1,0,2,4,1,6,6,0,6,5,2,0,0,0,2,1,1,2,7,6,7,0,0,0,0,0,0,0,0,0,0,0,0,0,0,0,0,0,0,0,0,0,0,0,0,0,0,0,0,0,0,0,0,0,0,0,0,0,0,0,0,0,0,0,0,0,0,0,0,0],"split_type":[0,0,0,0,0,0,0,0,0,0,0,0,0,0,0,0,0,0,0,0,0,0,0,0,0,0,0,0,0,0,0,0,0,0,0,0,0,0,0,0,0,0,0,0,0,0,0,0,0,0,0,0,0,0,0,0,0,0,0,0,0,0,0,0,0,0,0,0,0,0,0,0,0,0,0,0,0,0,0,0,0,0,0,0,0,0,0,0,0,0,0,0,0,0,0,0,0,0,0,0,0],"sum_hessian":[8.28E2,4.72E2,3.56E2,1.81E2,2.91E2,9.3E1,2.63E2,1.1E2,7.1E1,2.1E2,8.1E1,4.5E1,4.8E1,2.29E2,3.4E1,1E1,1E2,2.9E1,4.2E1,1.65E2,4.5E1,5.8E1,2.3E1,2.2E1,2.3E1,2.4E1,2.4E1,1.2E2,1.09E2,2.6E1,8E0,2.8E1,1E0,7E0,3.5E1,1.52E2,1.3E1,2.4E1,2.1E1,2.6E1,3.2E1,1.2E1,1.1E1,1.9E1,3E0,2E1,3E0,6E0,1.8E1,8E1,4E1,1.07E2,2E0,2E0,2.4E1,1E0,7E0,2E0,2.6E1,3E0,4E0,2.7E1,8E0,1.45E2,7E0,2E0,1.1E1,2E1,4E0,1.1E1,1.5E1,2.3E1,9E0,8E0,4E0,8E0,3E0,3E0,1.6E1,2E0,1E0,1E1,1E1,1E0,2E0,1E0,5E0,1.2E1,6E0,7.3E1,7E0,8E0,3.2E1,4E0,1.03E2,1E0,1E0,1E0,1E0,2.1E1,3E0],"tree_param":{"num_deleted":"0","num_feature":"9","num_nodes":"101","size_leaf_vector":"1"}},{"base_weights":[1.6106918E-4,-2.32836E-2,3.263282E-2,-3.728027E-2,-1.4206545E-2,2.3780046E-2,4.325129E-2,-4.6560362E-2,-3.1680215E-2,-1.7361818E-2,-6.9770725E-3,1.12787355E-2,2.8342828E-2,4.005818E-2,7.849656E-2,-1.8762128E-2,-4.279187E-2,-3.6358337E-3,-3.2120995E-2,-2.6731199E-2,-1.636711E-2,-9.3309255E-3,3.087494E-3,7.0636105E-3,1.6077695E-2,3.1209571E-2,2.065948E-2,1.8806746E-2,4.1650467E-2,9.587472E-3,2.538252E-2,-4.359367E-2,-1.3293664E-2,7.686183E-4,-2.4047436E-3,-1.0793053E-2,-2.7729796E-2,-2.6536696E-3,-9.410938E-3,-1.0186069E-2,-1.7723361E-2,-1.1866391E-3,-1.15571655E-2,8.479538E-3,-6.5970803E-3,1.34262405E-2,4.1396427E-3,1.7281128E-2,-1.7401904E-3,2.3625985E-2,4.111962E-2,2.9493155E-2,7.7334973E-3,-1.433444E-2,2.6868427E-2,4.2108186E-2,-2.9525848E-3,-1.317827E-2,-3.7343414E-3,-7.149361E-4,-5.2672126E-3,-6.8661044E-3,-1.1327436E-2,-2.8384107E-3,2.665414E-3,-4.8547746E-3,-1.954062E-3,-6.788532E-3,-4.2560035E-3,-2.0201928E-3,5.5577094E-3,-4.0632784E-3,-5.506665E-4,3.6533356E-3,1.2294748E-3,-6.1358125E-3,9.1071374E-4,4.2498945E-3,1.1258484E-3,1.918261E-4,2.4827905E-3,-7.7799265E-4,5.4907165E-3,7.321875E-3,2.0387426E-3,1.52188465E-2,8.403688E-3,9.832666E-4,9.924651E-3,-8.17371E-4,5.5482886E-3,7.3666876E-4,-7.187167E-3,9.377604E-3,1.8614829E-3,1.4130982E-2,1.0772648E-2],"categories":[],"categories_nodes":[],"categories_segments":[],"categories_sizes":[],"default_left":[0,0,0,0,0,0,0,0,0,0,0,0,0,0,0,0,0,0,0,0,0,0,0,0,0,0,0,0,0,0,0,0,0,0,0,0,0,0,0,0,0,0,0,0,0,0,0,0,0,0,0,0,0,0,0,0,0,0,0,0,0,0,0,0,0,0,0,0,0,0,0,0,0,0,0,0,0,0,0,0,0,0,0,0,0,0,0,0,0,0,0,0,0,0,0,0,0],"id":6,"left_children":[1,3,5,7,9,11,13,15,17,19,21,23,25,27,29,-1,31,33,35,37,39,41,43,45,47,49,51,53,55,-1,-1,57,59,-1,-1,-1,61,63,-1,65,67,69,71,73,75,77,79,81,-1,83,85,87,89,91,93,95,-1,-1,-1,-1,-1,-1,-1,-1,-1,-1,-1,-1,-1,-1,-1,-1,-1,-1,-1,-1,-1,-1,-1,-1,-1,-1,-1,-1,-1,-1,-1,-1,-1,-1,-1,-1,-1,-1,-1,-1,-1],"loss_changes":[6.318688E-1,6.0707778E-2,3.168446E-2,8.347094E-3,6.5852813E-3,1.0632157E-2,1.4524698E-2,1.4789999E-3,1.378946E-3,1.4637299E-3,2.1846462E-3,9.5852977E-4,2.438888E-3,4.157111E-3,7.092804E-4,0E0,8.1593543E-4,1.01976926E-4,1.0172576E-3,1.927101E-3,1.3870969E-3,1.3279896E-3,9.95894E-4,5.025439E-4,7.321397E-4,6.5438747E-3,4.453456E-3,3.5912278E-3,3.5962462E-3,0E0,0E0,4.595518E-5,9.771687E-5,0E0,0E0,0E0,2.0497255E-3,3.9826083E-4,0E0,6.873992E-4,2.3158267E-3,1.9837178E-3,1.0955697E-3,1.445295E-4,9.963673E-4,1.126749E-5,3.132254E-4,5.142945E-4,0E0,6.089285E-4,3.8692653E-3,2.1496862E-3,2.0760577E-3,5.4352806E-4,7.132208E-4,2.4580657E-3,0E0,0E0,0E0,0E0,0E0,0E0,0E0,0E0,0E0,0E0,0E0,0E0,0E0,0E0,0E0,0E0,0E0,0E0,0E0,0E0,0E0,0E0,0E0,0E0,0E0,0E0,0E0,0E0,0E0,0E0,0E0,0E0,0E0,0E0,0E0,0E0,0E0,0E0,0E0,0E0,0E0],"parents":[2147483647,0,0,1,1,2,2,3,3,4,4,5,5,6,6,7,7,8,8,9,9,10,10,11,11,12,12,13,13,14,14,16,16,17,17,18,18,19,19,20,20,21,21,22,22,23,23,24,24,25,25,26,26,27,27,28,28,31,31,32,32,36,36,37,37,39,39,40,40,41,41,42,42,43,43,44,44,45,45,46,46,47,47,49,49,50,50,51,51,52,52,53,53,54,54,55,55],"right_children":[2,4,6,8,10,12,14,16,18,20,22,24,26,28,30,-1,32,34,36,38,40,42,44,46,48,50,52,54,56,-1,-1,58,60,-1,-1,-1,62,64,-1,66,68,70,72,74,76,78,80,82,-1,84,86,88,90,92,94,96,-1,-1,-1,-1,-1,-1,-1,-1,-1,-1,-1,-1,-1,-1,-1,-1,-1,-1,-1,-1,-1,-1,-1,-1,-1,-1,-1,-1,-1,-1,-1,-1,-1,-1,-1,-1,-1,-1,-1,-1,-1],"split_conditions":[4.964461E-1,2.656975E-1,7.4253684E-1,1.4746667E-1,3.6357054E-1,6.6345155E-1,8.7989163E-1,7.756887E-2,1.05481565E-1,2.7836815E-1,4.589223E-1,5.461202E-1,5.868227E-1,7.541848E-1,4.608452E-1,-1.8762128E-2,1.8213935E-1,9.5752135E-2,2.0545557E-1,2.559372E-1,3.1327632E-1,3.7000778E-1,4.8652202E-1,5.1807094E-1,6.757235E-1,3.3703068E-1,7.4403477E-1,3.3980367E-1,9.2889386E-1,9.587472E-3,2.538252E-2,4.3389162E-1,1.9052292E-1,7.686183E-4,-2.4047436E-3,-1.0793053E-2,2.768821E-1,2.4704893E-1,-9.410938E-3,2.952194E-1,3.2682455E-1,3.679693E-1,7.8215295E-1,4.6067575E-1,4.8400074E-1,5.427943E-1,5.363034E-1,5.3727746E-1,-1.7401904E-3,3.5594255E-1,4.6511564E-1,5.922023E-1,7.921211E-1,7.300435E-1,7.376284E-1,5.544063E-1,-2.9525848E-3,-1.317827E-2,-3.7343414E-3,-7.149361E-4,-5.2672126E-3,-6.8661044E-3,-1.1327436E-2,-2.8384107E-3,2.665414E-3,-4.8547746E-3,-1.954062E-3,-6.788532E-3,-4.2560035E-3,-2.0201928E-3,5.5577094E-3,-4.0632784E-3,-5.506665E-4,3.6533356E-3,1.2294748E-3,-6.1358125E-3,9.1071374E-4,4.2498945E-3,1.1258484E-3,1.918261E-4,2.4827905E-3,-7.7799265E-4,5.4907165E-3,7.321875E-3,2.0387426E-3,1.52188465E-2,8.403688E-3,9.832666E-4,9.924651E-3,-8.17371E-4,5.5482886E-3,7.3666876E-4,-7.187167E-3,9.377604E-3,1.8614829E-3,1.4130982E-2,1.0772648E-2],"split_indices":[1,1,2,2,1,0,1,2,0,0,2,1,6,0,6,0,0,0,2,0,0,1,1,0,1,8,0,6,0,0,0,6,0,0,0,0,0,0,0,0,2,1,8,0,2,2,2,0,0,6,7,7,0,0,1,6,0,0,0,0,0,0,0,0,0,0,0,0,0,0,0,0,0,0,0,0,0,0,0,0,0,0,0,0,0,0,0,0,0,0,0,0,0,0,0,0,0],"split_type":[0,0,0,0,0,0,0,0,0,0,0,0,0,0,0,0,0,0,0,0,0,0,0,0,0,0,0,0,0,0,0,0,0,0,0,0,0,0,0,0,0,0,0,0,0,0,0,0,0,0,0,0,0,0,0,0,0,0,0,0,0,0,0,0,0,0,0,0,0,0,0,0,0,0,0,0,0,0,0,0,0,0,0,0,0,0,0,0,0,0,0,0,0,0,0,0,0],"sum_hessian":[8.28E2,4.81E2,3.47E2,1.88E2,2.93E2,1.91E2,1.56E2,6.8E1,1.2E2,2.03E2,9E1,5.2E1,1.39E2,1.45E2,1.1E1,1E1,5.8E1,2E0,1.18E2,1.7E1,1.86E2,7.3E1,1.7E1,2.9E1,2.3E1,9.9E1,4E1,1.1E1,1.34E2,2E0,9E0,5.6E1,2E0,1E0,1E0,5.9E1,5.9E1,3E0,1.4E1,3.5E1,1.51E2,1.6E1,5.7E1,1.1E1,6E0,8E0,2.1E1,2.2E1,1E0,5.8E1,4.1E1,2.3E1,1.7E1,2E0,9E0,1.33E2,1E0,5.5E1,1E0,1E0,1E0,4.2E1,1.7E1,2E0,1E0,1.2E1,2.3E1,6.1E1,9E1,1.3E1,3E0,4.7E1,1E1,5E0,6E0,2E0,4E0,7E0,1E0,1.2E1,9E0,1E0,2.1E1,5.5E1,3E0,2.2E1,1.9E1,3E0,2E1,9E0,8E0,1E0,1E0,7E0,2E0,7E1,6.3E1],"tree_param":{"num_deleted":"0","num_feature":"9","num_nodes":"97","size_leaf_vector":"1"}},{"base_weights":[1.3713424E-4,-1.6508346E-2,2.3191689E-2,-2.5801523E-2,-9.419295E-3,1.9169854E-2,3.7097495E-2,-3.0886194E-2,-1.9181918E-2,-1.1089799E-2,-2.688401E-3,1.0558717E-2,2.2766417E-2,3.4056064E-2,2.2224868E-2,-4.2514738E-2,-2.845993E-2,5.9604365E-3,-1.9822333E-2,-1.3449926E-2,-8.562973E-3,-4.0878993E-3,6.219577E-3,5.212882E-3,1.338544E-2,2.4847476E-2,1.5462371E-2,2.6786544E-3,3.538331E-2,-7.2165946E-3,-5.2074794E-2,-2.8759094E-2,1.2870581E-4,-1.6736519E-2,-2.341548E-2,-1.1991544E-2,-2.7126271E-2,2.3320804E-3,-1.1189429E-2,-1.4959138E-3,-6.725555E-3,3.4933032E-3,2.4705976E-3,9.995679E-3,3.0193343E-3,1.5368324E-2,3.3222078E-3,-1.3514669E-3,2.5490267E-2,2.719897E-2,1.0370305E-2,1.3043755E-2,3.0099306E-2,-1.634852E-2,-4.1808165E-3,-8.145336E-3,-1.1406099E-2,-7.145682E-3,-3.0161587E-3,-8.477101E-3,-4.5609022E-3,-4.1021933E-3,-1.552676E-3,-1.4739274E-2,-4.6451245E-3,-2.9026992E-3,1.6614016E-3,-1.9369376E-3,-4.348967E-3,-1.4816207E-3,1.3519425E-3,-4.736409E-3,-6.195719E-4,1.5380078E-3,-5.6831836E-4,4.5939805E-3,1.8866276E-3,1.0599324E-4,2.0493001E-3,3.0985668E-3,5.635622E-3,-3.0724348E-3,1.790166E-3,5.8227587E-3,8.741844E-3,1.0009783E-2,1.4945404E-3,7.973989E-3,2.3590024E-3,3.629483E-3,1.0883558E-2],"categories":[],"categories_nodes":[],"categories_segments":[],"categories_sizes":[],"default_left":[0,0,0,0,0,0,0,0,0,0,0,0,0,0,0,0,0,0,0,0,0,0,0,0,0,0,0,0,0,0,0,0,0,0,0,0,0,0,0,0,0,0,0,0,0,0,0,0,0,0,0,0,0,0,0,0,0,0,0,0,0,0,0,0,0,0,0,0,0,0,0,0,0,0,0,0,0,0,0,0,0,0,0,0,0,0,0,0,0,0,0],"id":7,"left_children":[1,3,5,7,9,11,13,15,17,19,21,23,25,27,-1,29,31,-1,33,35,37,39,41,43,45,47,49,-1,51,-1,53,55,-1,57,59,61,63,65,67,69,71,-1,73,75,77,79,81,-1,83,85,87,-1,89,-1,-1,-1,-1,-1,-1,-1,-1,-1,-1,-1,-1,-1,-1,-1,-1,-1,-1,-1,-1,-1,-1,-1,-1,-1,-1,-1,-1,-1,-1,-1,-1,-1,-1,-1,-1,-1,-1],"loss_changes":[3.1851503E-1,3.151104E-2,1.8751398E-2,6.4085126E-3,3.06228E-3,8.183584E-3,6.138645E-3,2.0628348E-3,2.719596E-3,1.1968277E-3,7.2356034E-4,1.1693407E-3,2.5190338E-3,2.1186247E-3,0E0,1.9238405E-3,8.6794794E-4,0E0,6.281845E-4,1.908591E-3,3.1451713E-3,3.249406E-4,1.3393024E-4,2.8455857E-4,1.0065166E-3,2.8883442E-3,2.4072984E-3,0E0,1.6430244E-3,0E0,2.5592E-4,4.2710453E-4,0E0,2.268985E-3,1.1608433E-3,1.1103712E-3,1.8011648E-3,9.0049405E-4,1.2838272E-3,5.595503E-4,9.810096E-4,0E0,7.927498E-5,8.110545E-5,2.2115033E-4,5.6371186E-4,4.1987325E-4,0E0,2.629958E-3,1.6149413E-3,1.1320144E-3,0E0,4.5665465E-3,0E0,0E0,0E0,0E0,0E0,0E0,0E0,0E0,0E0,0E0,0E0,0E0,0E0,0E0,0E0,0E0,0E0,0E0,0E0,0E0,0E0,0E0,0E0,0E0,0E0,0E0,0E0,0E0,0E0,0E0,0E0,0E0,0E0,0E0,0E0,0E0,0E0,0E0],"parents":[2147483647,0,0,1,1,2,2,3,3,4,4,5,5,6,6,7,7,8,8,9,9,10,10,11,11,12,12,13,13,15,15,16,16,18,18,19,19,20,20,21,21,22,22,23,23,24,24,25,25,26,26,28,28,30,30,31,31,33,33,34,34,35,35,36,36,37,37,38,38,39,39,40,40,42,42,43,43,44,44,45,45,46,46,48,48,49,49,50,50,52,52],"right_children":[2,4,6,8,10,12,14,16,18,20,22,24,26,28,-1,30,32,-1,34,36,38,40,42,44,46,48,50,-1,52,-1,54,56,-1,58,60,62,64,66,68,70,72,-1,74,76,78,80,82,-1,84,86,88,-1,90,-1,-1,-1,-1,-1,-1,-1,-1,-1,-1,-1,-1,-1,-1,-1,-1,-1,-1,-1,-1,-1,-1,-1,-1,-1,-1,-1,-1,-1,-1,-1,-1,-1,-1,-1,-1,-1,-1],"split_conditions":[4.964461E-1,2.802886E-1,8.03637E-1,3.0253452E-1,3.8872945E-1,6.741679E-1,9.453638E-1,8.7841645E-2,2.7097777E-1,3.5168934E-1,4.9784085E-1,5.461202E-1,6.3216126E-1,7.7617145E-1,2.2224868E-2,1.567578E-1,2.79323E-1,5.9604365E-3,5.422328E-1,3.4793338E-1,3.585588E-1,7.4857193E-1,5.402917E-1,5.1807094E-1,6.8224126E-1,6.919669E-1,7.300435E-1,2.6786544E-3,5.5557096E-1,-7.2165946E-3,2.5076258E-1,2.2580555E-1,1.2870581E-4,1.8431993E-1,6.2647665E-1,3.3108923E-1,3.1636056E-1,3.1842932E-1,5.191892E-1,6.937774E-1,8.044756E-1,3.4933032E-3,5.257255E-1,5.5640286E-1,8.254118E-1,6.5655404E-1,6.836628E-1,-1.3514669E-3,3.3703068E-1,7.626588E-1,6.1211246E-1,1.3043755E-2,5.839665E-1,-1.634852E-2,-4.1808165E-3,-8.145336E-3,-1.1406099E-2,-7.145682E-3,-3.0161587E-3,-8.477101E-3,-4.5609022E-3,-4.1021933E-3,-1.552676E-3,-1.4739274E-2,-4.6451245E-3,-2.9026992E-3,1.6614016E-3,-1.9369376E-3,-4.348967E-3,-1.4816207E-3,1.3519425E-3,-4.736409E-3,-6.195719E-4,1.5380078E-3,-5.6831836E-4,4.5939805E-3,1.8866276E-3,1.0599324E-4,2.0493001E-3,3.0985668E-3,5.635622E-3,-3.0724348E-3,1.790166E-3,5.8227587E-3,8.741844E-3,1.0009783E-2,1.4945404E-3,7.973989E-3,2.3590024E-3,3.629483E-3,1.0883558E-2],"split_indices":[1,2,1,6,2,1,2,2,7,0,2,1,6,2,0,6,2,0,6,1,0,6,6,0,2,0,0,0,7,0,6,6,0,2,6,1,0,1,6,8,8,0,0,6,8,0,2,0,7,6,8,0,6,0,0,0,0,0,0,0,0,0,0,0,0,0,0,0,0,0,0,0,0,0,0,0,0,0,0,0,0,0,0,0,0,0,0,0,0,0,0],"split_type":[0,0,0,0,0,0,0,0,0,0,0,0,0,0,0,0,0,0,0,0,0,0,0,0,0,0,0,0,0,0,0,0,0,0,0,0,0,0,0,0,0,0,0,0,0,0,0,0,0,0,0,0,0,0,0,0,0,0,0,0,0,0,0,0,0,0,0,0,0,0,0,0,0,0,0,0,0,0,0,0,0,0,0,0,0,0,0,0,0,0,0],"sum_hessian":[8.28E2,4.81E2,3.47E2,2.07E2,2.74E2,2.71E2,7.6E1,1.15E2,9.2E1,2.19E2,5.5E1,8.1E1,1.9E2,7.2E1,4E0,1.7E1,9.8E1,1E0,9.1E1,1.11E2,1.08E2,4.8E1,7E0,2.9E1,5.2E1,1.46E2,4.4E1,4E0,6.8E1,7E0,1E1,9.7E1,1E0,5.2E1,3.9E1,1.02E2,9E0,2.1E1,8.7E1,2.5E1,2.3E1,2E0,5E0,8E0,2.1E1,4.3E1,9E0,3E0,1.43E2,1.2E1,3.2E1,2.4E1,4.4E1,9E0,1E0,8.6E1,1.1E1,2.4E1,2.8E1,2.3E1,1.6E1,8.1E1,2.1E1,2E0,7E0,4E0,1.7E1,3.7E1,5E1,1.6E1,9E0,7E0,1.6E1,3E0,2E0,2E0,6E0,1.3E1,8E0,1.9E1,2.4E1,1E0,8E0,5.6E1,8.7E1,9E0,3E0,3E0,2.9E1,1.2E1,3.2E1],"tree_param":{"num_deleted":"0","num_feature":"9","num_nodes":"91","size_leaf_vector":"1"}},{"base_weights":[1.0274934E-4,-1.2157177E-2,1.6030181E-2,-2.0640505E-2,-8.410164E-3,1.4096816E-2,3.3635326E-2,-3.504851E-2,-1.9293673E-2,-1.4449084E-2,-6.914327E-3,7.805697E-3,1.7564697E-2,2.834947E-2,1.6337616E-2,-5.675076E-3,-4.1564144E-2,-2.0615764E-2,-1.2074296E-2,-9.080503E-3,-1.9871106E-2,-8.460662E-3,-4.6377885E-3,3.4544633E-3,1.0164873E-2,2.008438E-3,1.8251253E-2,1.6521871E-2,9.016235E-3,-1.3362886E-2,-3.5536934E-3,-1.939913E-2,-3.3855025E-2,-8.252916E-3,-1.9629892E-2,-5.195769E-3,-1.4258997E-2,-2.9441502E-2,-1.3135314E-2,-2.0902362E-3,-1.0023806E-2,-1.0883757E-2,-3.602764E-3,7.465539E-3,1.6609652E-3,1.1655696E-2,4.7135716E-3,4.375961E-3,-2.8948905E-3,6.443543E-3,1.9033471E-2,-6.2891544E-4,6.1994405E-3,-6.3225455E-3,-2.4149232E-3,-1.5354798E-3,-1.1168729E-2,-2.759236E-3,1.0289513E-3,-6.571793E-3,-8.960076E-4,-2.708831E-3,4.0064044E-3,1.3563485E-4,-4.62762E-3,-1.2413175E-3,-9.409707E-3,1.217933E-3,-4.276198E-3,5.214954E-4,-2.3458598E-3,-5.752908E-3,-2.6646454E-3,-1.072489E-3,-4.6077203E-3,3.853741E-4,-1.5818751E-3,4.167041E-3,9.200444E-4,-6.0540874E-4,1.7159283E-3,3.8749613E-3,1.8602029E-3,1.2582094E-4,3.420491E-3,2.5460422E-3,5.967098E-4,2.4940995E-3,-2.6802064E-3,6.7592794E-3,4.4669644E-3],"categories":[],"categories_nodes":[],"categories_segments":[],"categories_sizes":[],"default_left":[0,0,0,0,0,0,0,0,0,0,0,0,0,0,0,0,0,0,0,0,0,0,0,0,0,0,0,0,0,0,0,0,0,0,0,0,0,0,0,0,0,0,0,0,0,0,0,0,0,0,0,0,0,0,0,0,0,0,0,0,0,0,0,0,0,0,0,0,0,0,0,0,0,0,0,0,0,0,0,0,0,0,0,0,0,0,0,0,0,0,0],"id":8,"left_children":[1,3,5,7,9,11,13,15,17,19,21,23,25,27,-1,-1,29,31,33,35,37,39,41,43,45,47,49,51,-1,-1,-1,53,55,57,59,61,63,65,67,69,71,73,75,77,79,81,83,85,-1,87,89,-1,-1,-1,-1,-1,-1,-1,-1,-1,-1,-1,-1,-1,-1,-1,-1,-1,-1,-1,-1,-1,-1,-1,-1,-1,-1,-1,-1,-1,-1,-1,-1,-1,-1,-1,-1,-1,-1,-1,-1],"loss_changes":[1.62073E-1,1.4734581E-2,1.1813268E-2,2.0987242E-3,2.8539654E-3,6.9970116E-3,2.3085512E-3,3.699176E-4,1.0205172E-3,1.6825078E-3,8.9011807E-4,1.1761934E-3,2.2061914E-3,1.08305365E-4,0E0,0E0,9.2039816E-5,1.1311583E-3,5.0207064E-4,6.098943E-4,1.6116677E-3,1.5324792E-3,6.654435E-4,2.9693585E-4,5.6270603E-4,3.1823397E-4,1.7338395E-3,5.06126E-4,0E0,0E0,0E0,1.8086135E-3,5.851304E-4,2.1913718E-4,1.9974285E-4,1.614027E-3,2.4720095E-4,4.544882E-4,4.4258288E-4,7.155103E-4,1.1358047E-3,4.3572893E-4,7.822218E-4,3.2478187E-4,4.7444354E-4,3.2570586E-4,5.1217235E-4,7.143014E-5,0E0,4.7688524E-4,2.3890212E-3,0E0,0E0,0E0,0E0,0E0,0E0,0E0,0E0,0E0,0E0,0E0,0E0,0E0,0E0,0E0,0E0,0E0,0E0,0E0,0E0,0E0,0E0,0E0,0E0,0E0,0E0,0E0,0E0,0E0,0E0,0E0,0E0,0E0,0E0,0E0,0E0,0E0,0E0,0E0,0E0],"parents":[2147483647,0,0,1,1,2,2,3,3,4,4,5,5,6,6,7,7,8,8,9,9,10,10,11,11,12,12,13,13,16,16,17,17,18,18,19,19,20,20,21,21,22,22,23,23,24,24,25,25,26,26,27,27,31,31,32,32,33,33,34,34,35,35,36,36,37,37,38,38,39,39,40,40,41,41,42,42,43,43,44,44,45,45,46,46,47,47,49,49,50,50],"right_children":[2,4,6,8,10,12,14,16,18,20,22,24,26,28,-1,-1,30,32,34,36,38,40,42,44,46,48,50,52,-1,-1,-1,54,56,58,60,62,64,66,68,70,72,74,76,78,80,82,84,86,-1,88,90,-1,-1,-1,-1,-1,-1,-1,-1,-1,-1,-1,-1,-1,-1,-1,-1,-1,-1,-1,-1,-1,-1,-1,-1,-1,-1,-1,-1,-1,-1,-1,-1,-1,-1,-1,-1,-1,-1,-1,-1],"split_conditions":[4.774562E-1,2.1875922E-1,8.48215E-1,7.756887E-2,2.9199496E-1,6.864791E-1,9.453638E-1,1.567578E-1,4.946481E-1,2.5958222E-1,3.5088378E-1,5.4821235E-1,6.780034E-1,8.567784E-1,1.6337616E-2,-5.675076E-3,1.8282403E-1,2.0632896E-1,6.0440356E-1,4.522489E-1,3.289335E-1,3.1327632E-1,4.4423494E-1,6.203483E-1,6.8543303E-1,6.741679E-1,2.6484942E-1,8.568248E-1,9.016235E-3,-1.3362886E-2,-3.5536934E-3,1.749591E-1,1.810178E-1,6.0351616E-1,6.2647665E-1,2.553711E-1,1.9985981E-1,1.8431993E-1,3.088015E-1,6.291664E-1,3.218842E-1,3.640533E-1,5.159725E-1,5.1807094E-1,8.1947756E-1,7.184074E-1,7.0560306E-1,3.1725916E-1,-2.8948905E-3,2.717542E-1,5.1702625E-1,-6.2891544E-4,6.1994405E-3,-6.3225455E-3,-2.4149232E-3,-1.5354798E-3,-1.1168729E-2,-2.759236E-3,1.0289513E-3,-6.571793E-3,-8.960076E-4,-2.708831E-3,4.0064044E-3,1.3563485E-4,-4.62762E-3,-1.2413175E-3,-9.409707E-3,1.217933E-3,-4.276198E-3,5.214954E-4,-2.3458598E-3,-5.752908E-3,-2.6646454E-3,-1.072489E-3,-4.6077203E-3,3.853741E-4,-1.5818751E-3,4.167041E-3,9.200444E-4,-6.0540874E-4,1.7159283E-3,3.8749613E-3,1.8602029E-3,1.2582094E-4,3.420491E-3,2.5460422E-3,5.967098E-4,2.4940995E-3,-2.6802064E-3,6.7592794E-3,4.4669644E-3],"split_indices":[2,1,2,2,0,2,2,6,8,0,2,2,1,0,0,0,6,4,7,6,6,0,7,6,1,1,6,2,0,0,0,2,0,6,6,1,0,2,7,8,0,2,7,0,7,0,1,7,0,7,6,0,0,0,0,0,0,0,0,0,0,0,0,0,0,0,0,0,0,0,0,0,0,0,0,0,0,0,0,0,0,0,0,0,0,0,0,0,0,0,0],"split_type":[0,0,0,0,0,0,0,0,0,0,0,0,0,0,0,0,0,0,0,0,0,0,0,0,0,0,0,0,0,0,0,0,0,0,0,0,0,0,0,0,0,0,0,0,0,0,0,0,0,0,0,0,0,0,0,0,0,0,0,0,0,0,0,0,0,0,0,0,0,0,0,0,0,0,0,0,0,0,0,0,0,0,0,0,0,0,0,0,0,0,0],"sum_hessian":[8.28E2,4.68E2,3.6E2,1.42E2,3.26E2,3.26E2,3.4E1,1E1,1.32E2,6.3E1,2.63E2,1.17E2,2.09E2,2.9E1,5E0,4E0,6E0,1.1E2,2.2E1,3.3E1,3E1,1.55E2,1.08E2,4.2E1,7.5E1,9E0,2E2,5E0,2.4E1,5E0,1E0,1.03E2,7E0,1.6E1,6E0,2E1,1.3E1,1.1E1,1.9E1,3.1E1,1.24E2,1.4E1,9.4E1,1.2E1,3E1,5.8E1,1.7E1,8E0,1E0,1.3E1,1.87E2,1E0,4E0,8.9E1,1.4E1,1E0,6E0,1.5E1,1E0,5E0,1E0,1.7E1,3E0,1E0,1.2E1,1E0,1E1,1E0,1.8E1,1.9E1,1.2E1,1.2E1,1.12E2,6E0,8E0,2.4E1,7E1,4E0,8E0,1.6E1,1.4E1,4.6E1,1.2E1,1.1E1,6E0,2E0,6E0,1.2E1,1E0,9.9E1,8.8E1],"tree_param":{"num_deleted":"0","num_feature":"9","num_nodes":"91","size_leaf_vector":"1"}},{"base_weights":[3.6267647E-5,-8.422486E-3,1.1752022E-2,-1.3298146E-2,-4.7040856E-3,1.0793268E-2,3.2316826E-2,-2.0792391E-2,-1.1766133E-2,-8.584949E-3,-3.627242E-3,5.736809E-3,1.28385825E-2,2.7144256E-3,3.520063E-2,-3.909332E-3,-2.1725414E-2,-1.8400077E-2,-1.0152942E-2,7.459124E-5,-1.1280686E-2,1.3213467E-3,-5.1948056E-3,6.129395E-3,-5.021304E-3,-1.0734275E-3,1.3266659E-2,2.0908357E-3,1.10917315E-2,-2.6851147E-4,-1.4906881E-3,-2.8252726E-2,-1.794287E-2,-8.522806E-3,-2.1219892E-2,2.7406713E-4,-1.1023936E-2,-1.7718673E-3,3.8887516E-3,-7.740849E-3,-1.0005171E-2,-3.7746648E-3,3.2474704E-3,-1.24344975E-2,-3.5596173E-3,4.432386E-3,1.0239182E-2,-3.6808252E-4,-2.4606586E-3,-5.9707286E-3,5.3165555E-3,1.3711145E-2,-7.8172237E-4,-3.8530293E-3,-9.906581E-3,-4.3798313E-3,-7.494808E-3,-5.1846337E-3,-3.7884043E-4,-1.0583608E-2,-5.058626E-3,-3.3511317E-3,4.074094E-3,-2.9866947E-3,-5.4440363E-3,2.0654763E-3,-1.7769225E-3,-1.1744392E-3,-3.8431077E-3,2.4216976E-3,-3.770875E-3,4.7835535E-3,4.0221823E-4,-1.4671612E-2,-2.4248448E-3,-2.0020464E-3,-5.993511E-4,1.6013045E-3,-6.5879826E-4,7.2234897E-3,2.035649E-3,-2.9030442E-4,-2.0938711E-3,-3.6085548E-4,2.3671926E-3,3.5777988E-3,5.6465263E-3,-7.0613E-3,1.7494952E-3],"categories":[],"categories_nodes":[],"categories_segments":[],"categories_sizes":[],"default_left":[0,0,0,0,0,0,0,0,0,0,0,0,0,0,0,0,0,0,0,0,0,0,0,0,0,0,0,0,0,0,0,0,0,0,0,0,0,0,0,0,0,0,0,0,0,0,0,0,0,0,0,0,0,0,0,0,0,0,0,0,0,0,0,0,0,0,0,0,0,0,0,0,0,0,0,0,0,0,0,0,0,0,0,0,0,0,0,0,0],"id":9,"left_children":[1,3,5,7,9,11,13,15,17,19,21,23,25,-1,27,29,31,33,35,37,39,41,43,45,47,49,51,-1,-1,-1,-1,53,55,57,59,61,63,65,-1,-1,67,69,71,73,75,77,79,-1,-1,81,83,85,87,-1,-1,-1,-1,-1,-1,-1,-1,-1,-1,-1,-1,-1,-1,-1,-1,-1,-1,-1,-1,-1,-1,-1,-1,-1,-1,-1,-1,-1,-1,-1,-1,-1,-1,-1,-1],"loss_changes":[8.225344E-2,8.67594E-3,6.5125786E-3,2.1434613E-3,1.1181077E-3,3.3805892E-3,6.880369E-4,4.5064744E-4,1.6860012E-3,1.3781278E-3,1.6901824E-3,4.4467882E-4,1.4256686E-3,0E0,3.9258786E-4,5.1346797E-6,2.8313976E-4,7.38265E-4,1.3017273E-3,3.799228E-4,5.753827E-4,5.3248217E-4,1.9090506E-3,6.171786E-4,3.8214203E-5,2.8209307E-4,1.4469102E-3,0E0,0E0,0E0,0E0,3.1078607E-4,1.766216E-4,5.5050955E-4,9.367652E-4,1.979099E-3,8.2375854E-4,5.438856E-4,0E0,0E0,6.8448903E-4,1.6643655E-3,9.228613E-4,4.365996E-3,6.4806023E-4,4.25766E-4,1.1271078E-3,0E0,0E0,1.8482402E-5,7.661734E-5,1.8100031E-3,1.3412116E-3,0E0,0E0,0E0,0E0,0E0,0E0,0E0,0E0,0E0,0E0,0E0,0E0,0E0,0E0,0E0,0E0,0E0,0E0,0E0,0E0,0E0,0E0,0E0,0E0,0E0,0E0,0E0,0E0,0E0,0E0,0E0,0E0,0E0,0E0,0E0,0E0],"parents":[2147483647,0,0,1,1,2,2,3,3,4,4,5,5,6,6,7,7,8,8,9,9,10,10,11,11,12,12,14,14,15,15,16,16,17,17,18,18,19,19,20,20,21,21,22,22,23,23,24,24,25,25,26,26,31,31,32,32,33,33,34,34,35,35,36,36,37,37,40,40,41,41,42,42,43,43,44,44,45,45,46,46,49,49,50,50,51,51,52,52],"right_children":[2,4,6,8,10,12,14,16,18,20,22,24,26,-1,28,30,32,34,36,38,40,42,44,46,48,50,52,-1,-1,-1,-1,54,56,58,60,62,64,66,-1,-1,68,70,72,74,76,78,80,-1,-1,82,84,86,88,-1,-1,-1,-1,-1,-1,-1,-1,-1,-1,-1,-1,-1,-1,-1,-1,-1,-1,-1,-1,-1,-1,-1,-1,-1,-1,-1,-1,-1,-1,-1,-1,-1,-1,-1,-1],"split_conditions":[4.964461E-1,2.802886E-1,8.6825097E-1,9.940187E-2,4.1029337E-1,6.829654E-1,8.812001E-1,5.6707893E-2,1.2206755E-1,2.9874206E-1,5.191892E-1,7.057372E-1,6.711906E-1,2.7144256E-3,4.608452E-1,7.4863315E-2,7.756887E-2,8.158172E-2,1.3515612E-1,3.780711E-1,2.7836815E-1,4.522489E-1,5.619489E-1,6.995654E-1,7.194432E-1,7.0560306E-1,8.5980207E-1,2.0908357E-3,1.10917315E-2,-2.6851147E-4,-1.4906881E-3,6.0815927E-2,1.3270713E-1,1.4140493E-1,1.6024113E-1,1.4147857E-1,2.662876E-1,2.9310945E-1,3.8887516E-3,-7.740849E-3,3.289335E-1,4.1029337E-1,4.6214852E-1,3.2948267E-1,3.3500522E-1,6.8224126E-1,7.0278984E-1,-3.6808252E-4,-2.4606586E-3,6.885176E-1,7.076966E-1,8.03637E-1,8.48215E-1,-3.8530293E-3,-9.906581E-3,-4.3798313E-3,-7.494808E-3,-5.1846337E-3,-3.7884043E-4,-1.0583608E-2,-5.058626E-3,-3.3511317E-3,4.074094E-3,-2.9866947E-3,-5.4440363E-3,2.0654763E-3,-1.7769225E-3,-1.1744392E-3,-3.8431077E-3,2.4216976E-3,-3.770875E-3,4.7835535E-3,4.0221823E-4,-1.4671612E-2,-2.4248448E-3,-2.0020464E-3,-5.993511E-4,1.6013045E-3,-6.5879826E-4,7.2234897E-3,2.035649E-3,-2.9030442E-4,-2.0938711E-3,-3.6085548E-4,2.3671926E-3,3.5777988E-3,5.6465263E-3,-7.0613E-3,1.7494952E-3],"split_indices":[1,2,1,2,8,1,0,7,6,1,6,2,2,0,6,0,2,8,8,6,0,7,8,0,2,1,1,0,0,0,0,0,0,1,0,6,2,2,0,0,8,6,8,0,1,2,0,0,0,1,0,1,2,0,0,0,0,0,0,0,0,0,0,0,0,0,0,0,0,0,0,0,0,0,0,0,0,0,0,0,0,0,0,0,0,0,0,0,0],"split_type":[0,0,0,0,0,0,0,0,0,0,0,0,0,0,0,0,0,0,0,0,0,0,0,0,0,0,0,0,0,0,0,0,0,0,0,0,0,0,0,0,0,0,0,0,0,0,0,0,0,0,0,0,0,0,0,0,0,0,0,0,0,0,0,0,0,0,0,0,0,0,0,0,0,0,0,0,0,0,0,0,0,0,0,0,0,0,0,0,0],"sum_hessian":[8.28E2,4.81E2,3.47E2,2.07E2,2.74E2,3.33E2,1.4E1,3.3E1,1.74E2,5.8E1,2.16E2,9.7E1,2.36E2,2E0,1.2E1,2E0,3.1E1,3.2E1,1.42E2,1.4E1,4.4E1,5.2E1,1.64E2,9.4E1,3E0,7E0,2.29E2,1E0,1.1E1,1E0,1E0,9E0,2.2E1,8E0,2.4E1,1.1E1,1.31E2,1.3E1,1E0,2E0,4.2E1,1.4E1,3.8E1,2.9E1,1.35E2,6.8E1,2.6E1,2E0,1E0,4E0,3E0,2.22E2,7E0,3E0,6E0,1.7E1,5E0,3E0,5E0,4E0,2E1,6E0,5E0,1.16E2,1.5E1,4E0,9E0,1.4E1,2.8E1,6E0,8E0,4E0,3.4E1,2E0,2.7E1,4.4E1,9.1E1,6E1,8E0,4E0,2.2E1,1E0,3E0,1E0,2E0,1.67E2,5.5E1,1E0,6E0],"tree_param":{"num_deleted":"0","num_feature":"9","num_nodes":"89","size_leaf_vector":"1"}},{"base_weights":[-3.9687562E-5,-6.2923753E-3,8.08372E-3,-1.0909707E-2,-4.0222434E-3,7.5121745E-3,2.9602813E-2,-1.7785737E-2,-9.810224E-3,5.069484E-3,-4.305289E-3,2.2184313E-3,8.767459E-3,5.581009E-3,1.1610385E-2,-7.053731E-3,-2.4352595E-2,-1.4517104E-2,-8.327143E-3,-4.6526543E-3,1.5722152E-2,-7.335518E-3,-2.933566E-3,7.325498E-3,1.0147418E-3,5.289632E-3,9.940062E-3,-2.0430759E-3,-3.196092E-3,-2.5636377E-2,-1.5346516E-3,8.4025116E-4,-1.518773E-2,-6.708555E-3,-1.6311096E-2,-2.7296082E-3,8.478851E-4,5.4757064E-3,8.4020203E-4,-5.9790616E-3,-1.4756511E-2,-1.0135262E-3,-4.330233E-3,9.758634E-3,-5.887151E-4,2.913879E-3,-5.6372513E-3,7.313516E-3,-1.512662E-2,1.4075605E-2,7.170095E-3,-9.968268E-4,4.6134667E-4,-5.038079E-3,-1.1073854E-2,-6.7244833E-3,-3.3068925E-3,-2.9057823E-3,-7.9291075E-4,-9.066145E-3,-2.9119903E-3,-2.0286448E-3,1.5201212E-3,-6.47229E-4,-6.454886E-3,-1.2659817E-3,4.4173078E-4,-8.789362E-3,-1.1026241E-3,1.4294834E-4,4.1005868E-3,-9.80258E-4,1.117158E-3,5.799643E-4,6.909469E-3,-2.620731E-3,3.2025934E-4,1.4625778E-3,4.4799442E-3,-5.9120567E-3,1.8532188E-3,3.2126696E-3,7.099733E-3,-3.6414315E-3,2.3655188E-3],"categories":[],"categories_nodes":[],"categories_segments":[],"categories_sizes":[],"default_left":[0,0,0,0,0,0,0,0,0,0,0,0,0,0,0,0,0,0,0,0,0,0,0,0,0,0,0,0,0,0,0,0,0,0,0,0,0,0,0,0,0,0,0,0,0,0,0,0,0,0,0,0,0,0,0,0,0,0,0,0,0,0,0,0,0,0,0,0,0,0,0,0,0,0,0,0,0,0,0,0,0,0,0,0,0],"id":10,"left_children":[1,3,5,7,9,11,13,15,17,19,21,23,25,-1,-1,27,29,31,33,35,37,39,41,43,45,47,49,51,-1,53,-1,-1,55,57,59,-1,-1,-1,-1,61,63,65,67,69,71,73,75,77,79,81,83,-1,-1,-1,-1,-1,-1,-1,-1,-1,-1,-1,-1,-1,-1,-1,-1,-1,-1,-1,-1,-1,-1,-1,-1,-1,-1,-1,-1,-1,-1,-1,-1,-1,-1],"loss_changes":[4.2158365E-2,4.8721544E-3,4.2176098E-3,9.897705E-4,8.350117E-4,2.3262892E-3,1.8072873E-4,1.2377352E-3,8.215066E-4,1.108817E-3,1.2545679E-3,4.1673175E-4,1.109682E-3,0E0,0E0,1.4057494E-4,1.6521104E-4,4.0256837E-4,1.2474637E-3,2.2522539E-4,1.123508E-4,8.680639E-4,5.6680385E-4,2.5607762E-4,7.3651E-4,3.1683187E-3,2.3276024E-3,2.8021828E-5,0E0,4.769694E-4,0E0,0E0,6.559077E-4,1.0517105E-3,1.2683491E-3,0E0,0E0,0E0,0E0,7.435712E-4,1.1459179E-3,7.3157647E-4,1.9032818E-3,3.5641756E-4,5.837811E-5,8.4326667E-4,2.7939928E-4,1.1905427E-3,8.04779E-4,2.458699E-3,1.87652E-3,0E0,0E0,0E0,0E0,0E0,0E0,0E0,0E0,0E0,0E0,0E0,0E0,0E0,0E0,0E0,0E0,0E0,0E0,0E0,0E0,0E0,0E0,0E0,0E0,0E0,0E0,0E0,0E0,0E0,0E0,0E0,0E0,0E0,0E0],"parents":[2147483647,0,0,1,1,2,2,3,3,4,4,5,5,6,6,7,7,8,8,9,9,10,10,11,11,12,12,15,15,16,16,17,17,18,18,19,19,20,20,21,21,22,22,23,23,24,24,25,25,26,26,27,27,29,29,32,32,33,33,34,34,39,39,40,40,41,41,42,42,43,43,44,44,45,45,46,46,47,47,48,48,49,49,50,50],"right_children":[2,4,6,8,10,12,14,16,18,20,22,24,26,-1,-1,28,30,32,34,36,38,40,42,44,46,48,50,52,-1,54,-1,-1,56,58,60,-1,-1,-1,-1,62,64,66,68,70,72,74,76,78,80,82,84,-1,-1,-1,-1,-1,-1,-1,-1,-1,-1,-1,-1,-1,-1,-1,-1,-1,-1,-1,-1,-1,-1,-1,-1,-1,-1,-1,-1,-1,-1,-1,-1,-1,-1],"split_conditions":[4.774562E-1,3.3703068E-1,8.993643E-1,8.84049E-2,3.301259E-1,6.5010864E-1,9.700266E-1,1.567578E-1,1.1746436E-1,3.3703068E-1,2.9670358E-1,4.9653375E-1,3.3703068E-1,5.581009E-3,1.1610385E-2,9.182672E-2,2.5076258E-1,8.10879E-2,3.0253452E-1,2.656975E-1,3.3178186E-1,3.1327632E-1,3.4313226E-1,6.487139E-1,5.734249E-1,3.289335E-1,5.2359825E-1,8.10879E-2,-3.196092E-3,9.182672E-2,-1.5346516E-3,8.4025116E-4,1.5328702E-1,1.8681715E-1,3.1074262E-1,-2.7296082E-3,8.478851E-4,5.4757064E-3,8.4020203E-4,2.952194E-1,5.244579E-1,3.1684682E-1,3.1636056E-1,5.150873E-1,7.116781E-1,5.9319264E-1,6.5655404E-1,7.2663146E-1,7.6172715E-1,4.8222506E-1,5.1281124E-1,-9.968268E-4,4.6134667E-4,-5.038079E-3,-1.1073854E-2,-6.7244833E-3,-3.3068925E-3,-2.9057823E-3,-7.9291075E-4,-9.066145E-3,-2.9119903E-3,-2.0286448E-3,1.5201212E-3,-6.47229E-4,-6.454886E-3,-1.2659817E-3,4.4173078E-4,-8.789362E-3,-1.1026241E-3,1.4294834E-4,4.1005868E-3,-9.80258E-4,1.117158E-3,5.799643E-4,6.909469E-3,-2.620731E-3,3.2025934E-4,1.4625778E-3,4.4799442E-3,-5.9120567E-3,1.8532188E-3,3.2126696E-3,7.099733E-3,-3.6414315E-3,2.3655188E-3],"split_indices":[2,6,2,2,8,2,0,6,7,7,2,7,7,0,0,0,6,0,7,2,0,0,1,1,1,8,6,0,0,0,0,0,1,8,7,0,0,0,0,0,6,1,0,2,0,2,0,2,0,6,7,0,0,0,0,0,0,0,0,0,0,0,0,0,0,0,0,0,0,0,0,0,0,0,0,0,0,0,0,0,0,0,0,0,0],"split_type":[0,0,0,0,0,0,0,0,0,0,0,0,0,0,0,0,0,0,0,0,0,0,0,0,0,0,0,0,0,0,0,0,0,0,0,0,0,0,0,0,0,0,0,0,0,0,0,0,0,0,0,0,0,0,0,0,0,0,0,0,0,0,0,0,0,0,0,0,0,0,0,0,0,0,0,0,0,0,0,0,0,0,0,0,0],"sum_hessian":[8.28E2,4.68E2,3.6E2,1.53E2,3.15E2,3.52E2,8E0,1.9E1,1.34E2,9E0,3.06E2,6.8E1,2.84E2,5E0,3E0,8E0,1.1E1,3E1,1.04E2,5E0,4E0,9.4E1,2.12E2,1.2E1,5.6E1,7.3E1,2.11E2,4E0,4E0,1E1,1E0,1E0,2.9E1,8.8E1,1.6E1,3E0,2E0,3E0,1E0,8.1E1,1.3E1,9E1,1.22E2,9E0,3E0,4.4E1,1.2E1,6.7E1,6E0,8.3E1,1.28E2,3E0,1E0,7E0,3E0,9E0,2E1,5E1,3.8E1,4E0,1.2E1,7.6E1,5E0,5E0,8E0,3.9E1,5.1E1,2E0,1.2E2,3E0,6E0,2E0,1E0,4.3E1,1E0,8E0,4E0,5.2E1,1.5E1,5E0,1E0,6.3E1,2E1,4E0,1.24E2],"tree_param":{"num_deleted":"0","num_feature":"9","num_nodes":"85","size_leaf_vector":"1"}},{"base_weights":[-5.4874254E-5,-4.7580847E-3,5.5966093E-3,-7.915347E-3,-3.0893232E-3,4.6903747E-3,1.4317802E-2,-1.3518923E-2,-7.0395307E-3,-2.6882212E-3,-1.5670458E-2,6.814308E-3,3.0817022E-3,1.191091E-2,8.998048E-3,-5.352231E-3,-1.8517364E-2,-1.123139E-3,-7.812581E-3,-3.393463E-3,6.8327435E-4,1.9158975E-3,-1.9225847E-2,5.1378678E-3,2.0219047E-2,-1.32827E-4,4.4904947E-3,1.8089106E-2,7.2995364E-3,-1.5372485E-3,-8.096768E-3,-2.3688948E-2,-1.1439241E-2,-9.022867E-3,1.9640783E-2,-6.45739E-3,-6.7818007E-3,-2.368673E-3,-6.7974175E-3,7.4198246E-3,-2.0662264E-3,-6.636718E-3,-2.107242E-3,5.65299E-3,-4.86832E-3,4.138139E-2,1.2152245E-2,1.1863827E-3,-1.922816E-2,1.987079E-3,8.945873E-3,3.5333524E-3,7.046783E-3,1.1874139E-3,1.2192417E-2,-9.77581E-4,2.0895676E-4,-2.7140817E-3,-6.4441306E-4,-2.6416231E-3,-8.67881E-3,-1.5161708E-3,-3.894779E-3,-3.3134364E-3,4.1953847E-4,1.2387112E-3,6.745938E-3,-2.10098E-3,2.736573E-3,-1.1672536E-3,1.224537E-3,-3.4529618E-3,-5.5265933E-4,9.0875255E-4,5.6210454E-3,-3.7568093E-3,-2.325846E-4,1.4038233E-3,8.48332E-3,6.0226326E-4,-3.1581314E-3,2.7030803E-2,-1.467979E-3,7.0111605E-4,4.4589294E-3,-3.956641E-4,3.2699392E-3,-8.784003E-3,1.6391069E-3,9.992039E-4,-1.8372074E-3,1.5905876E-2,2.0769287E-3,1.5122077E-3,-5.0238133E-3,4.4323774E-3,1.1939899E-3],"categories":[],"categories_nodes":[],"categories_segments":[],"categories_sizes":[],"default_left":[0,0,0,0,0,0,0,0,0,0,0,0,0,0,0,0,0,0,0,0,0,0,0,0,0,0,0,0,0,0,0,0,0,0,0,0,0,0,0,0,0,0,0,0,0,0,0,0,0,0,0,0,0,0,0,0,0,0,0,0,0,0,0,0,0,0,0,0,0,0,0,0,0,0,0,0,0,0,0,0,0,0,0,0,0,0,0,0,0,0,0,0,0,0,0,0,0],"id":11,"left_children":[1,3,5,7,9,11,13,15,17,19,21,23,25,27,-1,29,31,33,35,37,39,-1,41,43,45,47,49,51,53,55,57,59,61,63,65,-1,67,69,71,73,75,-1,-1,77,79,81,83,85,87,89,91,-1,-1,93,95,-1,-1,-1,-1,-1,-1,-1,-1,-1,-1,-1,-1,-1,-1,-1,-1,-1,-1,-1,-1,-1,-1,-1,-1,-1,-1,-1,-1,-1,-1,-1,-1,-1,-1,-1,-1,-1,-1,-1,-1,-1,-1],"loss_changes":[2.2061545E-2,2.3622774E-3,2.9124431E-3,6.704349E-4,1.4616768E-3,1.1509322E-3,9.632893E-4,7.173056E-4,6.1781844E-4,6.918572E-4,8.285665E-4,3.1995368E-3,8.9273136E-4,7.7963714E-4,0E0,8.178645E-5,1.6827742E-4,2.965715E-3,1.5642522E-3,8.211008E-4,9.599606E-4,0E0,1.2735161E-4,7.079034E-4,2.2285213E-3,1.5594475E-3,1.5102758E-3,1.6641198E-4,5.836403E-4,2.1495252E-5,8.828327E-6,2.1324074E-4,3.371213E-6,2.8936996E-4,1.2785965E-4,0E0,4.6540517E-4,1.8421622E-3,1.2631153E-3,6.885771E-4,4.897442E-4,0E0,0E0,2.6430762E-3,2.9349682E-4,9.459139E-3,3.111621E-4,1.4257856E-3,1.1527718E-3,9.903265E-4,4.0013534E-3,0E0,0E0,7.754376E-4,1.7446338E-4,0E0,0E0,0E0,0E0,0E0,0E0,0E0,0E0,0E0,0E0,0E0,0E0,0E0,0E0,0E0,0E0,0E0,0E0,0E0,0E0,0E0,0E0,0E0,0E0,0E0,0E0,0E0,0E0,0E0,0E0,0E0,0E0,0E0,0E0,0E0,0E0,0E0,0E0,0E0,0E0,0E0,0E0],"parents":[2147483647,0,0,1,1,2,2,3,3,4,4,5,5,6,6,7,7,8,8,9,9,10,10,11,11,12,12,13,13,15,15,16,16,17,17,18,18,19,19,20,20,22,22,23,23,24,24,25,25,26,26,27,27,28,28,29,29,30,30,31,31,32,32,33,33,34,34,36,36,37,37,38,38,39,39,40,40,43,43,44,44,45,45,46,46,47,47,48,48,49,49,50,50,53,53,54,54],"right_children":[2,4,6,8,10,12,14,16,18,20,22,24,26,28,-1,30,32,34,36,38,40,-1,42,44,46,48,50,52,54,56,58,60,62,64,66,-1,68,70,72,74,76,-1,-1,78,80,82,84,86,88,90,92,-1,-1,94,96,-1,-1,-1,-1,-1,-1,-1,-1,-1,-1,-1,-1,-1,-1,-1,-1,-1,-1,-1,-1,-1,-1,-1,-1,-1,-1,-1,-1,-1,-1,-1,-1,-1,-1,-1,-1,-1,-1,-1,-1,-1,-1],"split_conditions":[4.1978917E-1,3.4254894E-1,8.48215E-1,8.84049E-2,4.150007E-1,4.9559093E-1,6.822417E-1,1.567578E-1,1.009039E-1,3.6357054E-1,3.6161253E-1,4.758194E-1,6.06206E-1,8.5001206E-1,8.998048E-3,9.182672E-2,1.738395E-1,1.7589152E-1,1.2694794E-1,3.597925E-1,3.7000778E-1,1.9158975E-3,3.9299414E-1,4.6511564E-1,4.4423494E-1,8.4140223E-1,7.3459756E-1,8.7791955E-1,8.6825097E-1,7.161441E-2,1.18155055E-1,6.0815927E-2,2.1327159E-1,1.0996969E-1,9.049701E-2,-6.45739E-3,3.7138817E-1,3.4019348E-1,3.731109E-1,3.679693E-1,3.5606337E-1,-6.636718E-3,-2.107242E-3,4.6214852E-1,6.6345155E-1,7.0925087E-1,4.6650213E-1,7.875707E-1,8.7791955E-1,7.4403477E-1,7.3733336E-1,3.5333524E-3,7.046783E-3,9.1179025E-1,6.331041E-1,-9.77581E-4,2.0895676E-4,-2.7140817E-3,-6.4441306E-4,-2.6416231E-3,-8.67881E-3,-1.5161708E-3,-3.894779E-3,-3.3134364E-3,4.1953847E-4,1.2387112E-3,6.745938E-3,-2.10098E-3,2.736573E-3,-1.1672536E-3,1.224537E-3,-3.4529618E-3,-5.5265933E-4,9.0875255E-4,5.6210454E-3,-3.7568093E-3,-2.325846E-4,1.4038233E-3,8.48332E-3,6.0226326E-4,-3.1581314E-3,2.7030803E-2,-1.467979E-3,7.0111605E-4,4.4589294E-3,-3.956641E-4,3.2699392E-3,-8.784003E-3,1.6391069E-3,9.992039E-4,-1.8372074E-3,1.5905876E-2,2.0769287E-3,1.5122077E-3,-5.0238133E-3,4.4323774E-3,1.1939899E-3],"split_indices":[1,6,2,2,0,6,7,6,1,1,2,6,7,1,0,0,6,8,1,0,1,0,2,6,8,2,2,0,1,1,0,0,6,2,1,0,7,0,0,1,0,0,0,6,0,1,8,2,0,0,2,0,0,0,6,0,0,0,0,0,0,0,0,0,0,0,0,0,0,0,0,0,0,0,0,0,0,0,0,0,0,0,0,0,0,0,0,0,0,0,0,0,0,0,0,0,0],"split_type":[0,0,0,0,0,0,0,0,0,0,0,0,0,0,0,0,0,0,0,0,0,0,0,0,0,0,0,0,0,0,0,0,0,0,0,0,0,0,0,0,0,0,0,0,0,0,0,0,0,0,0,0,0,0,0,0,0,0,0,0,0,0,0,0,0,0,0,0,0,0,0,0,0,0,0,0,0,0,0,0,0,0,0,0,0,0,0,0,0,0,0,0,0,0,0,0,0],"sum_hessian":[8.28E2,4.52E2,3.76E2,1.55E2,2.97E2,3.42E2,3.4E1,1.9E1,1.36E2,2.89E2,8E0,1.46E2,1.96E2,3.1E1,3E0,8E0,1.1E1,1.6E1,1.2E2,2.39E2,5E1,1E0,7E0,1.31E2,1.5E1,6E1,1.36E2,1.2E1,1.9E1,4E0,4E0,5E0,6E0,1.2E1,4E0,7E0,1.13E2,1.85E2,5.4E1,1.4E1,3.6E1,5E0,2E0,1.25E2,6E0,3E0,1.2E1,5.7E1,3E0,8.8E1,4.8E1,7E0,5E0,9E0,1E1,2E0,2E0,3E0,1E0,2E0,3E0,2E0,4E0,1E1,2E0,1E0,3E0,1.12E2,1E0,1.5E2,3.5E1,2.7E1,2.7E1,1.1E1,3E0,3E0,3.3E1,1.21E2,4E0,3E0,3E0,1E0,2E0,3E0,9E0,4.6E1,1.1E1,2E0,1E0,7.6E1,1.2E1,1E0,4.7E1,8E0,1E0,7E0,3E0],"tree_param":{"num_deleted":"0","num_feature":"9","num_nodes":"97","size_leaf_vector":"1"}},{"base_weights":[1.3212755E-5,-3.0208488E-3,4.799828E-3,-6.0894433E-3,-1.8136636E-3,4.2038797E-3,1.2735307E-2,-5.7378486E-3,-8.402382E-3,-6.025307E-3,-1.392113E-3,4.6456605E-4,4.631488E-3,9.852469E-3,6.9734887E-3,-1.248712E-2,-5.131941E-3,1.5611307E-3,-1.1034548E-2,1.2836652E-2,-1.6915314E-3,4.5219194E-3,-1.7870953E-2,1.900207E-2,4.288639E-3,1.7150572E-2,6.020963E-3,-2.3816144E-3,-1.846215E-2,-9.682515E-3,-4.509987E-3,-8.117895E-3,9.835137E-3,-1.6146107E-2,-6.2813335E-3,7.000673E-3,-8.714348E-4,-9.923622E-3,-1.5073197E-3,7.558402E-4,1.1970096E-2,-8.125265E-3,3.7038326E-4,4.065295E-3,7.63624E-3,3.149919E-3,6.077477E-3,9.3644863E-4,5.799626E-3,-3.8036108E-3,9.0461755E-3,-6.9047012E-3,-7.2023796E-4,-8.042019E-4,-5.92155E-3,2.6085607E-3,-1.5148803E-3,2.1392987E-3,-4.6930956E-3,3.972878E-3,9.349846E-4,-1.5845076E-3,-5.5487095E-3,-1.2159778E-3,-4.6185227E-3,-9.771765E-4,9.429038E-4,-3.343925E-4,-9.416626E-3,6.257481E-5,-7.7914476E-4,4.4151964E-3,-5.257235E-4,4.3439987E-4,6.0294527E-3,-1.144141E-4,2.8108657E-4,1.8810601E-3,-5.167723E-5,1.648948E-3,-6.9305993E-4,5.4740477E-3,1.2756464E-3,1.3253808E-3,-4.270238E-3,3.4367528E-3,1.1590219E-3],"categories":[],"categories_nodes":[],"categories_segments":[],"categories_sizes":[],"default_left":[0,0,0,0,0,0,0,0,0,0,0,0,0,0,0,0,0,0,0,0,0,0,0,0,0,0,0,0,0,0,0,0,0,0,0,0,0,0,0,0,0,0,0,0,0,0,0,0,0,0,0,0,0,0,0,0,0,0,0,0,0,0,0,0,0,0,0,0,0,0,0,0,0,0,0,0,0,0,0,0,0,0,0,0,0,0,0],"id":12,"left_children":[1,3,5,7,9,11,13,15,-1,17,19,21,23,25,-1,27,29,31,33,35,37,39,41,43,45,47,49,-1,51,53,55,57,59,61,63,-1,65,67,69,71,73,-1,75,77,-1,79,81,-1,-1,83,85,-1,-1,-1,-1,-1,-1,-1,-1,-1,-1,-1,-1,-1,-1,-1,-1,-1,-1,-1,-1,-1,-1,-1,-1,-1,-1,-1,-1,-1,-1,-1,-1,-1,-1,-1,-1],"loss_changes":[1.2053971E-2,1.8707719E-3,1.4692438E-3,9.4131334E-4,6.414162E-4,4.7913566E-4,4.3752766E-4,5.1661674E-4,0E0,1.271302E-3,1.4446722E-3,2.4614087E-3,1.2487802E-3,4.2802875E-4,0E0,1.5237962E-4,3.2992475E-4,1.2010211E-3,3.8450747E-4,1.0277763E-3,4.8243668E-4,7.4831396E-4,1.0184051E-3,4.7475938E-4,5.206573E-4,1.2328278E-4,4.5050803E-4,0E0,2.372869E-4,1.0032438E-3,8.847397E-4,9.1487076E-4,1.4188938E-4,1.3205409E-4,1.8127286E-4,0E0,4.8548583E-5,1.288614E-3,6.026949E-4,6.911501E-4,7.406175E-4,0E0,1.6351208E-6,2.9110284E-5,0E0,2.1139602E-3,2.188136E-3,0E0,0E0,4.059053E-4,9.311765E-5,0E0,0E0,0E0,0E0,0E0,0E0,0E0,0E0,0E0,0E0,0E0,0E0,0E0,0E0,0E0,0E0,0E0,0E0,0E0,0E0,0E0,0E0,0E0,0E0,0E0,0E0,0E0,0E0,0E0,0E0,0E0,0E0,0E0,0E0,0E0,0E0],"parents":[2147483647,0,0,1,1,2,2,3,3,4,4,5,5,6,6,7,7,9,9,10,10,11,11,12,12,13,13,15,15,16,16,17,17,18,18,19,19,20,20,21,21,22,22,23,23,24,24,25,25,26,26,28,28,29,29,30,30,31,31,32,32,33,33,34,34,36,36,37,37,38,38,39,39,40,40,42,42,43,43,45,45,46,46,49,49,50,50],"right_children":[2,4,6,8,10,12,14,16,-1,18,20,22,24,26,-1,28,30,32,34,36,38,40,42,44,46,48,50,-1,52,54,56,58,60,62,64,-1,66,68,70,72,74,-1,76,78,-1,80,82,-1,-1,84,86,-1,-1,-1,-1,-1,-1,-1,-1,-1,-1,-1,-1,-1,-1,-1,-1,-1,-1,-1,-1,-1,-1,-1,-1,-1,-1,-1,-1,-1,-1,-1,-1,-1,-1,-1,-1],"split_conditions":[5.424724E-1,2.1875922E-1,8.601776E-1,2.9039675E-1,2.3889412E-1,2.8026733E-1,6.822417E-1,7.756887E-2,-8.402382E-3,1.6388442E-1,2.7097777E-1,2.7447173E-1,2.8065553E-1,8.5001206E-1,6.9734887E-3,1.6388442E-1,1.0371028E-1,1.2206755E-1,1.6726749E-1,3.3108923E-1,3.0253452E-1,2.6484942E-1,2.7447173E-1,2.7447173E-1,7.621168E-1,8.6546147E-1,8.6825097E-1,-2.3816144E-3,1.738395E-1,1.4782E-1,1.0725972E-1,8.158172E-2,2.9300433E-1,1.567578E-1,3.1684682E-1,7.000673E-3,3.6104926E-1,2.729466E-1,5.402917E-1,6.780034E-1,7.1330434E-1,-8.125265E-3,6.919669E-1,7.4403477E-1,7.63624E-3,7.224204E-1,4.1742E-1,9.3644863E-4,5.799626E-3,9.1179025E-1,6.0545725E-1,-6.9047012E-3,-7.2023796E-4,-8.042019E-4,-5.92155E-3,2.6085607E-3,-1.5148803E-3,2.1392987E-3,-4.6930956E-3,3.972878E-3,9.349846E-4,-1.5845076E-3,-5.5487095E-3,-1.2159778E-3,-4.6185227E-3,-9.771765E-4,9.429038E-4,-3.343925E-4,-9.416626E-3,6.257481E-5,-7.7914476E-4,4.4151964E-3,-5.257235E-4,4.3439987E-4,6.0294527E-3,-1.144141E-4,2.8108657E-4,1.8810601E-3,-5.167723E-5,1.648948E-3,-6.9305993E-4,5.4740477E-3,1.2756464E-3,1.3253808E-3,-4.270238E-3,3.4367528E-3,1.1590219E-3],"split_indices":[1,1,2,0,8,7,7,2,0,6,7,6,6,1,0,8,7,7,8,2,8,6,7,6,1,2,1,0,6,0,8,8,0,8,1,0,1,8,6,1,0,0,0,0,0,1,7,0,0,0,6,0,0,0,0,0,0,0,0,0,0,0,0,0,0,0,0,0,0,0,0,0,0,0,0,0,0,0,0,0,0,0,0,0,0,0,0],"split_type":[0,0,0,0,0,0,0,0,0,0,0,0,0,0,0,0,0,0,0,0,0,0,0,0,0,0,0,0,0,0,0,0,0,0,0,0,0,0,0,0,0,0,0,0,0,0,0,0,0,0,0,0,0,0,0,0,0,0,0,0,0,0,0,0,0,0,0,0,0,0,0,0,0,0,0,0,0,0,0,0,0,0,0,0,0,0,0],"sum_hessian":[8.28E2,5.07E2,3.21E2,1.42E2,3.65E2,3E2,2.1E1,1.41E2,1E0,3.2E1,3.33E2,3.1E1,2.69E2,1.8E1,3E0,1E1,1.31E2,1.3E1,1.9E1,6E0,3.27E2,2.6E1,5E0,5E0,2.64E2,5E0,1.3E1,7E0,3E0,1.4E1,1.17E2,6E0,7E0,8E0,1.1E1,3E0,3E0,6E0,3.21E2,1.8E1,8E0,3E0,2E0,2E0,3E0,1.63E2,1.01E2,1E0,4E0,3E0,1E1,2E0,1E0,9E0,5E0,4E0,1.13E2,2E0,4E0,4E0,3E0,2E0,6E0,1E1,1E0,2E0,1E0,5E0,1E0,1.25E2,1.96E2,2E0,1.6E1,4E0,4E0,1E0,1E0,1E0,1E0,1.14E2,4.9E1,1.2E1,8.9E1,2E0,1E0,6E0,4E0],"tree_param":{"num_deleted":"0","num_feature":"9","num_nodes":"87","size_leaf_vector":"1"}},{"base_weights":[5.351602E-6,-2.5441772E-3,3.0688297E-3,-4.342882E-3,-1.4585293E-3,2.5357024E-3,8.205796E-3,-3.6831393E-3,-1.0914681E-2,-1.1348552E-3,-1.1222475E-2,4.210213E-3,1.5316603E-3,6.7232344E-3,1.8014833E-2,-4.129508E-3,6.137449E-3,-7.127323E-3,-7.1113063E-3,9.249002E-3,-1.3605685E-3,1.6191244E-3,-1.3974555E-2,2.107335E-3,3.1780787E-2,-9.555433E-3,2.0040264E-3,1.09327985E-2,3.650856E-3,6.384659E-3,1.2319118E-3,-5.1678135E-3,1.5692461E-4,2.7483776E-3,-1.0344049E-2,3.0905076E-3,5.9783313E-4,-2.125255E-3,9.535001E-4,-4.82484E-3,-5.099883E-3,3.0701375E-3,-4.8369565E-3,2.6080567E-2,3.6030582E-3,5.665024E-4,-1.2528343E-2,-4.9581174E-3,2.1733895E-3,2.1821524E-3,5.2040983E-3,-1.234293E-4,6.7501287E-3,-1.2341661E-3,-4.1550826E-3,2.365218E-3,-6.0388504E-4,1.3215602E-3,-3.3331366E-4,-3.945958E-3,2.2407353E-3,-5.8283986E-5,-1.49874E-3,-5.769346E-4,1.398395E-3,-3.0798465E-4,-1.9869627E-3,3.3499295E-4,2.623368E-3,-2.2628517E-3,1.3469786E-3,3.3563646E-3,-1.4647589E-3,8.44583E-4,-5.896569E-4,-4.6918024E-3,-9.501696E-4,2.217174E-3,5.0929596E-4,1.597345E-3,-1.9908715E-3,3.5466554E-4,2.3568254E-3],"categories":[],"categories_nodes":[],"categories_segments":[],"categories_sizes":[],"default_left":[0,0,0,0,0,0,0,0,0,0,0,0,0,0,0,0,0,0,0,0,0,0,0,0,0,0,0,0,0,0,0,0,0,0,0,0,0,0,0,0,0,0,0,0,0,0,0,0,0,0,0,0,0,0,0,0,0,0,0,0,0,0,0,0,0,0,0,0,0,0,0,0,0,0,0,0,0,0,0,0,0,0,0],"id":13,"left_children":[1,3,5,7,9,11,13,15,17,19,21,23,25,27,29,31,-1,-1,33,35,37,-1,39,41,43,45,47,49,51,-1,-1,53,55,57,59,-1,-1,61,63,-1,65,67,69,-1,71,73,75,-1,77,-1,-1,79,81,-1,-1,-1,-1,-1,-1,-1,-1,-1,-1,-1,-1,-1,-1,-1,-1,-1,-1,-1,-1,-1,-1,-1,-1,-1,-1,-1,-1,-1,-1],"loss_changes":[6.48265E-3,8.782663E-4,1.0116657E-3,6.9686794E-4,8.847995E-4,5.702302E-4,3.878693E-4,1.7655254E-3,5.63756E-4,6.5946544E-4,4.8706704E-4,7.3541547E-3,1.1503777E-3,3.7395395E-4,9.438326E-5,6.862078E-4,0E0,0E0,4.42789E-4,2.5302288E-5,4.81571E-4,0E0,6.7659304E-5,8.171677E-4,1.3673908E-2,2.7792173E-4,6.887236E-4,1.7892127E-4,2.3478389E-4,0E0,0E0,1.0777055E-3,5.356446E-4,3.0471898E-5,5.986402E-4,0E0,0E0,1.1297916E-3,7.3424965E-4,0E0,1.1815253E-5,1.1652404E-3,4.1242852E-4,0E0,5.0515693E-4,2.2615348E-5,1.5432341E-4,0E0,5.0122873E-4,0E0,0E0,3.9014663E-4,5.8448873E-5,0E0,0E0,0E0,0E0,0E0,0E0,0E0,0E0,0E0,0E0,0E0,0E0,0E0,0E0,0E0,0E0,0E0,0E0,0E0,0E0,0E0,0E0,0E0,0E0,0E0,0E0,0E0,0E0,0E0,0E0],"parents":[2147483647,0,0,1,1,2,2,3,3,4,4,5,5,6,6,7,7,8,8,9,9,10,10,11,11,12,12,13,13,14,14,15,15,18,18,19,19,20,20,22,22,23,23,24,24,25,25,26,26,27,27,28,28,31,31,32,32,33,33,34,34,37,37,38,38,40,40,41,41,42,42,44,44,45,45,46,46,48,48,51,51,52,52],"right_children":[2,4,6,8,10,12,14,16,18,20,22,24,26,28,30,32,-1,-1,34,36,38,-1,40,42,44,46,48,50,52,-1,-1,54,56,58,60,-1,-1,62,64,-1,66,68,70,-1,72,74,76,-1,78,-1,-1,80,82,-1,-1,-1,-1,-1,-1,-1,-1,-1,-1,-1,-1,-1,-1,-1,-1,-1,-1,-1,-1,-1,-1,-1,-1,-1,-1,-1,-1,-1,-1],"split_conditions":[4.1978917E-1,3.5594255E-1,8.48215E-1,3.4254894E-1,4.150007E-1,4.6214852E-1,6.822417E-1,3.3703068E-1,3.301259E-1,3.5594255E-1,3.6161253E-1,4.5932007E-1,4.7260273E-1,8.5001206E-1,7.083079E-1,2.79323E-1,6.137449E-3,-7.127323E-3,2.9670358E-1,3.0196068E-1,6.44002E-1,1.6191244E-3,3.9299414E-1,4.2523986E-1,4.8469302E-1,4.1522932E-1,4.6650213E-1,8.412681E-1,8.6825097E-1,6.384659E-3,1.2319118E-3,2.5958222E-1,2.9310945E-1,2.8640398E-1,3.5114524E-1,3.0905076E-3,5.9783313E-4,5.4808384E-1,3.4216666E-1,-4.82484E-3,4.391981E-1,3.4856635E-1,4.4847763E-1,2.6080567E-2,4.8081082E-1,7.644469E-1,4.6650213E-1,-4.9581174E-3,4.9559093E-1,2.1821524E-3,5.2040983E-3,8.578977E-1,8.812001E-1,-1.2341661E-3,-4.1550826E-3,2.365218E-3,-6.0388504E-4,1.3215602E-3,-3.3331366E-4,-3.945958E-3,2.2407353E-3,-5.8283986E-5,-1.49874E-3,-5.769346E-4,1.398395E-3,-3.0798465E-4,-1.9869627E-3,3.3499295E-4,2.623368E-3,-2.2628517E-3,1.3469786E-3,3.3563646E-3,-1.4647589E-3,8.44583E-4,-5.896569E-4,-4.6918024E-3,-9.501696E-4,2.217174E-3,5.0929596E-4,1.597345E-3,-1.9908715E-3,3.5466554E-4,2.3568254E-3],"split_indices":[1,7,2,7,0,8,7,7,6,8,2,7,7,1,6,2,0,0,1,2,6,0,2,6,6,6,8,1,1,0,0,0,2,1,8,0,0,6,1,0,0,7,7,0,7,0,6,0,6,0,0,2,0,0,0,0,0,0,0,0,0,0,0,0,0,0,0,0,0,0,0,0,0,0,0,0,0,0,0,0,0,0,0],"split_type":[0,0,0,0,0,0,0,0,0,0,0,0,0,0,0,0,0,0,0,0,0,0,0,0,0,0,0,0,0,0,0,0,0,0,0,0,0,0,0,0,0,0,0,0,0,0,0,0,0,0,0,0,0,0,0,0,0,0,0,0,0,0,0,0,0,0,0,0,0,0,0,0,0,0,0,0,0,0,0,0,0,0,0],"sum_hessian":[8.28E2,4.52E2,3.76E2,1.69E2,2.83E2,3.42E2,3.4E1,1.55E2,1.4E1,2.75E2,8E0,1.27E2,2.15E2,3.1E1,3E0,1.53E2,2E0,2E0,1.2E1,5E0,2.7E2,1E0,7E0,1.19E2,8E0,8E0,2.07E2,1.2E1,1.9E1,2E0,1E0,1.23E2,3E1,3E0,9E0,4E0,1E0,2.03E2,6.7E1,5E0,2E0,1.05E2,1.4E1,2E0,6E0,2E0,6E0,1E0,2.06E2,9E0,3E0,9E0,1E1,1.11E2,1.2E1,6E0,2.4E1,2E0,1E0,8E0,1E0,1.22E2,8.1E1,3.8E1,2.9E1,1E0,1E0,7.9E1,2.6E1,1.1E1,3E0,3E0,3E0,1E0,1E0,4E0,2E0,1.6E1,1.9E2,5E0,4E0,2E0,8E0],"tree_param":{"num_deleted":"0","num_feature":"9","num_nodes":"83","size_leaf_vector":"1"}},{"base_weights":[4.2142972E-5,-1.507682E-3,2.8824634E-3,-4.7074077E-3,-1.0570685E-3,2.2678776E-3,1.0734819E-2,-2.8016698E-3,-1.1000139E-2,-9.155669E-3,-9.154645E-4,2.7554187E-3,-1.665232E-2,7.544458E-4,2.1637786E-2,-5.5998242E-3,1.9553688E-3,-1.3671075E-2,4.240632E-3,-3.6809582E-3,-5.1159607E-3,2.151996E-3,-1.1624381E-3,4.711636E-3,1.7508402E-3,1.3268441E-3,-3.0468404E-2,7.2440864E-3,-3.3958852E-3,1.15959905E-2,8.823522E-3,5.320607E-3,-7.28956E-3,6.5292614E-3,-2.3268594E-4,-1.8713225E-2,-1.8609881E-3,2.114743E-3,-2.0645857E-4,-9.473985E-3,5.270064E-3,-2.2183359E-4,1.3662477E-2,-9.1947615E-3,-9.104509E-4,3.390101E-3,2.2648105E-2,-8.154468E-3,3.2000148E-3,1.6994119E-3,-2.0073454E-3,-1.0529405E-2,-2.4869354E-3,9.884551E-3,-4.97666E-4,-6.98483E-3,3.2590092E-3,-5.941868E-3,4.7754156E-3,1.9570069E-4,1.8973774E-3,-4.3949336E-3,-1.7630555E-3,-2.2304258E-3,6.5505464E-4,-6.5298732E-3,8.5663726E-4,3.827423E-4,-8.8924175E-4,-4.5718031E-4,-3.4848074E-3,2.504535E-3,-1.3300628E-4,-8.776993E-4,2.2738227E-3,4.522546E-3,9.898648E-4,-3.1665722E-3,-3.4242572E-4,2.2298768E-3,-3.3351817E-4,4.6266858E-3,8.7430753E-4,2.8033555E-4,1.3215084E-2,-5.1665963E-3,-1.1823324E-3,-9.49857E-4,1.231809E-3,1.0918379E-4,-1.0124892E-3,4.243577E-3,-4.346341E-4,-9.052849E-4,-3.380573E-3,-4.4562222E-4,-2.2282184E-3],"categories":[],"categories_nodes":[],"categories_segments":[],"categories_sizes":[],"default_left":[0,0,0,0,0,0,0,0,0,0,0,0,0,0,0,0,0,0,0,0,0,0,0,0,0,0,0,0,0,0,0,0,0,0,0,0,0,0,0,0,0,0,0,0,0,0,0,0,0,0,0,0,0,0,0,0,0,0,0,0,0,0,0,0,0,0,0,0,0,0,0,0,0,0,0,0,0,0,0,0,0,0,0,0,0,0,0,0,0,0,0,0,0,0,0,0,0],"id":14,"left_children":[1,3,5,7,9,11,13,15,17,19,21,23,25,27,29,31,33,35,37,39,-1,41,43,45,47,49,51,53,55,-1,57,59,61,-1,63,65,67,-1,-1,69,71,73,75,77,79,81,83,85,87,-1,89,-1,-1,91,-1,93,-1,95,-1,-1,-1,-1,-1,-1,-1,-1,-1,-1,-1,-1,-1,-1,-1,-1,-1,-1,-1,-1,-1,-1,-1,-1,-1,-1,-1,-1,-1,-1,-1,-1,-1,-1,-1,-1,-1,-1,-1],"loss_changes":[3.6536031E-3,7.692919E-4,1.3896571E-3,7.606726E-4,5.329053E-4,2.5641387E-3,2.268805E-3,7.0311804E-4,6.68581E-4,2.8312154E-4,3.5477715E-4,5.164521E-4,1.7792383E-3,3.4780995E-4,1.8393542E-3,6.4772204E-4,8.7192055E-4,7.39302E-4,4.6379188E-5,3.6104958E-4,0E0,9.59368E-4,8.639911E-4,2.0565512E-3,2.581199E-3,6.922404E-5,1.1975854E-4,1.3393728E-4,4.8528402E-4,0E0,8.2785747E-4,1.9308602E-5,2.1544297E-4,0E0,3.468651E-4,6.5479847E-4,2.1083464E-5,0E0,0E0,5.041517E-5,5.6465637E-5,6.549719E-4,3.8095517E-5,1.3038528E-4,7.119E-4,4.416129E-4,2.7471532E-3,8.108348E-4,9.127895E-4,0E0,1.0957371E-5,0E0,0E0,2.1364522E-4,0E0,8.495746E-5,0E0,8.827868E-6,0E0,0E0,0E0,0E0,0E0,0E0,0E0,0E0,0E0,0E0,0E0,0E0,0E0,0E0,0E0,0E0,0E0,0E0,0E0,0E0,0E0,0E0,0E0,0E0,0E0,0E0,0E0,0E0,0E0,0E0,0E0,0E0,0E0,0E0,0E0,0E0,0E0,0E0,0E0],"parents":[2147483647,0,0,1,1,2,2,3,3,4,4,5,5,6,6,7,7,8,8,9,9,10,10,11,11,12,12,13,13,14,14,15,15,16,16,17,17,18,18,19,19,21,21,22,22,23,23,24,24,25,25,26,26,27,27,28,28,30,30,31,31,32,32,34,34,35,35,36,36,39,39,40,40,41,41,42,42,43,43,44,44,45,45,46,46,47,47,48,48,50,50,53,53,55,55,57,57],"right_children":[2,4,6,8,10,12,14,16,18,20,22,24,26,28,30,32,34,36,38,40,-1,42,44,46,48,50,52,54,56,-1,58,60,62,-1,64,66,68,-1,-1,70,72,74,76,78,80,82,84,86,88,-1,90,-1,-1,92,-1,94,-1,96,-1,-1,-1,-1,-1,-1,-1,-1,-1,-1,-1,-1,-1,-1,-1,-1,-1,-1,-1,-1,-1,-1,-1,-1,-1,-1,-1,-1,-1,-1,-1,-1,-1,-1,-1,-1,-1,-1,-1],"split_conditions":[6.5010864E-1,1.4588419E-1,7.2683156E-1,1.4782E-1,9.8552495E-2,7.020132E-1,7.2199124E-1,1.8681715E-1,1.8213935E-1,2.1999303E-1,1.5115634E-1,7.212402E-1,6.864791E-1,7.184074E-1,7.8217953E-1,5.6707893E-2,1.567578E-1,1.5527184E-1,1.9052292E-1,7.204259E-2,-5.1159607E-3,1.4147857E-1,1.754201E-1,7.173779E-1,7.508482E-1,7.0278984E-1,7.1127504E-1,6.9946086E-1,7.215621E-1,1.15959905E-2,7.7786124E-1,7.4863315E-2,5.8176648E-2,6.5292614E-3,8.84049E-2,3.301259E-1,1.2484055E-1,2.114743E-3,-2.0645857E-4,9.2415534E-2,2.147764E-1,2.1578579E-1,2.2396266E-1,3.2446375E-1,1.9488658E-1,1.754201E-1,7.4403477E-1,3.3525595E-1,7.4167854E-1,1.6994119E-3,7.147904E-1,-1.0529405E-2,-2.4869354E-3,6.960009E-1,-4.97666E-4,7.3517454E-1,3.2590092E-3,7.541848E-1,4.7754156E-3,1.9570069E-4,1.8973774E-3,-4.3949336E-3,-1.7630555E-3,-2.2304258E-3,6.5505464E-4,-6.5298732E-3,8.5663726E-4,3.827423E-4,-8.8924175E-4,-4.5718031E-4,-3.4848074E-3,2.504535E-3,-1.3300628E-4,-8.776993E-4,2.2738227E-3,4.522546E-3,9.898648E-4,-3.1665722E-3,-3.4242572E-4,2.2298768E-3,-3.3351817E-4,4.6266858E-3,8.7430753E-4,2.8033555E-4,1.3215084E-2,-5.1665963E-3,-1.1823324E-3,-9.49857E-4,1.231809E-3,1.0918379E-4,-1.0124892E-3,4.243577E-3,-4.346341E-4,-9.052849E-4,-3.380573E-3,-4.4562222E-4,-2.2282184E-3],"split_indices":[2,2,8,0,6,7,2,8,0,1,7,2,2,0,2,6,6,1,0,6,0,6,8,2,0,0,8,1,1,0,1,0,2,0,1,6,6,0,0,0,0,0,2,0,6,6,0,7,1,0,0,0,0,2,0,0,0,0,0,0,0,0,0,0,0,0,0,0,0,0,0,0,0,0,0,0,0,0,0,0,0,0,0,0,0,0,0,0,0,0,0,0,0,0,0,0,0],"split_type":[0,0,0,0,0,0,0,0,0,0,0,0,0,0,0,0,0,0,0,0,0,0,0,0,0,0,0,0,0,0,0,0,0,0,0,0,0,0,0,0,0,0,0,0,0,0,0,0,0,0,0,0,0,0,0,0,0,0,0,0,0,0,0,0,0,0,0,0,0,0,0,0,0,0,0,0,0,0,0,0,0,0,0,0,0,0,0,0,0,0,0,0,0,0,0,0,0],"sum_hessian":[8.28E2,5.36E2,2.92E2,6.5E1,4.71E2,2.72E2,2E1,5.1E1,1.4E1,7E0,4.64E2,2.66E2,6E0,1.1E1,9E0,3.2E1,1.9E1,1.2E1,2E0,5E0,2E0,3.4E1,4.3E2,8.9E1,1.77E2,3E0,3E0,4E0,7E0,3E0,6E0,4E0,2.8E1,1E0,1.8E1,8E0,4E0,1E0,1E0,3E0,2E0,2.9E1,5E0,1.2E1,4.18E2,8.4E1,5E0,2.2E1,1.55E2,1E0,2E0,2E0,1E0,3E0,1E0,6E0,1E0,2E0,4E0,1E0,3E0,3E0,2.5E1,4E0,1.4E1,7E0,1E0,1E0,3E0,1E0,2E0,1E0,1E0,2.2E1,7E0,4E0,1E0,1E1,2E0,9E0,4.09E2,2E0,8.2E1,3E0,2E0,6E0,1.6E1,1.9E1,1.36E2,1E0,1E0,2E0,1E0,4E0,2E0,1E0,1E0],"tree_param":{"num_deleted":"0","num_feature":"9","num_nodes":"97","size_leaf_vector":"1"}},{"base_weights":[4.388404E-5,-1.4171159E-3,1.637257E-3,-1.2739485E-3,-1.1393542E-2,1.3753679E-3,6.0387608E-3,-1.7804584E-3,7.3180255E-4,1.4262826E-3,-1.5573961E-2,2.654315E-3,7.123936E-4,4.2217267E-3,1.0180563E-2,-1.1773987E-3,-5.0466256E-3,6.9993604E-3,-5.6607655E-4,-5.942494E-3,-1.8444866E-3,1.0513748E-3,2.3731926E-2,-5.259683E-3,1.1726738E-3,7.903224E-3,-9.078607E-4,3.5326767E-3,3.3081474E-4,-2.3614296E-3,1.2778377E-3,-1.4147907E-3,-1.8785013E-2,1.9085966E-4,1.2932941E-2,-3.129673E-3,3.2127341E-3,1.7312956E-3,-3.823491E-3,1.9455522E-2,2.7188745E-3,-2.4614376E-3,-1.2042833E-2,1.7615289E-3,-2.3083512E-3,9.151684E-3,-4.99937E-4,-3.5158398E-3,2.3108635E-3,-6.0308195E-4,-2.4253477E-3,3.528901E-3,5.3543263E-5,-2.393281E-3,1.563699E-3,-1.008581E-2,-1.6516418E-3,-1.7262367E-3,2.2723116E-3,5.1067355E-3,1.328826E-4,5.1137864E-5,-2.2442774E-3,1.2976307E-3,-2.4730177E-3,1.2999773E-4,2.0002453E-3,-1.7888786E-3,1.0652081E-3,3.2072484E-3,-7.8242185E-4,-1.614523E-3,6.987781E-4,-1.0845512E-3,-3.9737867E-3,3.8990684E-4,3.410119E-3,-3.0907483E-3,5.888607E-4,7.806167E-4,3.597847E-3,1.1392594E-3,-9.913713E-4],"categories":[],"categories_nodes":[],"categories_segments":[],"categories_sizes":[],"default_left":[0,0,0,0,0,0,0,0,0,0,0,0,0,0,0,0,0,0,0,0,0,0,0,0,0,0,0,0,0,0,0,0,0,0,0,0,0,0,0,0,0,0,0,0,0,0,0,0,0,0,0,0,0,0,0,0,0,0,0,0,0,0,0,0,0,0,0,0,0,0,0,0,0,0,0,0,0,0,0,0,0,0,0],"id":15,"left_children":[1,3,5,7,9,11,13,15,17,-1,19,21,23,25,27,29,31,33,35,-1,-1,37,39,41,43,45,47,-1,-1,49,51,53,55,57,59,61,63,65,67,-1,69,71,73,75,77,79,-1,-1,81,-1,-1,-1,-1,-1,-1,-1,-1,-1,-1,-1,-1,-1,-1,-1,-1,-1,-1,-1,-1,-1,-1,-1,-1,-1,-1,-1,-1,-1,-1,-1,-1,-1,-1],"loss_changes":[1.9321642E-3,6.0393894E-4,4.493188E-4,4.3612212E-4,4.7907076E-4,3.169229E-4,1.225879E-4,6.676933E-4,7.116665E-4,0E0,7.777079E-5,4.299677E-3,6.9062604E-4,3.282126E-4,7.3891366E-5,8.4606954E-4,2.6178877E-3,6.035134E-4,7.17231E-4,0E0,0E0,4.043623E-4,7.600152E-3,3.1201384E-4,4.796243E-4,1.3472448E-4,3.054787E-4,0E0,0E0,3.7764735E-4,1.0929628E-3,1.9117615E-3,1.981837E-3,3.9474262E-4,4.0108396E-4,6.3310226E-4,4.1807373E-4,6.762553E-4,2.5782158E-4,0E0,3.251457E-4,2.083997E-4,2.811139E-6,8.6803304E-4,1.1811438E-3,1.3626966E-4,0E0,0E0,7.0987204E-5,0E0,0E0,0E0,0E0,0E0,0E0,0E0,0E0,0E0,0E0,0E0,0E0,0E0,0E0,0E0,0E0,0E0,0E0,0E0,0E0,0E0,0E0,0E0,0E0,0E0,0E0,0E0,0E0,0E0,0E0,0E0,0E0,0E0,0E0],"parents":[2147483647,0,0,1,1,2,2,3,3,4,4,5,5,6,6,7,7,8,8,10,10,11,11,12,12,13,13,14,14,15,15,16,16,17,17,18,18,21,21,22,22,23,23,24,24,25,25,26,26,29,29,30,30,31,31,32,32,33,33,34,34,35,35,36,36,37,37,38,38,40,40,41,41,42,42,43,43,44,44,45,45,48,48],"right_children":[2,4,6,8,10,12,14,16,18,-1,20,22,24,26,28,30,32,34,36,-1,-1,38,40,42,44,46,48,-1,-1,50,52,54,56,58,60,62,64,66,68,-1,70,72,74,76,78,80,-1,-1,82,-1,-1,-1,-1,-1,-1,-1,-1,-1,-1,-1,-1,-1,-1,-1,-1,-1,-1,-1,-1,-1,-1,-1,-1,-1,-1,-1,-1,-1,-1,-1,-1,-1,-1],"split_conditions":[3.917335E-1,4.1362682E-1,8.601776E-1,6.2714213E-1,3.6161253E-1,4.6214852E-1,6.6299707E-1,5.5557096E-1,6.3887197E-1,1.4262826E-3,4.2380485E-1,4.5932007E-1,4.8222506E-1,8.9415395E-1,7.083079E-1,4.008929E-1,3.4793338E-1,6.2927735E-1,3.3801198E-1,-5.942494E-3,-1.8444866E-3,4.2523986E-1,4.8469302E-1,4.9559093E-1,8.211249E-1,6.6094506E-1,8.6825097E-1,3.5326767E-3,3.3081474E-4,3.668134E-1,4.1348234E-1,3.1038275E-1,3.731109E-1,3.0842474E-1,3.20286E-1,3.118183E-1,3.9299414E-1,3.5724586E-1,4.4847763E-1,1.9455522E-2,6.960009E-1,4.7260273E-1,6.415793E-1,8.1028885E-1,8.567784E-1,4.4423494E-1,-4.99937E-4,-3.5158398E-3,6.331041E-1,-6.0308195E-4,-2.4253477E-3,3.528901E-3,5.3543263E-5,-2.393281E-3,1.563699E-3,-1.008581E-2,-1.6516418E-3,-1.7262367E-3,2.2723116E-3,5.1067355E-3,1.328826E-4,5.1137864E-5,-2.2442774E-3,1.2976307E-3,-2.4730177E-3,1.2999773E-4,2.0002453E-3,-1.7888786E-3,1.0652081E-3,3.2072484E-3,-7.8242185E-4,-1.614523E-3,6.987781E-4,-1.0845512E-3,-3.9737867E-3,3.8990684E-4,3.410119E-3,-3.0907483E-3,5.888607E-4,7.806167E-4,3.597847E-3,1.1392594E-3,-9.913713E-4],"split_indices":[1,0,2,7,2,8,6,6,7,0,0,7,8,0,6,6,1,6,4,0,0,6,6,6,2,7,1,0,0,3,7,1,0,1,0,0,2,8,7,0,2,7,2,2,0,6,0,0,6,0,0,0,0,0,0,0,0,0,0,0,0,0,0,0,0,0,0,0,0,0,0,0,0,0,0,0,0,0,0,0,0,0,0],"split_type":[0,0,0,0,0,0,0,0,0,0,0,0,0,0,0,0,0,0,0,0,0,0,0,0,0,0,0,0,0,0,0,0,0,0,0,0,0,0,0,0,0,0,0,0,0,0,0,0,0,0,0,0,0,0,0,0,0,0,0,0,0,0,0,0,0,0,0,0,0,0,0,0,0,0,0,0,0,0,0,0,0,0,0],"sum_hessian":[8.28E2,4.32E2,3.96E2,4.27E2,5E0,3.75E2,2.1E1,3.41E2,8.6E1,1E0,4E0,1.27E2,2.48E2,1.6E1,5E0,2.89E2,5.2E1,1.4E1,7.2E1,2E0,2E0,1.19E2,8E0,1.7E1,2.31E2,9E0,7E0,4E0,1E0,1.95E2,9.4E1,4.2E1,1E1,7E0,7E0,4.3E1,2.9E1,1.05E2,1.4E1,2E0,6E0,1.3E1,4E0,1.98E2,3.3E1,8E0,1E0,1E0,6E0,1.85E2,1E1,8E0,8.6E1,2.1E1,2.1E1,4E0,6E0,4E0,3E0,5E0,2E0,2.5E1,1.8E1,2.7E1,2E0,8.4E1,2.1E1,1.1E1,3E0,2E0,4E0,8E0,5E0,1E0,3E0,1.9E2,8E0,1.1E1,2.2E1,3E0,5E0,5E0,1E0],"tree_param":{"num_deleted":"0","num_feature":"9","num_nodes":"83","size_leaf_vector":"1"}},{"base_weights":[3.9190643E-5,-7.758172E-4,1.729432E-3,-1.2703257E-3,7.026893E-4,1.2353247E-3,8.578307E-3,-1.0638179E-3,-1.1772502E-2,3.8799662E-3,-9.789156E-4,1.8059465E-3,-1.1482531E-2,1.5144478E-2,-3.9034572E-3,-1.2999885E-3,4.5140376E-3,-3.9321245E-3,-5.588955E-3,2.3281446E-3,1.461333E-2,-2.842489E-3,1.7931638E-3,1.2681836E-3,5.3121895E-3,-2.453049E-3,-1.8598258E-2,2.4525225E-3,1.9102626E-2,-7.5669982E-3,2.7116686E-3,-6.9594476E-4,-4.4913325E-3,5.845572E-3,-2.5185766E-3,-1.4382966E-3,-7.2500115E-5,4.0924473E-4,1.4412969E-2,5.1981285E-3,1.5667678E-4,-8.025412E-3,-1.6792606E-3,4.7564465E-3,-3.6264956E-3,1.9550975E-3,-1.4442775E-2,1.369791E-2,-1.971033E-3,1.0390043E-3,-6.2770844E-3,3.4314395E-5,-2.2363663E-2,2.1625936E-3,-4.607201E-4,1.0286106E-2,9.866084E-3,-4.561067E-4,-3.0630694E-3,-5.170243E-4,5.004043E-4,-2.7591086E-4,-3.3317239E-3,3.448818E-5,3.0869825E-3,3.2674716E-4,-3.8141147E-3,4.736331E-3,1.1308462E-3,-5.7688775E-4,-3.5319666E-3,2.0017524E-3,-7.8340323E-4,2.6682667E-3,8.9449907E-4,-1.8981153E-3,7.4997434E-4,4.046272E-4,3.0262982E-3,-5.642542E-3,-2.1565568E-3,5.597327E-3,9.445548E-4,-3.8534314E-3,3.1800987E-4,-2.6200593E-3,1.6383827E-4,-7.462326E-3,-1.8480957E-3,8.4829335E-5,3.4248533E-3],"categories":[],"categories_nodes":[],"categories_segments":[],"categories_sizes":[],"default_left":[0,0,0,0,0,0,0,0,0,0,0,0,0,0,0,0,0,0,0,0,0,0,0,0,0,0,0,0,0,0,0,0,0,0,0,0,0,0,0,0,0,0,0,0,0,0,0,0,0,0,0,0,0,0,0,0,0,0,0,0,0,0,0,0,0,0,0,0,0,0,0,0,0,0,0,0,0,0,0,0,0,0,0,0,0,0,0,0,0,0,0],"id":16,"left_children":[1,3,5,7,9,11,13,15,17,19,21,23,25,27,29,31,33,35,-1,37,39,41,43,45,47,49,51,53,55,57,-1,59,61,63,-1,-1,-1,65,67,-1,-1,69,71,73,75,77,79,81,83,-1,85,-1,87,-1,-1,-1,89,-1,-1,-1,-1,-1,-1,-1,-1,-1,-1,-1,-1,-1,-1,-1,-1,-1,-1,-1,-1,-1,-1,-1,-1,-1,-1,-1,-1,-1,-1,-1,-1,-1,-1],"loss_changes":[1.143339E-3,4.1032778E-4,9.031046E-4,8.983646E-4,7.5715047E-4,1.8567796E-3,1.5343486E-3,5.499236E-4,3.568586E-4,7.821351E-4,4.8553257E-4,4.5144622E-4,6.6114217E-4,5.5599026E-4,4.0030119E-4,7.6217554E-4,3.4129087E-4,1.4750891E-5,0E0,1.0144425E-3,2.2038992E-4,3.2414286E-4,6.275285E-4,2.316157E-3,1.9814011E-3,1.574868E-4,4.2532175E-4,8.69451E-5,9.2398305E-4,8.0372934E-5,0E0,8.1655476E-4,1.4781129E-3,4.0632027E-4,0E0,0E0,0E0,3.6182336E-4,2.8284034E-5,0E0,0E0,2.0606886E-4,3.832978E-4,1.5707174E-4,2.47443E-4,9.923385E-4,1.4982373E-4,7.2610634E-4,6.0687814E-4,0E0,7.181305E-5,0E0,5.0178962E-5,0E0,0E0,0E0,1.0075711E-4,0E0,0E0,0E0,0E0,0E0,0E0,0E0,0E0,0E0,0E0,0E0,0E0,0E0,0E0,0E0,0E0,0E0,0E0,0E0,0E0,0E0,0E0,0E0,0E0,0E0,0E0,0E0,0E0,0E0,0E0,0E0,0E0,0E0,0E0],"parents":[2147483647,0,0,1,1,2,2,3,3,4,4,5,5,6,6,7,7,8,8,9,9,10,10,11,11,12,12,13,13,14,14,15,15,16,16,17,17,19,19,20,20,21,21,22,22,23,23,24,24,25,25,26,26,27,27,28,28,29,29,31,31,32,32,33,33,37,37,38,38,41,41,42,42,43,43,44,44,45,45,46,46,47,47,48,48,50,50,52,52,56,56],"right_children":[2,4,6,8,10,12,14,16,18,20,22,24,26,28,30,32,34,36,-1,38,40,42,44,46,48,50,52,54,56,58,-1,60,62,64,-1,-1,-1,66,68,-1,-1,70,72,74,76,78,80,82,84,-1,86,-1,88,-1,-1,-1,90,-1,-1,-1,-1,-1,-1,-1,-1,-1,-1,-1,-1,-1,-1,-1,-1,-1,-1,-1,-1,-1,-1,-1,-1,-1,-1,-1,-1,-1,-1,-1,-1,-1,-1],"split_conditions":[6.734973E-1,6.4111805E-1,7.2683156E-1,6.3887197E-1,7.2758025E-1,6.941656E-1,8.9454275E-1,6.2714213E-1,6.355166E-1,7.230603E-1,8.1947756E-1,6.562309E-1,6.750319E-1,7.0560306E-1,7.7786124E-1,5.5640286E-1,6.9578016E-1,7.033165E-1,-5.588955E-3,5.071919E-1,4.1124353E-1,3.27361E-1,8.711386E-1,6.4211637E-1,6.6954136E-1,8.665919E-1,7.147904E-1,6.9076127E-1,7.7823675E-1,7.2698724E-1,2.7116686E-3,4.522489E-1,3.4793338E-1,6.2927735E-1,-2.5185766E-3,-1.4382966E-3,-7.2500115E-5,7.2974324E-1,6.279826E-1,5.1981285E-3,1.5667678E-4,3.0719095E-1,3.3108923E-1,8.254118E-1,9.0186346E-1,6.205147E-1,6.433919E-1,8.4239465E-1,6.72453E-1,1.0390043E-3,9.0677136E-1,3.4314395E-5,8.327212E-1,2.1625936E-3,-4.607201E-4,1.0286106E-2,7.541848E-1,-4.561067E-4,-3.0630694E-3,-5.170243E-4,5.004043E-4,-2.7591086E-4,-3.3317239E-3,3.448818E-5,3.0869825E-3,3.2674716E-4,-3.8141147E-3,4.736331E-3,1.1308462E-3,-5.7688775E-4,-3.5319666E-3,2.0017524E-3,-7.8340323E-4,2.6682667E-3,8.9449907E-4,-1.8981153E-3,7.4997434E-4,4.046272E-4,3.0262982E-3,-5.642542E-3,-2.1565568E-3,5.597327E-3,9.445548E-4,-3.8534314E-3,3.1800987E-4,-2.6200593E-3,1.6383827E-4,-7.462326E-3,-1.8480957E-3,8.4829335E-5,3.4248533E-3],"split_indices":[2,8,8,7,7,8,6,7,8,7,7,7,6,1,1,6,0,6,0,0,0,1,8,7,7,0,0,0,2,0,0,7,1,6,0,0,0,8,0,0,0,1,2,8,6,7,7,2,7,0,0,0,0,0,0,0,0,0,0,0,0,0,0,0,0,0,0,0,0,0,0,0,0,0,0,0,0,0,0,0,0,0,0,0,0,0,0,0,0,0,0],"split_type":[0,0,0,0,0,0,0,0,0,0,0,0,0,0,0,0,0,0,0,0,0,0,0,0,0,0,0,0,0,0,0,0,0,0,0,0,0,0,0,0,0,0,0,0,0,0,0,0,0,0,0,0,0,0,0,0,0,0,0,0,0,0,0,0,0,0,0,0,0,0,0,0,0,0,0,0,0,0,0,0,0,0,0,0,0,0,0,0,0,0,0],"sum_hessian":[8.28E2,5.59E2,2.69E2,4.19E2,1.4E2,2.52E2,1.7E1,4.12E2,7E0,4.8E1,9.2E1,2.42E2,1E1,1.1E1,6E0,3.96E2,1.6E1,4E0,3E0,4.3E1,5E0,5.5E1,3.7E1,2.11E2,3.1E1,5E0,5E0,3E0,8E0,5E0,1E0,3.34E2,6.2E1,1.5E1,1E0,3E0,1E0,3.8E1,5E0,4E0,1E0,9E0,4.6E1,2.4E1,1.3E1,2.03E2,8E0,1.4E1,1.7E1,2E0,3E0,1E0,4E0,1E0,2E0,2E0,6E0,2E0,3E0,2.33E2,1.01E2,4.1E1,2.1E1,7E0,8E0,3.7E1,1E0,4E0,1E0,4E0,5E0,4E0,4.2E1,6E0,1.8E1,9E0,4E0,1.9E2,1.3E1,4E0,4E0,9E0,5E0,3E0,1.4E1,2E0,1E0,3E0,1E0,1E0,5E0],"tree_param":{"num_deleted":"0","num_feature":"9","num_nodes":"91","size_leaf_vector":"1"}},{"base_weights":[2.715108E-5,-9.139082E-4,8.6931564E-4,-3.4389427E-4,-4.327851E-3,1.6860544E-3,-5.0262697E-5,-9.434545E-4,2.8866446E-3,-7.891122E-3,1.9867022E-3,1.2499202E-3,8.937091E-3,-6.851019E-3,7.955084E-4,-6.200054E-4,-8.250254E-3,1.2323588E-2,1.86478E-3,-5.1217875E-3,-2.876535E-2,4.997747E-3,4.2012185E-4,2.6627965E-3,-4.721594E-4,4.16794E-4,1.618066E-2,1.563063E-4,-1.4509583E-2,-1.610243E-4,3.6074773E-3,-9.7624026E-4,5.1852968E-3,1.0026296E-3,-1.0201094E-2,-1.16953255E-4,4.6798224E-3,-3.61712E-3,2.4060074E-3,-1.1289555E-2,-1.5247423E-3,-1.0111084E-2,-2.0925836E-3,-3.1224082E-3,4.2748926E-3,1.9851397E-3,2.1987975E-2,-7.3702545E-3,9.2950463E-4,2.3404546E-3,-3.6090019E-3,1.9529711E-2,1.5616061E-3,1.8633107E-3,-3.0491622E-3,2.3274736E-3,-1.7512191E-2,7.439861E-4,-1.075969E-2,5.6248605E-3,2.5178406E-3,-1.6331818E-4,-1.7533727E-3,-4.91184E-4,2.8327713E-3,9.853677E-4,-5.341843E-4,-4.1142106E-3,-1.1836034E-3,2.9891238E-3,4.4774744E-4,6.8838004E-4,-6.396097E-3,1.2855292E-3,-2.317241E-3,-1.4675537E-3,2.1857948E-3,2.369496E-3,-2.043763E-3,4.5398303E-4,3.7039772E-3,-4.4178963E-4,1.3855469E-2,-7.023799E-4,-6.9387453E-3,1.1214678E-3,-7.706702E-4,1.6950489E-3,6.4761178E-3,-2.1267296E-3,1.3088108E-3,-6.528063E-3,-1.0402203E-4,1.2531902E-5,3.0306561E-3,-7.4266857E-3,1.508856E-3,-2.8787865E-3,1.1801167E-3],"categories":[],"categories_nodes":[],"categories_segments":[],"categories_sizes":[],"default_left":[0,0,0,0,0,0,0,0,0,0,0,0,0,0,0,0,0,0,0,0,0,0,0,0,0,0,0,0,0,0,0,0,0,0,0,0,0,0,0,0,0,0,0,0,0,0,0,0,0,0,0,0,0,0,0,0,0,0,0,0,0,0,0,0,0,0,0,0,0,0,0,0,0,0,0,0,0,0,0,0,0,0,0,0,0,0,0,0,0,0,0,0,0,0,0,0,0,0,0],"id":17,"left_children":[1,3,5,7,9,11,13,15,17,19,21,23,25,27,29,31,33,35,37,39,41,-1,43,45,47,49,51,53,55,57,59,61,63,65,67,-1,-1,-1,69,71,73,-1,-1,75,77,79,81,83,85,-1,-1,87,-1,89,-1,-1,91,93,95,-1,97,-1,-1,-1,-1,-1,-1,-1,-1,-1,-1,-1,-1,-1,-1,-1,-1,-1,-1,-1,-1,-1,-1,-1,-1,-1,-1,-1,-1,-1,-1,-1,-1,-1,-1,-1,-1,-1,-1],"loss_changes":[6.577992E-4,7.6134154E-4,3.2904695E-4,6.554596E-4,1.2757034E-3,7.2251196E-4,1.1960898E-3,6.6844735E-4,4.8811297E-4,1.9337479E-3,4.7569827E-4,5.3653616E-4,7.955817E-4,1.2365872E-3,4.9818284E-4,5.717081E-4,2.2683869E-4,2.1431583E-4,3.982187E-4,7.1491575E-4,1.9532861E-4,0E0,2.864608E-4,1.5409472E-3,9.737319E-4,7.372653E-4,1.5563914E-4,2.4795416E-4,8.7134074E-4,1.3412795E-3,7.282606E-4,5.4133276E-4,4.8018937E-4,2.4902025E-5,1.6565423E-4,0E0,0E0,0E0,3.165266E-4,1.6840355E-3,8.254833E-4,0E0,0E0,2.3822885E-4,4.555527E-4,5.5824E-4,2.338711E-3,1.2931206E-3,8.349909E-4,0E0,0E0,2.0804699E-5,0E0,2.9943453E-4,0E0,0E0,7.216465E-4,8.4729504E-4,2.5553396E-3,0E0,8.0957415E-4,0E0,0E0,0E0,0E0,0E0,0E0,0E0,0E0,0E0,0E0,0E0,0E0,0E0,0E0,0E0,0E0,0E0,0E0,0E0,0E0,0E0,0E0,0E0,0E0,0E0,0E0,0E0,0E0,0E0,0E0,0E0,0E0,0E0,0E0,0E0,0E0,0E0,0E0],"parents":[2147483647,0,0,1,1,2,2,3,3,4,4,5,5,6,6,7,7,8,8,9,9,10,10,11,11,12,12,13,13,14,14,15,15,16,16,17,17,18,18,19,19,20,20,22,22,23,23,24,24,25,25,26,26,27,27,28,28,29,29,30,30,31,31,32,32,33,33,34,34,38,38,39,39,40,40,43,43,44,44,45,45,46,46,47,47,48,48,51,51,53,53,56,56,57,57,58,58,60,60],"right_children":[2,4,6,8,10,12,14,16,18,20,22,24,26,28,30,32,34,36,38,40,42,-1,44,46,48,50,52,54,56,58,60,62,64,66,68,-1,-1,-1,70,72,74,-1,-1,76,78,80,82,84,86,-1,-1,88,-1,90,-1,-1,92,94,96,-1,98,-1,-1,-1,-1,-1,-1,-1,-1,-1,-1,-1,-1,-1,-1,-1,-1,-1,-1,-1,-1,-1,-1,-1,-1,-1,-1,-1,-1,-1,-1,-1,-1,-1,-1,-1,-1,-1,-1],"split_conditions":[3.6357054E-1,3.4313226E-1,5.5961955E-1,3.2339135E-1,5.619489E-1,5.5557096E-1,5.777827E-1,3.3578306E-1,3.2483974E-1,5.324441E-1,5.7883644E-1,7.194432E-1,8.15954E-1,5.6461096E-1,7.9628783E-1,3.4019348E-1,2.9310945E-1,3.0719095E-1,2.777513E-1,3.4935492E-1,3.731109E-1,4.997747E-3,3.6865273E-1,7.173779E-1,7.4403477E-1,4.1362682E-1,5.786423E-1,8.881537E-1,3.41067E-1,7.6734704E-1,8.002804E-1,3.0842474E-1,5.159725E-1,2.768821E-1,3.292023E-1,-1.16953255E-4,4.6798224E-3,-3.61712E-3,3.2527313E-1,4.2865065E-1,3.582598E-1,-1.0111084E-2,-2.0925836E-3,3.6496526E-1,3.681034E-1,5.668016E-1,7.405019E-1,7.376284E-1,4.2523986E-1,2.3404546E-3,-3.6090019E-3,4.8602408E-1,1.5616061E-3,5.653042E-1,-3.0491622E-3,2.3274736E-3,6.0268426E-1,7.4253684E-1,6.938328E-1,5.6248605E-3,8.323006E-1,-1.6331818E-4,-1.7533727E-3,-4.91184E-4,2.8327713E-3,9.853677E-4,-5.341843E-4,-4.1142106E-3,-1.1836034E-3,2.9891238E-3,4.4774744E-4,6.8838004E-4,-6.396097E-3,1.2855292E-3,-2.317241E-3,-1.4675537E-3,2.1857948E-3,2.369496E-3,-2.043763E-3,4.5398303E-4,3.7039772E-3,-4.4178963E-4,1.3855469E-2,-7.023799E-4,-6.9387453E-3,1.1214678E-3,-7.706702E-4,1.6950489E-3,6.4761178E-3,-2.1267296E-3,1.3088108E-3,-6.528063E-3,-1.0402203E-4,1.2531902E-5,3.0306561E-3,-7.4266857E-3,1.508856E-3,-2.8787865E-3,1.1801167E-3],"split_indices":[1,1,7,1,8,8,6,2,1,8,7,2,0,6,1,0,1,2,0,1,0,0,0,2,0,0,8,0,2,2,0,1,6,0,0,0,0,0,7,6,1,0,0,2,2,6,0,1,6,0,0,6,0,7,0,0,7,2,6,0,0,0,0,0,0,0,0,0,0,0,0,0,0,0,0,0,0,0,0,0,0,0,0,0,0,0,0,0,0,0,0,0,0,0,0,0,0,0,0],"split_type":[0,0,0,0,0,0,0,0,0,0,0,0,0,0,0,0,0,0,0,0,0,0,0,0,0,0,0,0,0,0,0,0,0,0,0,0,0,0,0,0,0,0,0,0,0,0,0,0,0,0,0,0,0,0,0,0,0,0,0,0,0,0,0,0,0,0,0,0,0,0,0,0,0,0,0,0,0,0,0,0,0,0,0,0,0,0,0,0,0,0,0,0,0,0,0,0,0,0,0],"sum_hessian":[8.28E2,3.91E2,4.37E2,3.36E2,5.5E1,2.31E2,2.06E2,2.84E2,5.2E1,3.5E1,2E1,2.19E2,1.2E1,2.2E1,1.84E2,2.73E2,1.1E1,4E0,4.8E1,3.2E1,3E0,1E0,1.9E1,1.2E2,9.9E1,6E0,6E0,1.2E1,1E1,1.38E2,4.6E1,2.58E2,1.5E1,2E0,9E0,1E0,3E0,1E0,4.7E1,1.1E1,2.1E1,2E0,1E0,1E1,9E0,1.17E2,3E0,1.6E1,8.3E1,4E0,2E0,4E0,2E0,1.1E1,1E0,1E0,9E0,1.28E2,1E1,2E0,4.4E1,2.38E2,2E1,6E0,9E0,1E0,1E0,5E0,4E0,4E0,4.3E1,5E0,6E0,1.1E1,1E1,9E0,1E0,7E0,2E0,1.13E2,4E0,2E0,1E0,1.3E1,3E0,4.6E1,3.7E1,1E0,3E0,2E0,9E0,7E0,2E0,1.2E2,8E0,5E0,5E0,4E0,4E1],"tree_param":{"num_deleted":"0","num_feature":"9","num_nodes":"99","size_leaf_vector":"1"}},{"base_weights":[1.7418519E-5,-1.2153956E-3,4.217537E-4,-7.159806E-4,-5.557128E-3,-6.4423108E-3,4.912577E-4,-8.179473E-3,-5.058511E-4,-1.1235394E-2,-1.9154677E-3,7.1147652E-3,3.717954E-4,-1.3146556E-2,-4.8589832E-4,-3.086007E-3,2.7199776E-5,7.320523E-4,-1.6200611E-2,-8.044793E-4,-2.4537474E-3,8.566859E-3,-1.1109263E-3,-3.5011435E-3,4.1047853E-4,-2.9344598E-4,-5.6225043E-3,-3.186548E-4,1.0000058E-4,-3.5750545E-5,-5.2869837E-3,2.2753607E-3,-1.3993455E-3,-6.8085883E-3,-2.1838346E-3,2.1522555E-3,-3.6462885E-3,1.0512481E-2,4.5187413E-3,1.10450685E-2,3.4007058E-4,-1.308105E-3,1.9371321E-3,-2.3282936E-3,-8.716989E-5,1.2406326E-4,3.7718513E-3,-1.3669874E-3,4.221141E-4,1.2330473E-3,1.6411902E-4,9.8769E-5,-2.0130705E-3,1.3982848E-3,4.4431095E-3,5.23749E-4,1.7356217E-3,5.290568E-4,4.065323E-3,-1.3531588E-3,1.2606407E-4],"categories":[],"categories_nodes":[],"categories_segments":[],"categories_sizes":[],"default_left":[0,0,0,0,0,0,0,0,0,0,0,0,0,0,0,0,0,0,0,0,0,0,0,0,0,0,0,0,0,0,0,0,0,0,0,0,0,0,0,0,0,0,0,0,0,0,0,0,0,0,0,0,0,0,0,0,0,0,0,0,0],"id":18,"left_children":[1,3,5,7,9,-1,11,13,15,17,19,21,23,25,27,29,31,-1,33,35,-1,37,-1,-1,39,-1,-1,-1,-1,41,43,45,47,-1,-1,49,51,53,55,57,59,-1,-1,-1,-1,-1,-1,-1,-1,-1,-1,-1,-1,-1,-1,-1,-1,-1,-1,-1,-1],"loss_changes":[4.1374436E-4,4.4052815E-4,9.617169E-4,2.8599787E-4,4.1272363E-4,0E0,4.911006E-4,1.8468517E-4,2.4902305E-4,5.827497E-4,9.084446E-5,2.0451774E-4,2.9081173E-4,1.85919E-4,1.7703976E-6,2.0793083E-4,4.8745665E-4,0E0,1.8243154E-4,1.17079944E-4,0E0,3.125792E-5,0E0,0E0,4.5523347E-4,0E0,0E0,0E0,0E0,4.2126127E-4,2.2024487E-4,1.1259493E-3,8.3044375E-4,0E0,0E0,1.9751147E-5,8.747464E-5,8.1864884E-5,7.461407E-6,6.9140864E-5,2.3902771E-4,0E0,0E0,0E0,0E0,0E0,0E0,0E0,0E0,0E0,0E0,0E0,0E0,0E0,0E0,0E0,0E0,0E0,0E0,0E0,0E0],"parents":[2147483647,0,0,1,1,2,2,3,3,4,4,6,6,7,7,8,8,9,9,10,10,11,11,12,12,13,13,14,14,15,15,16,16,18,18,19,19,21,21,24,24,29,29,30,30,31,31,32,32,35,35,36,36,37,37,38,38,39,39,40,40],"right_children":[2,4,6,8,10,-1,12,14,16,18,20,22,24,26,28,30,32,-1,34,36,-1,38,-1,-1,40,-1,-1,-1,-1,42,44,46,48,-1,-1,50,52,54,56,58,60,-1,-1,-1,-1,-1,-1,-1,-1,-1,-1,-1,-1,-1,-1,-1,-1,-1,-1,-1,-1],"split_conditions":[2.9199496E-1,2.768821E-1,2.1875922E-1,5.8176648E-2,3.289335E-1,-6.4423108E-3,2.7779418E-1,1.738395E-1,1.12251125E-1,2.2580555E-1,3.2827294E-1,3.418758E-1,2.79323E-1,6.0815927E-2,8.10879E-2,8.158172E-2,2.0456436E-1,7.320523E-4,2.777513E-1,5.7600796E-1,-2.4537474E-3,5.244579E-1,-1.1109263E-3,-3.5011435E-3,1.6388442E-1,-2.9344598E-4,-5.6225043E-3,-3.186548E-4,1.0000058E-4,1.4140493E-1,1.0945039E-1,1.8681715E-1,1.8431993E-1,-6.8085883E-3,-2.1838346E-3,2.8537783E-1,2.598235E-1,3.9823082E-1,6.500194E-1,2.8374863E-1,1.754201E-1,-1.308105E-3,1.9371321E-3,-2.3282936E-3,-8.716989E-5,1.2406326E-4,3.7718513E-3,-1.3669874E-3,4.221141E-4,1.2330473E-3,1.6411902E-4,9.8769E-5,-2.0130705E-3,1.3982848E-3,4.4431095E-3,5.23749E-4,1.7356217E-3,5.290568E-4,4.065323E-3,-1.3531588E-3,1.2606407E-4],"split_indices":[0,0,1,2,6,0,1,6,7,6,2,0,1,0,0,8,7,0,0,6,0,6,0,0,8,0,0,0,0,1,6,8,2,0,0,0,1,6,6,1,8,0,0,0,0,0,0,0,0,0,0,0,0,0,0,0,0,0,0,0,0],"split_type":[0,0,0,0,0,0,0,0,0,0,0,0,0,0,0,0,0,0,0,0,0,0,0,0,0,0,0,0,0,0,0,0,0,0,0,0,0,0,0,0,0,0,0,0,0,0,0,0,0,0,0,0,0,0,0,0,0,0,0,0,0],"sum_hessian":[8.28E2,2.04E2,6.24E2,1.84E2,2E1,1E0,6.23E2,4E0,1.8E2,7E0,1.3E1,1E1,6.13E2,2E0,2E0,3E1,1.5E2,2E0,5E0,1.2E1,1E0,9E0,1E0,1E0,6.12E2,1E0,1E0,1E0,1E0,1.3E1,1.7E1,5.8E1,9.2E1,2E0,3E0,6E0,6E0,5E0,4E0,3E0,6.09E2,8E0,5E0,1.1E1,6E0,5E1,8E0,4.3E1,4.9E1,2E0,4E0,3E0,3E0,3E0,2E0,2E0,2E0,1E0,2E0,9E0,6E2],"tree_param":{"num_deleted":"0","num_feature":"9","num_nodes":"61","size_leaf_vector":"1"}},{"base_weights":[-6.8516943E-6,-4.5060558E-4,7.0401066E-4,-3.268491E-4,-4.027596E-3,2.3593362E-3,1.9664235E-6,-6.9525526E-3,-2.5871192E-4,-8.597006E-3,-1.4072582E-3,1.1037547E-3,1.5875816E-2,-6.483653E-3,6.316287E-4,-1.1174574E-2,-4.1301423E-4,-2.6921108E-3,-1.4966713E-4,-9.787381E-4,-3.1345994E-3,8.74427E-4,-3.1717916E-3,1.7604232E-3,-6.746326E-3,-1.8694148E-3,3.0386413E-2,-2.7356213E-3,-8.043188E-3,1.3866078E-3,-3.5169013E-3,-2.4942926E-4,-4.779129E-3,-2.7085675E-4,8.500033E-5,3.2523906E-4,-6.751382E-3,9.220367E-3,-2.4966823E-4,-1.1767506E-3,-4.532474E-3,9.691006E-4,1.6948938E-2,-2.471316E-3,-1.0705055E-3,1.14992075E-2,-2.0860434E-4,-6.5612593E-3,4.2134183E-3,-6.3244044E-3,1.8427735E-3,-7.05094E-3,2.9607415E-3,9.498748E-4,-1.4560882E-3,-4.1620308E-3,-2.6343466E-4,6.2208925E-4,3.988095E-3,-2.3740726E-3,-5.4918597E-5,-8.5916073E-4,8.3575846E-4,5.6499248E-5,-2.3227364E-3,5.883577E-4,-2.8546317E-3,1.0047547E-2,8.121133E-5,-2.5474906E-4,-2.7933486E-3,-1.0928661E-4,2.3213313E-3,6.388307E-4,-2.6112134E-3,3.9710393E-3,4.439193E-4,-5.497387E-3,-7.147875E-4,-2.0830752E-3,2.6342557E-3],"categories":[],"categories_nodes":[],"categories_segments":[],"categories_sizes":[],"default_left":[0,0,0,0,0,0,0,0,0,0,0,0,0,0,0,0,0,0,0,0,0,0,0,0,0,0,0,0,0,0,0,0,0,0,0,0,0,0,0,0,0,0,0,0,0,0,0,0,0,0,0,0,0,0,0,0,0,0,0,0,0,0,0,0,0,0,0,0,0,0,0,0,0,0,0,0,0,0,0,0,0],"id":19,"left_children":[1,3,5,7,9,11,13,15,17,19,21,23,25,27,29,31,33,35,37,-1,-1,-1,39,41,43,-1,45,47,-1,49,51,-1,-1,-1,-1,53,55,57,59,61,63,65,67,-1,-1,-1,-1,69,71,73,75,77,79,-1,-1,-1,-1,-1,-1,-1,-1,-1,-1,-1,-1,-1,-1,-1,-1,-1,-1,-1,-1,-1,-1,-1,-1,-1,-1,-1,-1],"loss_changes":[2.6182356E-4,2.2489087E-4,3.7070905E-4,2.2167247E-4,1.9144957E-4,1.5947262E-3,9.22939E-4,1.3343504E-4,1.2988366E-4,2.517819E-5,1.0076108E-4,4.6550762E-4,2.7556582E-3,1.4503791E-3,6.500796E-4,1.3432643E-4,1.2791115E-6,2.5940887E-4,4.4363545E-4,0E0,0E0,0E0,1.909797E-5,9.6913404E-4,3.7822174E-6,0E0,1.2612636E-3,5.061665E-4,0E0,6.272169E-4,7.534277E-4,0E0,0E0,0E0,0E0,2.0663954E-4,3.64285E-4,1.1798722E-4,2.3693798E-4,4.140532E-5,7.722661E-5,8.4038964E-4,1.0945578E-3,0E0,0E0,0E0,0E0,1.8058578E-4,1.1575295E-4,2.1970557E-4,6.6707464E-4,1.0615505E-3,7.527017E-4,0E0,0E0,0E0,0E0,0E0,0E0,0E0,0E0,0E0,0E0,0E0,0E0,0E0,0E0,0E0,0E0,0E0,0E0,0E0,0E0,0E0,0E0,0E0,0E0,0E0,0E0,0E0,0E0],"parents":[2147483647,0,0,1,1,2,2,3,3,4,4,5,5,6,6,7,7,8,8,9,9,10,10,11,11,12,12,13,13,14,14,15,15,16,16,17,17,18,18,22,22,23,23,24,24,26,26,27,27,29,29,30,30,35,35,36,36,37,37,38,38,39,39,40,40,41,41,42,42,47,47,48,48,49,49,50,50,51,51,52,52],"right_children":[2,4,6,8,10,12,14,16,18,20,22,24,26,28,30,32,34,36,38,-1,-1,-1,40,42,44,-1,46,48,-1,50,52,-1,-1,-1,-1,54,56,58,60,62,64,66,68,-1,-1,-1,-1,70,72,74,76,78,80,-1,-1,-1,-1,-1,-1,-1,-1,-1,-1,-1,-1,-1,-1,-1,-1,-1,-1,-1,-1,-1,-1,-1,-1,-1,-1,-1,-1],"split_conditions":[5.461202E-1,5.141217E-1,7.278845E-1,5.8176648E-2,6.06206E-1,7.2460395E-1,7.422964E-1,1.738395E-1,1.0371028E-1,4.946481E-1,5.1259285E-1,7.2008973E-1,3.244967E-1,7.376284E-1,6.732849E-1,6.0815927E-2,8.10879E-2,1.4782E-1,1.0725972E-1,-9.787381E-4,-3.1345994E-3,8.74427E-4,5.3745675E-1,7.184074E-1,3.124896E-1,-1.8694148E-3,7.329599E-1,7.15098E-1,-8.043188E-3,2.6484942E-1,7.1368754E-1,-2.4942926E-4,-4.779129E-3,-2.7085675E-4,8.500033E-5,8.158172E-2,1.7636338E-1,1.687096E-1,1.0945039E-1,5.301556E-1,5.6545633E-1,7.113698E-1,3.0708224E-1,-2.471316E-3,-1.0705055E-3,1.14992075E-2,-2.0860434E-4,6.839578E-1,7.194432E-1,7.527828E-1,2.717542E-1,8.327212E-1,7.7786124E-1,9.498748E-4,-1.4560882E-3,-4.1620308E-3,-2.6343466E-4,6.2208925E-4,3.988095E-3,-2.3740726E-3,-5.4918597E-5,-8.5916073E-4,8.3575846E-4,5.6499248E-5,-2.3227364E-3,5.883577E-4,-2.8546317E-3,1.0047547E-2,8.121133E-5,-2.5474906E-4,-2.7933486E-3,-1.0928661E-4,2.3213313E-3,6.388307E-4,-2.6112134E-3,3.9710393E-3,4.439193E-4,-5.497387E-3,-7.147875E-4,-2.0830752E-3,2.6342557E-3],"split_indices":[1,1,0,2,7,0,0,6,7,6,2,0,6,1,8,0,0,0,8,0,0,0,1,0,6,0,6,1,0,6,8,0,0,0,0,6,0,2,8,0,0,2,6,0,0,0,0,1,2,0,7,0,1,0,0,0,0,0,0,0,0,0,0,0,0,0,0,0,0,0,0,0,0,0,0,0,0,0,0,0,0],"split_type":[0,0,0,0,0,0,0,0,0,0,0,0,0,0,0,0,0,0,0,0,0,0,0,0,0,0,0,0,0,0,0,0,0,0,