{"learner":{"attributes":{"scikit_learn":"{\"_estimator_type\": \"regressor\"}"},"feature_names":[],"feature_types":[],"gradient_booster":{"model":{"gbtree_model_param":{"num_parallel_tree":"1","num_trees":"1000"},"iteration_indptr":[0,1,2,3,4,5,6,7,8,9,10,11,12,13,14,15,16,17,18,19,20,21,22,23,24,25,26,27,28,29,30,31,32,33,34,35,36,37,38,39,40,41,42,43,44,45,46,47,48,49,50,51,52,53,54,55,56,57,58,59,60,61,62,63,64,65,66,67,68,69,70,71,72,73,74,75,76,77,78,79,80,81,82,83,84,85,86,87,88,89,90,91,92,93,94,95,96,97,98,99,100,101,102,103,104,105,106,107,108,109,110,111,112,113,114,115,116,117,118,119,120,121,122,123,124,125,126,127,128,129,130,131,132,133,134,135,136,137,138,139,140,141,142,143,144,145,146,147,148,149,150,151,152,153,154,155,156,157,158,159,160,161,162,163,164,165,166,167,168,169,170,171,172,173,174,175,176,177,178,179,180,181,182,183,184,185,186,187,188,189,190,191,192,193,194,195,196,197,198,199,200,201,202,203,204,205,206,207,208,209,210,211,212,213,214,215,216,217,218,219,220,221,222,223,224,225,226,227,228,229,230,231,232,233,234,235,236,237,238,239,240,241,242,243,244,245,246,247,248,249,250,251,252,253,254,255,256,257,258,259,260,261,262,263,264,265,266,267,268,269,270,271,272,273,274,275,276,277,278,279,280,281,282,283,284,285,286,287,288,289,290,291,292,293,294,295,296,297,298,299,300,301,302,303,304,305,306,307,308,309,310,311,312,313,314,315,316,317,318,319,320,321,322,323,324,325,326,327,328,329,330,331,332,333,334,335,336,337,338,339,340,341,342,343,344,345,346,347,348,349,350,351,352,353,354,355,356,357,358,359,360,361,362,363,364,365,366,367,368,369,370,371,372,373,374,375,376,377,378,379,380,381,382,383,384,385,386,387,388,389,390,391,392,393,394,395,396,397,398,399,400,401,402,403,404,405,406,407,408,409,410,411,412,413,414,415,416,417,418,419,420,421,422,423,424,425,426,427,428,429,430,431,432,433,434,435,436,437,438,439,440,441,442,443,444,445,446,447,448,449,450,451,452,453,454,455,456,457,458,459,460,461,462,463,464,465,466,467,468,469,470,471,472,473,474,475,476,477,478,479,480,481,482,483,484,485,486,487,488,489,490,491,492,493,494,495,496,497,498,499,500,501,502,503,504,505,506,507,508,509,510,511,512,513,514,515,516,517,518,519,520,521,522,523,524,525,526,527,528,529,530,531,532,533,534,535,536,537,538,539,540,541,542,543,544,545,546,547,548,549,550,551,552,553,554,555,556,557,558,559,560,561,562,563,564,565,566,567,568,569,570,571,572,573,574,575,576,577,578,579,580,581,582,583,584,585,586,587,588,589,590,591,592,593,594,595,596,597,598,599,600,601,602,603,604,605,606,607,608,609,610,611,612,613,614,615,616,617,618,619,620,621,622,623,624,625,626,627,628,629,630,631,632,633,634,635,636,637,638,639,640,641,642,643,644,645,646,647,648,649,650,651,652,653,654,655,656,657,658,659,660,661,662,663,664,665,666,667,668,669,670,671,672,673,674,675,676,677,678,679,680,681,682,683,684,685,686,687,688,689,690,691,692,693,694,695,696,697,698,699,700,701,702,703,704,705,706,707,708,709,710,711,712,713,714,715,716,717,718,719,720,721,722,723,724,725,726,727,728,729,730,731,732,733,734,735,736,737,738,739,740,741,742,743,744,745,746,747,748,749,750,751,752,753,754,755,756,757,758,759,760,761,762,763,764,765,766,767,768,769,770,771,772,773,774,775,776,777,778,779,780,781,782,783,784,785,786,787,788,789,790,791,792,793,794,795,796,797,798,799,800,801,802,803,804,805,806,807,808,809,810,811,812,813,814,815,816,817,818,819,820,821,822,823,824,825,826,827,828,829,830,831,832,833,834,835,836,837,838,839,840,841,842,843,844,845,846,847,848,849,850,851,852,853,854,855,856,857,858,859,860,861,862,863,864,865,866,867,868,869,870,871,872,873,874,875,876,877,878,879,880,881,882,883,884,885,886,887,888,889,890,891,892,893,894,895,896,897,898,899,900,901,902,903,904,905,906,907,908,909,910,911,912,913,914,915,916,917,918,919,920,921,922,923,924,925,926,927,928,929,930,931,932,933,934,935,936,937,938,939,940,941,942,943,944,945,946,947,948,949,950,951,952,953,954,955,956,957,958,959,960,961,962,963,964,965,966,967,968,969,970,971,972,973,974,975,976,977,978,979,980,981,982,983,984,985,986,987,988,989,990,991,992,993,994,995,996,997,998,999,1000],"tree_info":[0,0,0,0,0,0,0,0,0,0,0,0,0,0,0,0,0,0,0,0,0,0,0,0,0,0,0,0,0,0,0,0,0,0,0,0,0,0,0,0,0,0,0,0,0,0,0,0,0,0,0,0,0,0,0,0,0,0,0,0,0,0,0,0,0,0,0,0,0,0,0,0,0,0,0,0,0,0,0,0,0,0,0,0,0,0,0,0,0,0,0,0,0,0,0,0,0,0,0,0,0,0,0,0,0,0,0,0,0,0,0,0,0,0,0,0,0,0,0,0,0,0,0,0,0,0,0,0,0,0,0,0,0,0,0,0,0,0,0,0,0,0,0,0,0,0,0,0,0,0,0,0,0,0,0,0,0,0,0,0,0,0,0,0,0,0,0,0,0,0,0,0,0,0,0,0,0,0,0,0,0,0,0,0,0,0,0,0,0,0,0,0,0,0,0,0,0,0,0,0,0,0,0,0,0,0,0,0,0,0,0,0,0,0,0,0,0,0,0,0,0,0,0,0,0,0,0,0,0,0,0,0,0,0,0,0,0,0,0,0,0,0,0,0,0,0,0,0,0,0,0,0,0,0,0,0,0,0,0,0,0,0,0,0,0,0,0,0,0,0,0,0,0,0,0,0,0,0,0,0,0,0,0,0,0,0,0,0,0,0,0,0,0,0,0,0,0,0,0,0,0,0,0,0,0,0,0,0,0,0,0,0,0,0,0,0,0,0,0,0,0,0,0,0,0,0,0,0,0,0,0,0,0,0,0,0,0,0,0,0,0,0,0,0,0,0,0,0,0,0,0,0,0,0,0,0,0,0,0,0,0,0,0,0,0,0,0,0,0,0,0,0,0,0,0,0,0,0,0,0,0,0,0,0,0,0,0,0,0,0,0,0,0,0,0,0,0,0,0,0,0,0,0,0,0,0,0,0,0,0,0,0,0,0,0,0,0,0,0,0,0,0,0,0,0,0,0,0,0,0,0,0,0,0,0,0,0,0,0,0,0,0,0,0,0,0,0,0,0,0,0,0,0,0,0,0,0,0,0,0,0,0,0,0,0,0,0,0,0,0,0,0,0,0,0,0,0,0,0,0,0,0,0,0,0,0,0,0,0,0,0,0,0,0,0,0,0,0,0,0,0,0,0,0,0,0,0,0,0,0,0,0,0,0,0,0,0,0,0,0,0,0,0,0,0,0,0,0,0,0,0,0,0,0,0,0,0,0,0,0,0,0,0,0,0,0,0,0,0,0,0,0,0,0,0,0,0,0,0,0,0,0,0,0,0,0,0,0,0,0,0,0,0,0,0,0,0,0,0,0,0,0,0,0,0,0,0,0,0,0,0,0,0,0,0,0,0,0,0,0,0,0,0,0,0,0,0,0,0,0,0,0,0,0,0,0,0,0,0,0,0,0,0,0,0,0,0,0,0,0,0,0,0,0,0,0,0,0,0,0,0,0,0,0,0,0,0,0,0,0,0,0,0,0,0,0,0,0,0,0,0,0,0,0,0,0,0,0,0,0,0,0,0,0,0,0,0,0,0,0,0,0,0,0,0,0,0,0,0,0,0,0,0,0,0,0,0,0,0,0,0,0,0,0,0,0,0,0,0,0,0,0,0,0,0,0,0,0,0,0,0,0,0,0,0,0,0,0,0,0,0,0,0,0,0,0,0,0,0,0,0,0,0,0,0,0,0,0,0,0,0,0,0,0,0,0,0,0,0,0,0,0,0,0,0,0,0,0,0,0,0,0,0,0,0,0,0,0,0,0,0,0,0,0,0,0,0,0,0,0,0,0,0,0,0,0,0,0,0,0,0,0,0,0,0,0,0,0,0,0,0,0,0,0,0,0,0,0,0,0,0,0,0,0,0,0,0,0,0,0,0,0,0,0,0,0,0,0,0,0,0,0,0,0,0,0,0,0,0,0,0,0,0,0,0,0,0,0,0,0,0,0,0,0,0,0,0,0,0,0,0,0,0,0,0,0,0,0,0,0,0,0,0,0,0,0,0,0,0,0,0,0,0,0,0,0,0,0,0,0,0,0,0,0,0,0,0,0,0,0,0,0,0,0,0,0,0,0,0,0,0,0,0,0,0,0,0,0,0,0,0,0,0,0,0,0,0,0,0,0,0,0,0,0,0,0,0,0,0,0,0,0,0,0,0,0,0,0,0,0,0,0,0,0,0,0,0,0,0,0,0,0,0,0,0,0,0,0,0,0,0,0,0,0,0,0,0,0,0,0,0,0,0,0,0,0,0,0,0,0],"trees":[{"base_weights":[1.3660896E-9,-1.8470792E-1,2.6487443E-1,-3.0634406E-1,-1.20093554E-1,1.7490652E-1,3.167863E-1,-1.03045024E-1,-7.65649E-2,-1.3772993E-1,-2.86931E-3,7.413604E-2,6.3731186E-2,8.327171E-2,1.10449776E-1,-1.7097794E-1,-1.1041914E-1,-3.402268E-2,2.3211388E-2,5.040597E-2,9.05998E-2,-5.791747E-2,-4.6193417E-2,-1.2215528E-1,-2.6716108E-2,2.2889616E-3,-3.6616493E-2,2.6947163E-2,-9.4067175E-3,7.553652E-3,5.6231335E-2,2.8733736E-2,8.797193E-3,-3.6824707E-2,-9.684326E-3,-1.2450079E-2,-2.3781897E-3,6.0763485E-3,1.0086656E-2,7.262987E-3,1.795575E-2],"categories":[],"categories_nodes":[],"categories_segments":[],"categories_sizes":[],"default_left":[0,0,0,0,0,0,0,0,0,0,0,0,0,0,0,0,0,0,0,0,0,0,0,0,0,0,0,0,0,0,0,0,0,0,0,0,0,0,0,0,0],"id":0,"left_children":[1,3,5,7,9,11,13,-1,-1,15,17,19,-1,-1,-1,21,23,25,27,29,31,-1,-1,33,-1,-1,35,37,-1,-1,39,-1,-1,-1,-1,-1,-1,-1,-1,-1,-1],"loss_changes":[4.0607258E1,3.8064785E0,1.537199E0,2.3324394E-1,6.632433E-1,4.6456409E-1,3.3098793E-1,0E0,0E0,2.3446083E-1,3.5727285E-2,9.497941E-3,0E0,0E0,0E0,1.6818523E-2,2.8238416E-2,2.4401564E-3,5.7373596E-3,1.0824315E-3,3.5387129E-3,0E0,0E0,1.2670755E-3,0E0,0E0,2.3331307E-3,3.4649298E-4,0E0,0E0,5.8386475E-5,0E0,0E0,0E0,0E0,0E0,0E0,0E0,0E0,0E0,0E0],"parents":[2147483647,0,0,1,1,2,2,3,3,4,4,5,5,6,6,9,9,10,10,11,11,15,15,16,16,17,17,18,18,19,19,20,20,23,23,26,26,27,27,30,30],"right_children":[2,4,6,8,10,12,14,-1,-1,16,18,20,-1,-1,-1,22,24,26,28,30,32,-1,-1,34,-1,-1,36,38,-1,-1,40,-1,-1,-1,-1,-1,-1,-1,-1,-1,-1],"split_conditions":[5.0449264E-1,2.468149E-1,7.057372E-1,1.6388166E-1,4.0393746E-1,5.9319264E-1,7.9306924E-1,-1.03045024E-1,-7.65649E-2,3.2682455E-1,4.589223E-1,5.3804684E-1,6.3731186E-2,8.327171E-2,1.10449776E-1,2.8374863E-1,3.6249766E-1,3.6767426E-1,2.7022958E-1,1.0350019E-1,5.0024045E-1,-5.791747E-2,-4.6193417E-2,3.938256E-1,-2.6716108E-2,2.2889616E-3,5.071919E-1,4.964461E-1,-9.4067175E-3,7.553652E-3,2.9706264E-1,2.8733736E-2,8.797193E-3,-3.6824707E-2,-9.684326E-3,-1.2450079E-2,-2.3781897E-3,6.0763485E-3,1.0086656E-2,7.262987E-3,1.795575E-2],"split_indices":[2,2,2,2,2,2,2,0,0,2,2,2,0,0,0,2,2,1,6,8,4,0,0,1,0,0,0,1,0,0,3,0,0,0,0,0,0,0,0,0,0],"split_type":[0,0,0,0,0,0,0,0,0,0,0,0,0,0,0,0,0,0,0,0,0,0,0,0,0,0,0,0,0,0,0,0,0,0,0,0,0,0,0,0,0],"sum_hessian":[8.28E2,4.88E2,3.4E2,1.68E2,3.2E2,1.26E2,2.14E2,9.4E1,7.4E1,2.78E2,4.2E1,3.5E1,9.1E1,1.25E2,8.9E1,1.23E2,1.55E2,1.9E1,2.3E1,1.6E1,1.9E1,4.9E1,7.4E1,9.7E1,5.8E1,1E0,1.8E1,2.2E1,1E0,4E0,1.2E1,1.7E1,2E0,9.6E1,1E0,1.5E1,3E0,1.3E1,9E0,2E0,1E1],"tree_param":{"num_deleted":"0","num_feature":"9","num_nodes":"41","size_leaf_vector":"1"}},{"base_weights":[-4.2180676E-5,-1.3003732E-1,1.8637326E-1,-2.2138235E-1,-8.6983845E-2,1.2918915E-1,2.2801872E-1,-7.993785E-2,-2.0010956E-1,-1.02467395E-1,-1.8753551E-2,6.1046064E-2,4.6836443E-2,2.0456828E-1,8.103489E-2,-6.026609E-2,-1.7306155E-2,-1.2284278E-1,-8.118875E-2,-3.945454E-2,1.652949E-2,4.2562775E-2,2.6043281E-2,1.4818991E-2,6.1616477E-2,-4.1812062E-2,-3.2682616E-2,-8.8621356E-2,-2.0995958E-2,-5.0014023E-2,-1.6271634E-2,1.956576E-2,-7.99571E-3,1.6467512E-3,4.377756E-2,-2.677607E-2,-5.99121E-3,-1.6102865E-2,-6.949541E-3,-1.1190951E-3,-9.711501E-3,7.6601673E-3,3.9032237E-3,7.5519257E-3,1.4430075E-2],"categories":[],"categories_nodes":[],"categories_segments":[],"categories_sizes":[],"default_left":[0,0,0,0,0,0,0,0,0,0,0,0,0,0,0,0,0,0,0,0,0,0,0,0,0,0,0,0,0,0,0,0,0,0,0,0,0,0,0,0,0,0,0,0,0],"id":1,"left_children":[1,3,5,7,9,11,13,-1,15,17,19,21,-1,23,-1,-1,-1,25,27,29,31,33,-1,-1,-1,-1,-1,35,-1,37,39,41,-1,-1,43,-1,-1,-1,-1,-1,-1,-1,-1,-1,-1],"loss_changes":[2.0113478E1,1.9038439E0,7.8262043E-1,9.626961E-2,3.5093164E-1,2.584164E-1,1.3823509E-1,0E0,5.903244E-4,1.0795498E-1,4.6666972E-2,1.6782522E-2,0E0,6.394863E-3,0E0,0E0,0E0,1.6297579E-2,5.1212907E-3,8.978169E-3,3.668156E-3,9.756796E-4,0E0,0E0,0E0,0E0,0E0,1.6028881E-3,0E0,1.4113784E-3,2.7060625E-3,5.675731E-4,0E0,0E0,8.801222E-4,0E0,0E0,0E0,0E0,0E0,0E0,0E0,0E0,0E0,0E0],"parents":[2147483647,0,0,1,1,2,2,3,3,4,4,5,5,6,6,8,8,9,9,10,10,11,11,13,13,17,17,18,18,19,19,20,20,21,21,27,27,29,29,30,30,31,31,34,34],"right_children":[2,4,6,8,10,12,14,-1,16,18,20,22,-1,24,-1,-1,-1,26,28,30,32,34,-1,-1,-1,-1,-1,36,-1,38,40,42,-1,-1,44,-1,-1,-1,-1,-1,-1,-1,-1,-1,-1],"split_conditions":[5.0449264E-1,2.308827E-1,7.173779E-1,1.2694794E-1,3.8872945E-1,6.3321084E-1,8.179867E-1,-7.993785E-2,3.6167112E-1,3.2682455E-1,4.589223E-1,5.6197196E-1,4.6836443E-2,6.780034E-1,8.103489E-2,-6.026609E-2,-1.7306155E-2,2.8240752E-1,3.5597995E-1,4.19816E-1,2.7022958E-1,5.6831013E-2,2.6043281E-2,1.4818991E-2,6.1616477E-2,-4.1812062E-2,-3.2682616E-2,4.0950513E-1,-2.0995958E-2,1.5732029E-1,1.8027851E-1,1.1027475E-1,-7.99571E-3,1.6467512E-3,9.936018E-2,-2.677607E-2,-5.99121E-3,-1.6102865E-2,-6.949541E-3,-1.1190951E-3,-9.711501E-3,7.6601673E-3,3.9032237E-3,7.5519257E-3,1.4430075E-2],"split_indices":[2,2,2,2,2,1,2,0,0,2,2,2,0,1,0,0,0,2,2,2,6,8,0,0,0,0,0,0,0,8,7,7,0,0,7,0,0,0,0,0,0,0,0,0,0],"split_type":[0,0,0,0,0,0,0,0,0,0,0,0,0,0,0,0,0,0,0,0,0,0,0,0,0,0,0,0,0,0,0,0,0,0,0,0,0,0,0,0,0,0,0,0,0],"sum_hessian":[8.28E2,4.88E2,3.4E2,1.55E2,3.33E2,1.45E2,1.95E2,4.6E1,1.09E2,2.71E2,6.2E1,4.2E1,1.03E2,1.29E2,6.6E1,1.08E2,1E0,1.36E2,1.35E2,3.9E1,2.3E1,2.6E1,1.6E1,1E0,1.28E2,5.8E1,7.8E1,7.7E1,5.8E1,2.6E1,1.3E1,2.2E1,1E0,1E0,2.5E1,7.6E1,1E0,2.2E1,4E0,8E0,5E0,1E1,1.2E1,6E0,1.9E1],"tree_param":{"num_deleted":"0","num_feature":"9","num_nodes":"45","size_leaf_vector":"1"}},{"base_weights":[-1.0444131E-4,-9.167251E-2,1.312061E-1,-1.6070192E-1,-6.296105E-2,1.0266842E-1,1.7561294E-1,-5.550612E-2,-4.3020107E-2,-7.677069E-2,-2.3849867E-2,4.4822488E-2,1.1817293E-1,1.6656806E-1,7.565437E-2,-9.7200304E-2,-6.5490894E-2,-4.1163545E-2,2.9992065E-3,3.0669076E-2,1.8506542E-2,2.8415548E-2,3.6931183E-2,5.0641254E-2,1.7688217E-2,-2.9350065E-2,-6.2213438E-3,-6.7943834E-2,-4.794224E-2,-4.1668475E-2,-2.008845E-3,-1.1141634E-2,1.4303734E-2,1.917763E-2,3.5349376E-2,-1.8283186E-2,-2.2492185E-2,-4.262498E-3,-1.5108937E-2,-2.095306E-3,-1.2654431E-2,4.2920223E-5,-8.184922E-3,1.4800035E-3,5.3169E-3,1.6708446E-3,8.196445E-3,1.1352353E-2,3.082997E-3],"categories":[],"categories_nodes":[],"categories_segments":[],"categories_sizes":[],"default_left":[0,0,0,0,0,0,0,0,0,0,0,0,0,0,0,0,0,0,0,0,0,0,0,0,0,0,0,0,0,0,0,0,0,0,0,0,0,0,0,0,0,0,0,0,0,0,0,0,0],"id":2,"left_children":[1,3,5,7,9,11,13,-1,-1,15,17,19,21,23,-1,25,27,29,31,33,-1,-1,-1,-1,-1,-1,-1,35,37,39,-1,41,43,45,47,-1,-1,-1,-1,-1,-1,-1,-1,-1,-1,-1,-1,-1,-1],"loss_changes":[9.979802E0,9.590483E-1,4.1410923E-1,3.36349E-2,1.8558764E-1,1.8304634E-1,4.9411297E-2,0E0,0E0,5.2627444E-2,4.289023E-2,9.088784E-3,7.4226856E-3,1.9162655E-2,0E0,2.280414E-3,3.974378E-3,6.9557875E-4,6.0740206E-3,7.7423453E-4,0E0,0E0,0E0,0E0,0E0,0E0,0E0,2.5662184E-3,1.2444071E-3,6.839335E-4,0E0,3.1004762E-3,5.854033E-4,9.5606083E-4,7.356908E-4,0E0,0E0,0E0,0E0,0E0,0E0,0E0,0E0,0E0,0E0,0E0,0E0,0E0,0E0],"parents":[2147483647,0,0,1,1,2,2,3,3,4,4,5,5,6,6,9,9,10,10,11,11,12,12,13,13,15,15,16,16,17,17,18,18,19,19,27,27,28,28,29,29,31,31,32,32,33,33,34,34],"right_children":[2,4,6,8,10,12,14,-1,-1,16,18,20,22,24,-1,26,28,30,32,34,-1,-1,-1,-1,-1,-1,-1,36,38,40,-1,42,44,46,48,-1,-1,-1,-1,-1,-1,-1,-1,-1,-1,-1,-1,-1,-1],"split_conditions":[5.0449264E-1,2.1875922E-1,7.603197E-1,1.39286E-1,3.663332E-1,6.415793E-1,8.8434404E-1,-5.550612E-2,-4.3020107E-2,2.9670358E-1,4.19816E-1,5.6197196E-1,6.7687684E-1,5.690628E-1,7.565437E-2,6.9242936E-1,3.6104926E-1,4.889107E-1,4.774562E-1,3.8384905E-1,1.8506542E-2,2.8415548E-2,3.6931183E-2,5.0641254E-2,1.7688217E-2,-2.9350065E-2,-6.2213438E-3,7.9789236E-2,3.650734E-2,1.7810771E-1,-2.008845E-3,1.8027851E-1,9.3714714E-2,4.0993112E-1,2.6232594E-1,-1.8283186E-2,-2.2492185E-2,-4.262498E-3,-1.5108937E-2,-2.095306E-3,-1.2654431E-2,4.2920223E-5,-8.184922E-3,1.4800035E-3,5.3169E-3,1.6708446E-3,8.196445E-3,1.1352353E-2,3.082997E-3],"split_indices":[2,1,2,2,2,2,2,0,0,2,2,2,2,8,0,3,1,0,2,5,0,0,0,0,0,0,0,6,8,3,0,7,6,4,7,0,0,0,0,0,0,0,0,0,0,0,0,0,0],"split_type":[0,0,0,0,0,0,0,0,0,0,0,0,0,0,0,0,0,0,0,0,0,0,0,0,0,0,0,0,0,0,0,0,0,0,0,0,0,0,0,0,0,0,0,0,0,0,0,0,0],"sum_hessian":[8.28E2,4.88E2,3.4E2,1.42E2,3.46E2,2.09E2,1.31E2,5.5E1,8.7E1,2.55E2,9.1E1,4.5E1,1.64E2,1.2E2,1.1E1,8.8E1,1.67E2,5.5E1,3.6E1,2.6E1,1.9E1,3.2E1,1.32E2,1.17E2,3E0,8.7E1,1E0,1.44E2,2.3E1,5.4E1,1E0,1.6E1,2E1,9E0,1.7E1,7.7E1,6.7E1,2E0,2.1E1,1E0,5.3E1,1E1,6E0,6E0,1.4E1,4E0,5E0,1.5E1,2E0],"tree_param":{"num_deleted":"0","num_feature":"9","num_nodes":"49","size_leaf_vector":"1"}},{"base_weights":[-2.5104178E-5,-6.574635E-2,9.100267E-2,-1.1461252E-1,-4.5609295E-2,4.0319648E-2,1.04543634E-1,-4.2436402E-2,-1.050121E-1,-5.6682322E-2,-2.4559563E-2,2.1359496E-2,1.7182095E-2,8.7188885E-2,1.277803E-1,-3.2899726E-2,-2.497443E-2,-6.715469E-2,-4.8154965E-2,-3.272013E-2,-2.053818E-3,1.2886965E-2,2.5411827E-2,7.016232E-2,9.0578385E-2,1.2086998E-1,5.8721554E-2,-5.581673E-3,-2.0239018E-2,-4.189188E-2,-5.265645E-2,-1.7435275E-2,-3.4030676E-2,-7.116186E-3,4.3966817E-3,-4.517685E-3,1.619503E-2,1.489091E-3,2.7045133E-2,2.1542255E-2,3.1209916E-3,9.098006E-2,5.8142785E-3,1.2354348E-1,1.6582651E-2,-1.6040147E-3,-1.2731767E-2,-1.6417073E-2,-6.4459457E-3,-6.113613E-3,9.168282E-4,-1.0295205E-2,-1.7075167E-3,-5.278914E-3,2.6323972E-3,5.4302216E-3,-1.0010183E-3,6.86498E-4,8.434518E-3,2.8333606E-2,2.1270985E-2,8.971936E-3,3.7252344E-2],"categories":[],"categories_nodes":[],"categories_segments":[],"categories_sizes":[],"default_left":[0,0,0,0,0,0,0,0,0,0,0,0,0,0,0,0,0,0,0,0,0,0,0,0,0,0,0,0,0,0,0,0,0,0,0,0,0,0,0,0,0,0,0,0,0,0,0,0,0,0,0,0,0,0,0,0,0,0,0,0,0,0,0],"id":3,"left_children":[1,3,5,7,9,11,13,-1,15,17,19,21,-1,23,25,-1,-1,27,29,31,33,35,37,39,41,43,-1,-1,-1,45,47,49,51,53,-1,-1,55,-1,57,-1,-1,59,-1,61,-1,-1,-1,-1,-1,-1,-1,-1,-1,-1,-1,-1,-1,-1,-1,-1,-1,-1,-1],"loss_changes":[4.965441E0,4.6907067E-1,2.3461628E-1,2.1222949E-2,7.855588E-2,2.2885427E-2,9.935403E-2,0E0,1.7077923E-3,1.6769707E-2,2.1971956E-2,9.428598E-4,0E0,2.878666E-3,3.0346632E-2,0E0,0E0,2.1353364E-4,1.3746321E-3,1.1694282E-3,2.895737E-3,1.5381374E-3,6.6731405E-4,2.3007393E-3,1.9545555E-3,1.1935115E-2,0E0,0E0,0E0,9.332448E-4,3.3344477E-3,6.0511427E-4,4.5460463E-4,4.484419E-3,0E0,0E0,5.44281E-4,0E0,5.184002E-4,0E0,0E0,2.2782087E-3,0E0,2.3130178E-3,0E0,0E0,0E0,0E0,0E0,0E0,0E0,0E0,0E0,0E0,0E0,0E0,0E0,0E0,0E0,0E0,0E0,0E0,0E0],"parents":[2147483647,0,0,1,1,2,2,3,3,4,4,5,5,6,6,8,8,9,9,10,10,11,11,13,13,14,14,17,17,18,18,19,19,20,20,21,21,22,22,23,23,24,24,25,25,29,29,30,30,31,31,32,32,33,33,36,36,38,38,41,41,43,43],"right_children":[2,4,6,8,10,12,14,-1,16,18,20,22,-1,24,26,-1,-1,28,30,32,34,36,38,40,42,44,-1,-1,-1,46,48,50,52,54,-1,-1,56,-1,58,-1,-1,60,-1,62,-1,-1,-1,-1,-1,-1,-1,-1,-1,-1,-1,-1,-1,-1,-1,-1,-1,-1,-1],"split_conditions":[4.9784085E-1,2.1784727E-1,6.711906E-1,9.940187E-2,3.522517E-1,5.736931E-1,7.7188E-1,-4.2436402E-2,1.8863826E-1,3.000027E-1,4.08524E-1,3.8384905E-1,1.7182095E-2,6.829654E-1,8.993643E-1,-3.2899726E-2,-2.497443E-2,9.0951E-2,7.038013E-2,3.462552E-2,4.964461E-1,5.141217E-1,5.6831013E-2,4.720462E-1,7.858487E-1,3.3684605E-1,5.8721554E-2,-5.581673E-3,-2.0239018E-2,2.6510012E-1,3.6104926E-1,1.5732029E-1,4.889107E-1,4.679118E-1,4.3966817E-3,-4.517685E-3,5.216009E-1,1.489091E-3,2.5106034E-1,2.1542255E-2,3.1209916E-3,4.5678428E-1,5.8142785E-3,7.15098E-1,1.6582651E-2,-1.6040147E-3,-1.2731767E-2,-1.6417073E-2,-6.4459457E-3,-6.113613E-3,9.168282E-4,-1.0295205E-2,-1.7075167E-3,-5.278914E-3,2.6323972E-3,5.4302216E-3,-1.0010183E-3,6.86498E-4,8.434518E-3,2.8333606E-2,2.1270985E-2,8.971936E-3,3.7252344E-2],"split_indices":[2,2,2,2,2,2,2,0,2,2,2,5,0,1,2,0,0,3,7,6,1,1,6,4,6,8,0,0,0,5,1,8,0,5,0,0,3,0,3,0,0,3,0,1,0,0,0,0,0,0,0,0,0,0,0,0,0,0,0,0,0,0,0],"split_type":[0,0,0,0,0,0,0,0,0,0,0,0,0,0,0,0,0,0,0,0,0,0,0,0,0,0,0,0,0,0,0,0,0,0,0,0,0,0,0,0,0,0,0,0,0,0,0,0,0,0,0,0,0,0,0,0,0,0,0,0,0,0,0],"sum_hessian":[8.28E2,4.81E2,3.47E2,1.39E2,3.42E2,7.4E1,2.73E2,3.3E1,1.06E2,2.23E2,1.19E2,3.6E1,3.8E1,1.59E2,1.14E2,8.4E1,2.2E1,9.7E1,1.26E2,8.7E1,3.2E1,1.3E1,2.3E1,3E1,1.29E2,1.06E2,8E0,1E0,9.6E1,5.7E1,6.9E1,8E0,7.9E1,2.5E1,7E0,1E0,1.2E1,2E0,2.1E1,2.9E1,1E0,1.28E2,1E0,1.01E2,5E0,1E0,5.6E1,6.4E1,5E0,7E0,1E0,7.8E1,1E0,1.5E1,1E1,1.1E1,1E0,1E0,2E1,1.06E2,2.2E1,1E0,1E2],"tree_param":{"num_deleted":"0","num_feature":"9","num_nodes":"63","size_leaf_vector":"1"}},{"base_weights":[4.3385062E-5,-4.7440358E-2,6.295589E-2,-8.094527E-2,-3.3254344E-2,3.3269204E-2,7.656789E-2,-3.0079918E-2,-7.4049346E-2,-4.4351317E-2,-2.3742856E-2,1.4540496E-2,4.6669774E-2,7.14859E-2,1.2460047E-1,-7.490555E-2,-9.982713E-3,-5.054595E-2,-3.880095E-2,-2.6401347E-2,-5.1410818E-3,1.1510956E-2,2.3959728E-2,1.5791392E-2,3.775334E-2,6.1147336E-2,7.954366E-2,4.529688E-3,3.872875E-2,-7.881845E-2,-6.082734E-2,-5.4060448E-2,-3.4289725E-2,-3.7015054E-2,-1.7991675E-2,-1.2272201E-2,-2.7680904E-2,-1.1522267E-2,6.7744786E-3,7.963225E-3,1.6113117E-2,3.0758193E-2,9.649932E-3,6.2178574E-3,3.978381E-2,5.909373E-2,4.0284295E-2,8.043106E-2,9.977268E-3,-2.3807496E-2,-5.5872984E-3,-1.0943309E-2,-1.9410985E-2,-5.871439E-3,-1.6497795E-2,3.2507123E-3,-1.1486084E-2,-1.139026E-2,-6.456631E-3,1.6066135E-3,-4.618827E-3,-7.961872E-3,-1.4909531E-2,-4.336146E-3,1.7997206E-3,-1.6959072E-3,4.17912E-3,3.2495065E-3,-1.6512701E-4,9.226829E-4,5.3267796E-3,4.108E-3,1.0453641E-2,-1.5195014E-4,4.9769166E-3,-4.5210067E-3,7.3190425E-3,7.371148E-3,1.4061188E-2,1.8082965E-2,4.60234E-3,9.824646E-3,2.428987E-2],"categories":[],"categories_nodes":[],"categories_segments":[],"categories_sizes":[],"default_left":[0,0,0,0,0,0,0,0,0,0,0,0,0,0,0,0,0,0,0,0,0,0,0,0,0,0,0,0,0,0,0,0,0,0,0,0,0,0,0,0,0,0,0,0,0,0,0,0,0,0,0,0,0,0,0,0,0,0,0,0,0,0,0,0,0,0,0,0,0,0,0,0,0,0,0,0,0,0,0,0,0,0,0],"id":4,"left_children":[1,3,5,7,9,11,13,-1,15,17,19,21,23,25,27,29,-1,31,33,35,37,39,41,-1,43,45,47,-1,-1,49,51,53,55,57,-1,59,61,63,65,67,69,71,73,75,77,79,-1,81,-1,-1,-1,-1,-1,-1,-1,-1,-1,-1,-1,-1,-1,-1,-1,-1,-1,-1,-1,-1,-1,-1,-1,-1,-1,-1,-1,-1,-1,-1,-1,-1,-1,-1,-1],"loss_changes":[2.479476E0,2.2212553E-1,1.4171445E-1,1.1228621E-2,3.420022E-2,2.7932584E-2,5.0653577E-2,0E0,1.242876E-3,3.299296E-3,8.864649E-3,1.1224616E-3,1.5249401E-3,1.3713241E-2,8.880258E-3,9.3466043E-4,0E0,2.0884275E-3,9.939522E-4,2.5348663E-3,1.9029069E-3,5.0845E-4,7.7331625E-4,0E0,1.6735867E-3,7.384002E-3,2.3361444E-3,0E0,0E0,1.0568202E-3,1.8797815E-4,6.91995E-4,3.1205118E-3,3.7813932E-4,0E0,9.0845046E-4,2.32476E-3,9.08545E-4,8.79121E-4,5.9206784E-4,2.880809E-4,1.1091586E-5,3.6082018E-4,1.5286342E-3,1.8671602E-3,4.302174E-3,0E0,3.851056E-4,0E0,0E0,0E0,0E0,0E0,0E0,0E0,0E0,0E0,0E0,0E0,0E0,0E0,0E0,0E0,0E0,0E0,0E0,0E0,0E0,0E0,0E0,0E0,0E0,0E0,0E0,0E0,0E0,0E0,0E0,0E0,0E0,0E0,0E0,0E0],"parents":[2147483647,0,0,1,1,2,2,3,3,4,4,5,5,6,6,8,8,9,9,10,10,11,11,12,12,13,13,14,14,15,15,17,17,18,18,19,19,20,20,21,21,22,22,24,24,25,25,26,26,29,29,30,30,31,31,32,32,33,33,35,35,36,36,37,37,38,38,39,39,40,40,41,41,42,42,43,43,44,44,45,45,47,47],"right_children":[2,4,6,8,10,12,14,-1,16,18,20,22,24,26,28,30,-1,32,34,36,38,40,42,-1,44,46,48,-1,-1,50,52,54,56,58,-1,60,62,64,66,68,70,72,74,76,78,80,-1,82,-1,-1,-1,-1,-1,-1,-1,-1,-1,-1,-1,-1,-1,-1,-1,-1,-1,-1,-1,-1,-1,-1,-1,-1,-1,-1,-1,-1,-1,-1,-1,-1,-1,-1,-1],"split_conditions":[4.8400074E-1,2.1784727E-1,6.864791E-1,9.940187E-2,3.2682455E-1,5.865944E-1,8.601776E-1,-3.0079918E-2,5.797808E-1,2.802886E-1,4.08524E-1,5.461202E-1,1.2156568E-1,7.5120026E-1,3.0864593E-1,1.8431993E-1,-9.982713E-3,5.0024045E-1,5.4741204E-1,4.0647347E-2,4.679118E-1,4.435792E-1,1.1592021E-1,1.5791392E-2,8.167106E-2,5.690628E-1,6.6277754E-1,4.529688E-3,3.872875E-2,2.7299306E-1,3.0864593E-1,4.0647347E-2,5.946556E-2,3.650638E-1,-1.7991675E-2,3.387279E-2,2.2544223E-1,4.964461E-1,4.080144E-1,1.4828755E-1,4.7531047E-1,3.0864593E-1,3.8574898E-1,6.5655404E-1,3.4661904E-1,5.0249887E-1,4.0284295E-2,7.422964E-1,9.977268E-3,-2.3807496E-2,-5.5872984E-3,-1.0943309E-2,-1.9410985E-2,-5.871439E-3,-1.6497795E-2,3.2507123E-3,-1.1486084E-2,-1.139026E-2,-6.456631E-3,1.6066135E-3,-4.618827E-3,-7.961872E-3,-1.4909531E-2,-4.336146E-3,1.7997206E-3,-1.6959072E-3,4.17912E-3,3.2495065E-3,-1.6512701E-4,9.226829E-4,5.3267796E-3,4.108E-3,1.0453641E-2,-1.5195014E-4,4.9769166E-3,-4.5210067E-3,7.3190425E-3,7.371148E-3,1.4061188E-2,1.8082965E-2,4.60234E-3,9.824646E-3,2.428987E-2],"split_indices":[2,2,2,2,2,2,2,0,5,2,2,1,6,1,3,2,0,4,4,6,5,5,6,0,7,8,8,0,0,1,3,7,8,0,0,7,8,1,1,6,1,5,3,0,5,4,0,0,0,0,0,0,0,0,0,0,0,0,0,0,0,0,0,0,0,0,0,0,0,0,0,0,0,0,0,0,0,0,0,0,0,0,0],"split_type":[0,0,0,0,0,0,0,0,0,0,0,0,0,0,0,0,0,0,0,0,0,0,0,0,0,0,0,0,0,0,0,0,0,0,0,0,0,0,0,0,0,0,0,0,0,0,0,0,0,0,0,0,0,0,0,0,0,0,0,0,0,0,0,0,0,0,0,0,0,0,0,0,0,0,0,0,0,0,0,0,0,0,0],"sum_hessian":[8.28E2,4.72E2,3.56E2,1.39E2,3.33E2,1.13E2,2.43E2,3.3E1,1.06E2,1.52E2,1.81E2,4.8E1,6.5E1,2.22E2,2.1E1,1.03E2,3E0,6.8E1,8.4E1,1.58E2,2.3E1,3.8E1,1E1,3.6E1,2.9E1,1.01E2,1.21E2,1E0,2E1,7.7E1,2.6E1,5.4E1,1.4E1,8E1,4E0,1.4E1,1.44E2,1.5E1,8E0,2.3E1,1.5E1,6E0,4E0,2E0,2.7E1,1E2,1E0,1.18E2,3E0,7.6E1,1E0,5E0,2.1E1,2E0,5.2E1,1E0,1.3E1,7.4E1,6E0,2E0,1.2E1,1.39E2,5E0,1.3E1,2E0,3E0,5E0,1.7E1,6E0,2E0,1.3E1,2E0,4E0,2E0,2E0,1E0,1E0,1E1,1.7E1,9.7E1,3E0,2E0,1.16E2],"tree_param":{"num_deleted":"0","num_feature":"9","num_nodes":"83","size_leaf_vector":"1"}},{"base_weights":[6.2782696E-5,-3.289854E-2,4.571593E-2,-5.5620227E-2,-2.1958234E-2,3.3230312E-2,6.069379E-2,-7.948905E-2,-5.2129153E-2,-2.6076093E-2,-7.011979E-3,1.4839069E-2,3.995535E-2,5.7361618E-2,1.0911601E-1,-6.8510864E-3,-2.4443455E-2,-5.6222133E-2,-4.0974665E-2,-3.0453729E-2,-2.0860992E-2,-9.829403E-3,4.3495237E-3,2.0169474E-2,7.5577684E-3,3.860051E-2,3.4241654E-2,5.0828E-2,6.420019E-2,3.467627E-2,8.60155E-3,-1.712509E-2,-8.582768E-3,-4.2982873E-2,-1.1653017E-2,-3.8174037E-2,-2.7932389E-2,-1.9936068E-2,-1.5086318E-2,-6.809242E-3,-8.187179E-3,-6.343623E-3,1.0330459E-2,3.8063653E-2,1.4109943E-2,4.999265E-4,1.34913325E-2,4.0064536E-2,2.4841797E-2,5.2310154E-2,1.7837178E-2,5.0042095E-3,6.536972E-2,-1.3080047E-2,-3.0215087E-3,-2.616115E-4,-4.4867992E-3,-1.2004787E-2,-2.293247E-3,-4.241381E-3,-9.114277E-3,-6.105297E-3,4.2914497E-3,-1.9760022E-3,-5.888008E-3,-5.1290365E-3,-2.3208978E-4,1.6662442E-3,5.8871424E-3,3.4201297E-3,1.2182237E-2,2.6581802E-3,7.0503163E-3,-5.1054126E-3,1.7115973E-3,4.734076E-3,1.8045308E-4,9.738836E-3,1.3151915E-2,7.801017E-3,1.1126876E-3,1.5131236E-4,1.5895553E-2,-2.969104E-3,1.1887694E-2,2.0339247E-2,1.0462468E-2],"categories":[],"categories_nodes":[],"categories_segments":[],"categories_sizes":[],"default_left":[0,0,0,0,0,0,0,0,0,0,0,0,0,0,0,0,0,0,0,0,0,0,0,0,0,0,0,0,0,0,0,0,0,0,0,0,0,0,0,0,0,0,0,0,0,0,0,0,0,0,0,0,0,0,0,0,0,0,0,0,0,0,0,0,0,0,0,0,0,0,0,0,0,0,0,0,0,0,0,0,0,0,0,0,0,0,0],"id":5,"left_children":[1,3,5,7,9,11,13,15,17,19,21,23,25,27,29,-1,-1,31,33,35,37,39,41,43,45,47,-1,49,51,-1,-1,-1,-1,53,55,57,59,61,-1,-1,63,65,67,69,71,73,75,77,79,81,83,-1,85,-1,-1,-1,-1,-1,-1,-1,-1,-1,-1,-1,-1,-1,-1,-1,-1,-1,-1,-1,-1,-1,-1,-1,-1,-1,-1,-1,-1,-1,-1,-1,-1,-1,-1],"loss_changes":[1.2489735E0,1.1859536E-1,6.306189E-2,8.8554025E-3,1.994288E-2,2.3154005E-2,1.907307E-2,1.6767532E-4,4.042387E-3,5.209133E-3,2.3474854E-3,1.9046143E-3,9.665102E-3,3.394246E-3,1.3712794E-3,0E0,0E0,7.2193146E-4,1.9133538E-3,1.6004741E-3,2.263561E-3,1.0398421E-3,1.0248579E-3,2.7158344E-3,9.983311E-4,1.80462E-3,0E0,3.0276328E-3,2.7442873E-3,0E0,0E0,0E0,0E0,3.328696E-4,1.2939522E-4,1.4373511E-3,3.1845272E-3,1.9675791E-3,0E0,0E0,8.4110256E-4,3.461435E-4,3.348858E-4,1.1838041E-5,9.748982E-4,1.1913492E-3,3.7405733E-4,2.135381E-3,2.9631797E-4,2.6659518E-3,3.4136032E-3,0E0,2.5959015E-3,0E0,0E0,0E0,0E0,0E0,0E0,0E0,0E0,0E0,0E0,0E0,0E0,0E0,0E0,0E0,0E0,0E0,0E0,0E0,0E0,0E0,0E0,0E0,0E0,0E0,0E0,0E0,0E0,0E0,0E0,0E0,0E0,0E0,0E0],"parents":[2147483647,0,0,1,1,2,2,3,3,4,4,5,5,6,6,7,7,8,8,9,9,10,10,11,11,12,12,13,13,14,14,17,17,18,18,19,19,20,20,21,21,22,22,23,23,24,24,25,25,27,27,28,28,33,33,34,34,35,35,36,36,37,37,40,40,41,41,42,42,43,43,44,44,45,45,46,46,47,47,48,48,49,49,50,50,52,52],"right_children":[2,4,6,8,10,12,14,16,18,20,22,24,26,28,30,-1,-1,32,34,36,38,40,42,44,46,48,-1,50,52,-1,-1,-1,-1,54,56,58,60,62,-1,-1,64,66,68,70,72,74,76,78,80,82,84,-1,86,-1,-1,-1,-1,-1,-1,-1,-1,-1,-1,-1,-1,-1,-1,-1,-1,-1,-1,-1,-1,-1,-1,-1,-1,-1,-1,-1,-1,-1,-1,-1,-1,-1,-1],"split_conditions":[4.964461E-1,2.308827E-1,7.4253684E-1,8.7841645E-2,3.7499666E-1,6.415793E-1,8.993643E-1,1.7810771E-1,1.8863826E-1,3.2682455E-1,4.774562E-1,1.3022205E-1,6.6277754E-1,8.03637E-1,4.9684954E-1,-6.8510864E-3,-2.4443455E-2,5.70833E-1,1.8253669E-1,3.2596922E-1,6.349266E-1,3.1642136E-1,4.435792E-1,3.3520636E-1,4.4335043E-1,4.720462E-1,3.4241654E-2,4.86135E-1,7.7188E-1,3.467627E-2,8.60155E-3,-1.712509E-2,-8.582768E-3,6.125484E-1,3.4839502E-1,5.893765E-1,3.492344E-1,2.352277E-1,-1.5086318E-2,-6.809242E-3,5.2139527E-1,4.8400074E-1,5.34212E-1,2.3749268E-1,4.528423E-1,9.409108E-2,5.0024045E-1,3.7162855E-1,2.6232594E-1,2.2286527E-1,7.422964E-1,5.0042095E-3,1.9834399E-1,-1.3080047E-2,-3.0215087E-3,-2.616115E-4,-4.4867992E-3,-1.2004787E-2,-2.293247E-3,-4.241381E-3,-9.114277E-3,-6.105297E-3,4.2914497E-3,-1.9760022E-3,-5.888008E-3,-5.1290365E-3,-2.3208978E-4,1.6662442E-3,5.8871424E-3,3.4201297E-3,1.2182237E-2,2.6581802E-3,7.0503163E-3,-5.1054126E-3,1.7115973E-3,4.734076E-3,1.8045308E-4,9.738836E-3,1.3151915E-2,7.801017E-3,1.1126876E-3,1.5131236E-4,1.5895553E-2,-2.969104E-3,1.1887694E-2,2.0339247E-2,1.0462468E-2],"split_indices":[1,1,2,2,2,2,2,3,2,2,2,6,8,1,4,0,0,5,8,5,8,4,5,3,3,5,0,4,2,0,0,0,0,4,3,3,5,7,0,0,4,2,4,5,3,8,5,4,8,3,0,0,8,0,0,0,0,0,0,0,0,0,0,0,0,0,0,0,0,0,0,0,0,0,0,0,0,0,0,0,0,0,0,0,0,0,0],"split_type":[0,0,0,0,0,0,0,0,0,0,0,0,0,0,0,0,0,0,0,0,0,0,0,0,0,0,0,0,0,0,0,0,0,0,0,0,0,0,0,0,0,0,0,0,0,0,0,0,0,0,0,0,0,0,0,0,0,0,0,0,0,0,0,0,0,0,0,0,0,0,0,0,0,0,0,0,0,0,0,0,0,0,0,0,0,0,0],"sum_hessian":[8.28E2,4.81E2,3.47E2,1.55E2,3.26E2,1.91E2,1.56E2,1.7E1,1.38E2,2.55E2,7.1E1,5.2E1,1.39E2,1.48E2,8E0,1E0,1.6E1,9.8E1,4E1,1.36E2,1.19E2,5.7E1,1.4E1,2.9E1,2.3E1,1.38E2,1E0,8E1,6.8E1,7E0,1E0,9.4E1,4E0,3.7E1,3E0,3E1,1.06E2,1.17E2,2E0,5E0,5.2E1,5E0,9E0,6E0,2.3E1,1.1E1,1.2E1,1.23E2,1.5E1,7.6E1,4E0,2E0,6.6E1,3.6E1,1E0,1E0,2E0,2.8E1,2E0,1.7E1,8.9E1,1.16E2,1E0,4.7E1,5E0,1E0,4E0,7E0,2E0,1E0,5E0,1.6E1,7E0,2E0,9E0,1E1,2E0,4.4E1,7.9E1,1.4E1,1E0,1E0,7.5E1,2E0,2E0,6E1,6E0],"tree_param":{"num_deleted":"0","num_feature":"9","num_nodes":"87","size_leaf_vector":"1"}},{"base_weights":[1.1878089E-4,-2.348806E-2,3.2334045E-2,-3.7462693E-2,-1.4331037E-2,1.8453935E-2,3.9374042E-2,-4.934928E-2,-3.3293936E-2,-1.6988887E-2,-5.5334773E-3,5.962093E-3,2.2928672E-2,3.5566367E-2,5.9789646E-2,-6.350945E-2,-3.9992113E-2,-3.764775E-2,-2.872555E-2,-1.6196325E-2,-3.2250833E-2,-8.943363E-3,-8.02513E-4,-8.693465E-4,7.5123883E-3,3.1569406E-2,1.8370172E-2,3.7486624E-2,2.3083255E-2,7.9934305E-4,6.139143E-2,-4.76974E-3,-1.9647421E-2,-4.351751E-2,-1.805002E-2,-6.547317E-4,-3.813011E-2,-3.2052025E-2,-1.7409325E-2,-1.9180775E-2,-1.3307086E-2,3.1165082E-3,-4.1482233E-2,-3.9316057E-3,-1.2865183E-2,-4.092089E-3,6.1858473E-3,-9.002149E-3,3.8925323E-3,2.5211042E-3,9.481292E-3,4.3708242E-2,1.5441494E-2,1.1268314E-2,2.0286644E-2,3.235609E-2,4.6353336E-2,9.125166E-3,2.7109684E-2,6.394915E-2,1.3645311E-2,-1.1562333E-3,-1.3484965E-2,-7.488062E-3,2.475136E-3,-1.1557093E-2,-1.7054916E-3,-8.173494E-3,-1.375695E-2,-2.76161E-3,-7.1617058E-3,-5.964452E-3,3.2412263E-3,-4.1406774E-3,2.7854652E-3,-1.9762786E-3,3.3787072E-3,-2.843222E-3,-1.34101305E-2,7.3478126E-4,-2.6384713E-3,-6.5788985E-3,-2.672754E-3,-2.14538E-3,1.42432E-3,-1.5960798E-3,2.4166335E-3,-3.1000192E-3,-5.5157393E-4,-5.0820963E-4,3.4548163E-3,4.0131886E-3,2.6741624E-4,1.06355995E-2,2.5132792E-2,5.6543606E-3,-9.993494E-4,-2.4641633E-3,4.4692233E-3,7.0368415E-3,4.0500253E-3,7.0464523E-3,1.0790026E-2,9.410569E-3,1.5759725E-2,4.065469E-3,-8.3080534E-4,1.1297089E-2,5.9031476E-3,1.692637E-2,2.7994692E-2,7.3113176E-3,-1.1709273E-3],"categories":[],"categories_nodes":[],"categories_segments":[],"categories_sizes":[],"default_left":[0,0,0,0,0,0,0,0,0,0,0,0,0,0,0,0,0,0,0,0,0,0,0,0,0,0,0,0,0,0,0,0,0,0,0,0,0,0,0,0,0,0,0,0,0,0,0,0,0,0,0,0,0,0,0,0,0,0,0,0,0,0,0,0,0,0,0,0,0,0,0,0,0,0,0,0,0,0,0,0,0,0,0,0,0,0,0,0,0,0,0,0,0,0,0,0,0,0,0,0,0,0,0,0,0,0,0,0,0,0,0,0,0],"id":6,"left_children":[1,3,5,7,9,11,13,15,17,19,21,23,25,27,29,31,33,35,37,39,41,43,45,47,49,51,53,55,57,-1,59,-1,-1,61,63,-1,65,67,69,71,73,75,77,79,81,83,85,87,-1,89,91,93,95,97,99,101,103,105,107,109,111,-1,-1,-1,-1,-1,-1,-1,-1,-1,-1,-1,-1,-1,-1,-1,-1,-1,-1,-1,-1,-1,-1,-1,-1,-1,-1,-1,-1,-1,-1,-1,-1,-1,-1,-1,-1,-1,-1,-1,-1,-1,-1,-1,-1,-1,-1,-1,-1,-1,-1,-1,-1],"loss_changes":[6.312145E-1,6.075886E-2,3.357169E-2,7.722378E-3,6.7103356E-3,6.571021E-3,1.5908241E-2,3.6875755E-3,1.7627925E-3,2.1750703E-3,1.1059339E-3,3.5602564E-4,2.8862767E-3,3.880918E-3,3.0390173E-3,5.628839E-4,1.6125031E-3,1.114279E-3,2.2275932E-3,1.5900396E-3,3.394181E-3,7.3562795E-4,7.149753E-4,9.049633E-4,2.4143537E-4,5.0025284E-3,5.880352E-4,6.2336475E-3,1.3824571E-3,0E0,3.2795072E-3,0E0,0E0,1.3038889E-3,1.2963801E-3,0E0,6.6200644E-4,2.466727E-3,7.876721E-4,2.3789667E-3,1.3810843E-3,3.113363E-4,4.0034018E-4,6.111511E-4,5.9352466E-4,6.0184667E-4,2.5797513E-4,2.868363E-5,0E0,3.6074306E-4,6.2393525E-4,2.3229178E-3,9.580392E-4,1.1829069E-3,6.727986E-4,2.7093142E-3,3.9076656E-3,4.5872782E-4,9.83661E-4,1.8091947E-3,6.5978157E-4,0E0,0E0,0E0,0E0,0E0,0E0,0E0,0E0,0E0,0E0,0E0,0E0,0E0,0E0,0E0,0E0,0E0,0E0,0E0,0E0,0E0,0E0,0E0,0E0,0E0,0E0,0E0,0E0,0E0,0E0,0E0,0E0,0E0,0E0,0E0,0E0,0E0,0E0,0E0,0E0,0E0,0E0,0E0,0E0,0E0,0E0,0E0,0E0,0E0,0E0,0E0,0E0],"parents":[2147483647,0,0,1,1,2,2,3,3,4,4,5,5,6,6,7,7,8,8,9,9,10,10,11,11,12,12,13,13,14,14,15,15,16,16,17,17,18,18,19,19,20,20,21,21,22,22,23,23,24,24,25,25,26,26,27,27,28,28,30,30,33,33,34,34,36,36,37,37,38,38,39,39,40,40,41,41,42,42,43,43,44,44,45,45,46,46,47,47,49,49,50,50,51,51,52,52,53,53,54,54,55,55,56,56,57,57,58,58,59,59,60,60],"right_children":[2,4,6,8,10,12,14,16,18,20,22,24,26,28,30,32,34,36,38,40,42,44,46,48,50,52,54,56,58,-1,60,-1,-1,62,64,-1,66,68,70,72,74,76,78,80,82,84,86,88,-1,90,92,94,96,98,100,102,104,106,108,110,112,-1,-1,-1,-1,-1,-1,-1,-1,-1,-1,-1,-1,-1,-1,-1,-1,-1,-1,-1,-1,-1,-1,-1,-1,-1,-1,-1,-1,-1,-1,-1,-1,-1,-1,-1,-1,-1,-1,-1,-1,-1,-1,-1,-1,-1,-1,-1,-1,-1,-1,-1,-1],"split_conditions":[4.9403214E-1,2.656975E-1,6.9342595E-1,1.2694794E-1,3.7499666E-1,5.461202E-1,8.48215E-1,3.4387615E-1,1.8863826E-1,4.505081E-1,4.08524E-1,3.6802772E-1,3.6866218E-1,4.743554E-1,3.0864593E-1,4.8927363E-2,1.3323297E-1,2.2286527E-1,1.328566E-1,3.439787E-1,2.662876E-1,7.452013E-2,4.679118E-1,1.3473843E-1,4.9051848E-1,1.19683854E-1,6.3385457E-1,4.1197222E-1,5.6078285E-2,7.9934305E-4,4.9684954E-1,-4.76974E-3,-1.9647421E-2,3.575461E-2,4.053117E-1,-6.547317E-4,5.2993476E-1,2.7161083E-1,1.5769665E-1,3.3684605E-1,3.3684605E-1,2.9199496E-1,2.4177863E-1,4.2332143E-1,8.731652E-2,4.9848455E-1,1.7810771E-1,5.6545633E-1,3.8925323E-3,1.5995483E-1,1.45653E-1,6.840919E-1,4.9684954E-1,3.8574898E-1,6.798541E-1,7.5120026E-1,3.7589392E-1,7.668374E-1,9.145653E-2,9.339109E-1,7.527828E-1,-1.1562333E-3,-1.3484965E-2,-7.488062E-3,2.475136E-3,-1.1557093E-2,-1.7054916E-3,-8.173494E-3,-1.375695E-2,-2.76161E-3,-7.1617058E-3,-5.964452E-3,3.2412263E-3,-4.1406774E-3,2.7854652E-3,-1.9762786E-3,3.3787072E-3,-2.843222E-3,-1.34101305E-2,7.3478126E-4,-2.6384713E-3,-6.5788985E-3,-2.672754E-3,-2.14538E-3,1.42432E-3,-1.5960798E-3,2.4166335E-3,-3.1000192E-3,-5.5157393E-4,-5.0820963E-4,3.4548163E-3,4.0131886E-3,2.6741624E-4,1.06355995E-2,2.5132792E-2,5.6543606E-3,-9.993494E-4,-2.4641633E-3,4.4692233E-3,7.0368415E-3,4.0500253E-3,7.0464523E-3,1.0790026E-2,9.410569E-3,1.5759725E-2,4.065469E-3,-8.3080534E-4,1.1297089E-2,5.9031476E-3,1.692637E-2,2.7994692E-2,7.3113176E-3,-1.1709273E-3],"split_indices":[2,1,2,1,2,1,2,4,2,8,2,5,3,5,3,7,8,4,8,0,1,6,5,7,1,7,2,5,7,0,4,0,0,6,3,0,5,0,7,8,7,0,3,5,6,1,4,0,0,6,7,2,4,3,2,1,4,1,7,1,0,0,0,0,0,0,0,0,0,0,0,0,0,0,0,0,0,0,0,0,0,0,0,0,0,0,0,0,0,0,0,0,0,0,0,0,0,0,0,0,0,0,0,0,0,0,0,0,0,0,0,0,0],"split_type":[0,0,0,0,0,0,0,0,0,0,0,0,0,0,0,0,0,0,0,0,0,0,0,0,0,0,0,0,0,0,0,0,0,0,0,0,0,0,0,0,0,0,0,0,0,0,0,0,0,0,0,0,0,0,0,0,0,0,0,0,0,0,0,0,0,0,0,0,0,0,0,0,0,0,0,0,0,0,0,0,0,0,0,0,0,0,0,0,0,0,0,0,0,0,0,0,0,0,0,0,0,0,0,0,0,0,0,0,0,0,0,0,0],"sum_hessian":[8.28E2,4.78E2,3.5E2,1.88E2,2.9E2,1.19E2,2.31E2,4.6E1,1.42E2,2.22E2,6.8E1,3.2E1,8.7E1,1.97E2,3.4E1,1.6E1,3E1,6.9E1,7.3E1,2.13E2,9E0,3.9E1,2.9E1,6E0,2.6E1,2.8E1,5.9E1,1.69E2,2.8E1,1E0,3.3E1,1E0,1.5E1,2.5E1,5E0,1E0,6.8E1,5.5E1,1.8E1,1.02E2,1.11E2,2E0,7E0,1.8E1,2.1E1,2E1,9E0,4E0,2E0,8E0,1.8E1,1.5E1,1.3E1,1.4E1,4.5E1,1.1E2,5.9E1,7E0,2.1E1,3.1E1,2E0,1E0,2.4E1,4E0,1E0,6.7E1,1E0,4.3E1,1.2E1,9E0,9E0,1E2,2E0,1.09E2,2E0,1E0,1E0,1E0,6E0,8E0,1E1,5E0,1.6E1,1.5E1,5E0,1E0,8E0,3E0,1E0,6E0,2E0,1.2E1,6E0,1.4E1,1E0,1.1E1,2E0,2E0,1.2E1,2.9E1,1.6E1,3.4E1,7.6E1,1.9E1,4E1,5E0,2E0,7E0,1.4E1,2.7E1,4E0,1E0,1E0],"tree_param":{"num_deleted":"0","num_feature":"9","num_nodes":"113","size_leaf_vector":"1"}},{"base_weights":[1.5125022E-4,-1.6691804E-2,2.313607E-2,-2.6114851E-2,-9.606654E-3,1.8049613E-2,3.341741E-2,-4.8526183E-2,-2.47167E-2,-1.1193136E-2,-2.7501993E-3,7.584277E-3,2.1170544E-2,3.0237613E-2,5.8190867E-2,-5.0667714E-2,-4.066631E-3,-2.8144082E-2,-2.0573607E-2,-2.491607E-2,-1.0633059E-2,-5.8667753E-3,9.7503664E-4,1.5129924E-2,5.4035652E-3,2.0302555E-2,2.6741447E-2,3.4635853E-2,2.2920314E-2,1.8524911E-2,2.8565526E-3,-5.3102616E-2,-4.313038E-3,-2.861456E-2,-9.228509E-3,-1.6573371E-2,-2.6335822E-2,-1.4953638E-2,-1.4197963E-2,-1.0101284E-2,-2.3196544E-2,-7.025381E-3,6.516268E-3,6.379886E-3,-3.0535222E-3,2.1486618E-2,1.9332289E-3,2.5202313E-3,1.0004336E-2,2.073129E-2,1.0648012E-3,4.6255984E-3,3.5543963E-2,2.5645474E-2,1.16352495E-2,-4.481029E-3,-1.6801877E-2,-8.781695E-3,-3.9964076E-3,2.1038644E-3,-5.09398E-3,-5.6503583E-3,1.7356635E-3,-1.0347536E-2,-5.166908E-3,8.763448E-4,-5.525889E-3,2.5495917E-3,-3.096615E-3,7.947087E-4,-9.675972E-3,-2.672447E-3,3.1470807E-4,2.9304163E-3,1.9043684E-6,-2.0097839E-3,2.5073192E-3,-1.4976984E-3,3.6134631E-3,1.3117702E-3,6.992049E-3,-2.2338332E-4,1.8966884E-3,1.1576549E-3,-2.0432533E-3,1.2522212E-3,4.416903E-3,5.483472E-3,7.4959486E-3,-2.14054E-3,2.6729407E-3,-3.5662027E-3,5.647722E-3,4.229465E-3,1.1162104E-2,8.978738E-3,5.0259E-3,-2.5299313E-3,5.311943E-3],"categories":[],"categories_nodes":[],"categories_segments":[],"categories_sizes":[],"default_left":[0,0,0,0,0,0,0,0,0,0,0,0,0,0,0,0,0,0,0,0,0,0,0,0,0,0,0,0,0,0,0,0,0,0,0,0,0,0,0,0,0,0,0,0,0,0,0,0,0,0,0,0,0,0,0,0,0,0,0,0,0,0,0,0,0,0,0,0,0,0,0,0,0,0,0,0,0,0,0,0,0,0,0,0,0,0,0,0,0,0,0,0,0,0,0,0,0,0,0],"id":7,"left_children":[1,3,5,7,9,11,13,15,17,19,21,23,25,27,29,31,-1,33,35,37,39,41,43,45,47,49,-1,51,53,-1,-1,55,-1,57,59,61,63,65,-1,67,69,71,73,75,77,79,81,83,85,87,89,91,93,95,97,-1,-1,-1,-1,-1,-1,-1,-1,-1,-1,-1,-1,-1,-1,-1,-1,-1,-1,-1,-1,-1,-1,-1,-1,-1,-1,-1,-1,-1,-1,-1,-1,-1,-1,-1,-1,-1,-1,-1,-1,-1,-1,-1,-1],"loss_changes":[3.2132077E-1,3.1728923E-2,1.7752573E-2,5.2241534E-3,2.9605683E-3,7.5802356E-3,7.2995275E-3,1.3697892E-4,2.189979E-3,1.4490206E-3,6.210494E-4,8.397179E-4,8.92736E-3,2.5531799E-3,1.4904886E-3,1.2020394E-4,0E0,6.614551E-4,1.6841479E-3,1.078398E-3,1.2087692E-3,4.6184415E-4,5.6382496E-4,9.6510956E-4,5.7173695E-4,1.4707968E-3,0E0,1.5525147E-3,9.932593E-4,0E0,0E0,1.6082451E-4,0E0,6.260425E-4,6.2265387E-4,2.990717E-3,2.081601E-3,4.8748334E-4,0E0,9.4592385E-4,1.9580438E-3,4.1980692E-4,6.3444604E-5,3.405449E-4,4.992249E-4,1.4729891E-4,6.347373E-5,3.8851367E-4,4.062343E-4,1.390852E-3,3.8521504E-4,9.272462E-4,1.6510189E-3,7.556416E-4,1.3677158E-3,0E0,0E0,0E0,0E0,0E0,0E0,0E0,0E0,0E0,0E0,0E0,0E0,0E0,0E0,0E0,0E0,0E0,0E0,0E0,0E0,0E0,0E0,0E0,0E0,0E0,0E0,0E0,0E0,0E0,0E0,0E0,0E0,0E0,0E0,0E0,0E0,0E0,0E0,0E0,0E0,0E0,0E0,0E0,0E0],"parents":[2147483647,0,0,1,1,2,2,3,3,4,4,5,5,6,6,7,7,8,8,9,9,10,10,11,11,12,12,13,13,14,14,15,15,17,17,18,18,19,19,20,20,21,21,22,22,23,23,24,24,25,25,27,27,28,28,31,31,33,33,34,34,35,35,36,36,37,37,39,39,40,40,41,41,42,42,43,43,44,44,45,45,46,46,47,47,48,48,49,49,50,50,51,51,52,52,53,53,54,54],"right_children":[2,4,6,8,10,12,14,16,18,20,22,24,26,28,30,32,-1,34,36,38,40,42,44,46,48,50,-1,52,54,-1,-1,56,-1,58,60,62,64,66,-1,68,70,72,74,76,78,80,82,84,86,88,90,92,94,96,98,-1,-1,-1,-1,-1,-1,-1,-1,-1,-1,-1,-1,-1,-1,-1,-1,-1,-1,-1,-1,-1,-1,-1,-1,-1,-1,-1,-1,-1,-1,-1,-1,-1,-1,-1,-1,-1,-1,-1,-1,-1,-1,-1,-1],"split_conditions":[4.9403214E-1,2.79323E-1,7.7188E-1,7.756887E-2,3.8872945E-1,6.415793E-1,8.7989163E-1,5.0871146E-1,1.8431993E-1,2.4177863E-1,4.0830365E-1,3.3520636E-1,6.6277754E-1,1.06134735E-1,4.7944015E-1,1.6258939E-1,-4.066631E-3,5.434128E-1,2.5958222E-1,4.5339918E-1,4.505081E-1,5.186891E-1,1.1027475E-1,1.45653E-1,4.7118515E-1,7.6917094E-1,2.6741447E-2,2.2205494E-2,2.7022958E-1,1.8524911E-2,2.8565526E-3,3.575461E-2,-4.313038E-3,2.1578579E-1,9.5752135E-2,2.598235E-1,3.9961344E-1,2.8173697E-1,-1.4197963E-2,2.5106034E-1,2.662876E-1,5.1807094E-1,4.5293707E-1,2.2205494E-2,5.70833E-1,2.3749268E-1,5.3727746E-1,5.9091276E-1,4.0153456E-1,7.250758E-1,7.038013E-2,8.044862E-1,2.5592774E-2,4.3147746E-1,3.2457295E-1,-4.481029E-3,-1.6801877E-2,-8.781695E-3,-3.9964076E-3,2.1038644E-3,-5.09398E-3,-5.6503583E-3,1.7356635E-3,-1.0347536E-2,-5.166908E-3,8.763448E-4,-5.525889E-3,2.5495917E-3,-3.096615E-3,7.947087E-4,-9.675972E-3,-2.672447E-3,3.1470807E-4,2.9304163E-3,1.9043684E-6,-2.0097839E-3,2.5073192E-3,-1.4976984E-3,3.6134631E-3,1.3117702E-3,6.992049E-3,-2.2338332E-4,1.8966884E-3,1.1576549E-3,-2.0432533E-3,1.2522212E-3,4.416903E-3,5.483472E-3,7.4959486E-3,-2.14054E-3,2.6729407E-3,-3.5662027E-3,5.647722E-3,4.229465E-3,1.1162104E-2,8.978738E-3,5.0259E-3,-2.5299313E-3,5.311943E-3],"split_indices":[2,2,2,2,2,2,1,3,2,3,4,3,8,7,3,6,0,3,0,4,8,3,7,6,3,2,0,8,8,0,0,7,0,0,0,1,3,2,0,3,1,0,0,8,4,5,0,1,4,2,8,0,6,3,3,0,0,0,0,0,0,0,0,0,0,0,0,0,0,0,0,0,0,0,0,0,0,0,0,0,0,0,0,0,0,0,0,0,0,0,0,0,0,0,0,0,0,0,0],"split_type":[0,0,0,0,0,0,0,0,0,0,0,0,0,0,0,0,0,0,0,0,0,0,0,0,0,0,0,0,0,0,0,0,0,0,0,0,0,0,0,0,0,0,0,0,0,0,0,0,0,0,0,0,0,0,0,0,0,0,0,0,0,0,0,0,0,0,0,0,0,0,0,0,0,0,0,0,0,0,0,0,0,0,0,0,0,0,0,0,0,0,0,0,0,0,0,0,0,0,0],"sum_hessian":[8.28E2,4.78E2,3.5E2,2.04E2,2.74E2,2.36E2,1.14E2,1E1,1.94E2,2.22E2,5.2E1,5.5E1,1.81E2,1.03E2,1.1E1,9E0,1E0,1.03E2,9.1E1,7E0,2.15E2,2.8E1,2.4E1,1.1E1,4.4E1,1.8E2,1E0,6.2E1,4.1E1,1E1,1E0,8E0,1E0,1E2,3E0,5.6E1,3.5E1,6E0,1E0,2.08E2,7E0,2.6E1,2E0,1E1,1.4E1,7E0,4E0,2.8E1,1.6E1,1.76E2,4E0,2E0,6E1,3.2E1,9E0,1E0,7E0,9.5E1,5E0,1E0,2E0,5.1E1,5E0,1.7E1,1.8E1,1E0,5E0,2E0,2.06E2,2E0,5E0,2.1E1,5E0,1E0,1E0,1E0,9E0,1.3E1,1E0,1E0,6E0,3E0,1E0,2.5E1,3E0,8E0,8E0,1.15E2,6.1E1,2E0,2E0,1E0,1E0,5E0,5.5E1,2E1,1.2E1,2E0,7E0],"tree_param":{"num_deleted":"0","num_feature":"9","num_nodes":"99","size_leaf_vector":"1"}},{"base_weights":[1.3085743E-4,-1.179742E-2,1.6651832E-2,-1.8655593E-2,-6.697697E-3,1.5270994E-2,3.6419183E-2,-3.6664926E-2,-1.7544013E-2,-1.0412891E-2,-6.3689523E-3,7.344655E-3,1.756034E-2,-6.673694E-4,3.8365293E-2,-3.977967E-2,-4.529712E-3,-2.521012E-2,-1.6268348E-2,-1.0487605E-2,-4.252628E-3,7.1448595E-3,6.32756E-3,1.7121172E-2,4.0618256E-2,3.0337155E-2,1.6013835E-2,-1.25614805E-2,-3.4566366E-3,-2.6249828E-2,1.1738688E-4,-1.773217E-2,-1.0115554E-2,-8.1077805E-3,-2.4509003E-2,-6.3632554E-3,4.4223873E-4,3.0299865E-3,9.7269965E-3,1.4314638E-2,2.0620316E-2,2.273023E-2,1.0938168E-3,3.216079E-2,3.5143436E-3,-3.3593478E-3,-8.575094E-3,-5.4180045E-3,3.979044E-3,-4.945264E-3,-1.6808917E-3,3.242866E-3,-2.7692649E-3,-7.5767154E-4,-9.255443E-3,-2.6814446E-3,-9.132889E-4,-5.1333257E-3,5.1324104E-4,1.3038914E-3,-4.1327477E-3,1.2748898E-3,4.0867613E-3,4.7467984E-3,1.4616303E-3,1.0989605E-2,5.7487013E-3,1.00168595E-2,2.4280697E-3],"categories":[],"categories_nodes":[],"categories_segments":[],"categories_sizes":[],"default_left":[0,0,0,0,0,0,0,0,0,0,0,0,0,0,0,0,0,0,0,0,0,0,0,0,0,0,0,0,0,0,0,0,0,0,0,0,0,0,0,0,0,0,0,0,0,0,0,0,0,0,0,0,0,0,0,0,0,0,0,0,0,0,0,0,0,0,0,0,0],"id":8,"left_children":[1,3,5,7,9,11,13,15,17,-1,19,21,23,-1,25,27,-1,29,31,33,35,-1,37,39,41,43,-1,-1,-1,45,-1,47,49,51,53,55,57,59,61,63,65,-1,-1,67,-1,-1,-1,-1,-1,-1,-1,-1,-1,-1,-1,-1,-1,-1,-1,-1,-1,-1,-1,-1,-1,-1,-1,-1,-1],"loss_changes":[1.6356479E-1,1.6732894E-2,8.942671E-3,3.4606084E-3,2.3389757E-3,5.8048144E-3,1.7398559E-3,1.3826136E-4,1.4968514E-3,0E0,2.3611272E-3,1.1057858E-3,1.8665195E-3,0E0,9.118691E-4,4.9564056E-5,0E0,7.023383E-4,1.3517477E-3,2.904554E-3,1.826091E-3,0E0,7.776397E-4,2.1599457E-3,4.9219164E-3,1.6662851E-4,0E0,0E0,0E0,5.581416E-4,0E0,1.6215406E-3,9.1350824E-4,1.8207161E-3,1.7346637E-3,1.0581273E-3,1.3207903E-3,9.005021E-4,6.889147E-4,1.9449256E-3,1.8426217E-3,0E0,0E0,1.4377385E-4,0E0,0E0,0E0,0E0,0E0,0E0,0E0,0E0,0E0,0E0,0E0,0E0,0E0,0E0,0E0,0E0,0E0,0E0,0E0,0E0,0E0,0E0,0E0,0E0,0E0],"parents":[2147483647,0,0,1,1,2,2,3,3,4,4,5,5,6,6,7,7,8,8,10,10,11,11,12,12,14,14,15,15,17,17,18,18,19,19,20,20,22,22,23,23,24,24,25,25,29,29,31,31,32,32,33,33,34,34,35,35,36,36,37,37,38,38,39,39,40,40,43,43],"right_children":[2,4,6,8,10,12,14,16,18,-1,20,22,24,-1,26,28,-1,30,32,34,36,-1,38,40,42,44,-1,-1,-1,46,-1,48,50,52,54,56,58,60,62,64,66,-1,-1,68,-1,-1,-1,-1,-1,-1,-1,-1,-1,-1,-1,-1,-1,-1,-1,-1,-1,-1,-1,-1,-1,-1,-1,-1,-1],"split_conditions":[4.964461E-1,2.9199496E-1,8.601776E-1,7.756887E-2,9.0951E-2,6.711906E-1,3.0864593E-1,1.298457E-1,3.144918E-1,-1.0412891E-2,3.6653545E-1,2.5867048E-1,6.96274E-1,-6.673694E-4,9.453638E-1,5.0871146E-1,-4.529712E-3,6.0121924E-1,1.3699661E-1,3.5827285E-1,3.6357054E-1,7.1448595E-3,3.865987E-1,7.603197E-1,7.508482E-1,4.5539486E-1,1.6013835E-2,-1.25614805E-2,-3.4566366E-3,2.939286E-1,1.1738688E-4,2.1678585E-1,1.62316E-1,2.9939717E-1,2.9670358E-1,3.9402083E-1,3.5031542E-1,6.6786474E-1,5.461202E-1,1.4414753E-1,3.109029E-1,2.273023E-2,1.0938168E-3,4.7118515E-1,3.5143436E-3,-3.3593478E-3,-8.575094E-3,-5.4180045E-3,3.979044E-3,-4.945264E-3,-1.6808917E-3,3.242866E-3,-2.7692649E-3,-7.5767154E-4,-9.255443E-3,-2.6814446E-3,-9.132889E-4,-5.1333257E-3,5.1324104E-4,1.3038914E-3,-4.1327477E-3,1.2748898E-3,4.0867613E-3,4.7467984E-3,1.4616303E-3,1.0989605E-2,5.7487013E-3,1.00168595E-2,2.4280697E-3],"split_indices":[1,0,2,2,4,2,3,6,4,0,5,3,8,0,2,3,0,3,8,5,1,0,5,2,0,4,0,0,0,3,0,7,0,0,1,4,0,2,1,8,3,0,0,3,0,0,0,0,0,0,0,0,0,0,0,0,0,0,0,0,0,0,0,0,0,0,0,0,0],"split_type":[0,0,0,0,0,0,0,0,0,0,0,0,0,0,0,0,0,0,0,0,0,0,0,0,0,0,0,0,0,0,0,0,0,0,0,0,0,0,0,0,0,0,0,0,0,0,0,0,0,0,0,0,0,0,0,0,0,0,0,0,0,0,0,0,0,0,0,0,0],"sum_hessian":[8.28E2,4.81E2,3.47E2,2.04E2,2.77E2,3.26E2,2.1E1,1E1,1.94E2,2E0,2.75E2,7.4E1,2.52E2,1E0,2E1,8E0,2E0,2.5E1,1.69E2,9.2E1,1.83E2,3E0,7.1E1,2.49E2,3E0,1.5E1,5E0,7E0,1E0,2.4E1,1E0,1.35E2,3.4E1,8E1,1.2E1,1.26E2,5.7E1,3.7E1,3.4E1,1.41E2,1.08E2,1E0,2E0,1.3E1,2E0,4E0,2E1,1.34E2,1E0,1.3E1,2.1E1,4E0,7.6E1,3E0,9E0,7E1,5.6E1,3E0,5.4E1,3.5E1,2E0,1.5E1,1.9E1,1.21E2,2E1,7E0,1.01E2,1.2E1,1E0],"tree_param":{"num_deleted":"0","num_feature":"9","num_nodes":"69","size_leaf_vector":"1"}},{"base_weights":[1.1470833E-4,-7.824909E-3,1.28326705E-2,-1.3372212E-2,-4.0951963E-3,1.1909838E-2,3.0741418E-2,-1.8127577E-2,-1.0879566E-2,-5.356807E-3,1.2986388E-3,9.239232E-3,1.5339956E-2,3.3257802E-3,3.4703378E-2,-2.433433E-2,-1.3808743E-2,-1.011286E-2,-2.197859E-2,-4.769902E-3,-1.486772E-2,1.9125636E-3,-3.2396438E-3,5.778955E-3,1.2555197E-2,2.1146566E-2,9.7317975E-3,-5.6726043E-4,2.0638616E-3,4.2034235E-2,2.2414897E-2,-1.3460716E-2,-3.0968644E-2,-1.553582E-2,-2.7072302E-3,-1.122417E-2,-2.065669E-3,-1.3698237E-2,-1.199116E-2,-6.401363E-3,-1.8498967E-3,-1.1974936E-2,-7.3665604E-3,7.146287E-3,7.823594E-4,6.497343E-3,-8.400366E-3,2.1558318E-2,9.763638E-3,1.4052347E-2,4.789678E-2,1.1966041E-2,8.9078344E-4,3.5644413E-3,1.3523836E-2,1.3084799E-3,7.4090543E-3,-5.1051653E-3,-2.120404E-3,-1.0592885E-2,-2.7354984E-3,-2.4841689E-3,-5.6061368E-3,-3.2463402E-3,8.107674E-4,-3.5693932E-3,8.6620153E-4,5.997829E-4,-3.6664181E-3,-4.9680173E-3,-1.3087377E-3,-3.5177695E-3,-1.3130918E-3,3.294093E-4,-1.5336626E-3,-2.1237136E-4,-6.152069E-3,2.4409476E-3,-2.648324E-4,-5.99481E-4,6.320506E-4,2.5574546E-3,6.3496016E-5,9.326857E-3,4.2103888E-3,7.5930316E-4,4.1446686E-3,2.461204E-3,7.683134E-3,2.5891007E-3,1.9316884E-2,5.059483E-3,2.0977121E-3,-3.9658668E-3,1.2235481E-3],"categories":[],"categories_nodes":[],"categories_segments":[],"categories_sizes":[],"default_left":[0,0,0,0,0,0,0,0,0,0,0,0,0,0,0,0,0,0,0,0,0,0,0,0,0,0,0,0,0,0,0,0,0,0,0,0,0,0,0,0,0,0,0,0,0,0,0,0,0,0,0,0,0,0,0,0,0,0,0,0,0,0,0,0,0,0,0,0,0,0,0,0,0,0,0,0,0,0,0,0,0,0,0,0,0,0,0,0,0,0,0,0,0,0,0],"id":9,"left_children":[1,3,5,7,9,11,13,15,17,19,21,23,25,27,29,31,33,35,37,39,41,43,-1,45,47,49,51,-1,-1,53,55,57,59,61,63,65,67,69,-1,71,73,-1,75,77,79,81,-1,83,85,87,89,91,93,-1,-1,-1,-1,-1,-1,-1,-1,-1,-1,-1,-1,-1,-1,-1,-1,-1,-1,-1,-1,-1,-1,-1,-1,-1,-1,-1,-1,-1,-1,-1,-1,-1,-1,-1,-1,-1,-1,-1,-1,-1,-1],"loss_changes":[8.3809316E-2,1.051775E-2,4.9059168E-3,2.2327378E-3,2.0960667E-3,2.6522242E-3,1.5138797E-3,1.5135854E-3,9.435583E-4,1.319001E-3,4.5884197E-4,1.9239467E-3,4.0927026E-3,6.862442E-5,2.289135E-4,1.5308913E-3,7.823864E-4,1.1393959E-3,6.443113E-4,1.1124322E-3,2.3364762E-3,3.3157406E-4,0E0,2.2931874E-3,2.0011952E-3,1.1472335E-2,1.3522967E-3,0E0,0E0,1.0714214E-4,1.8065912E-4,1.525497E-4,1.1956599E-3,6.912099E-4,3.3650623E-4,1.1183135E-3,7.2623586E-4,1.1477852E-4,0E0,1.5762951E-3,8.326804E-4,0E0,1.0354468E-3,8.668675E-5,1.8098812E-4,1.094202E-3,0E0,9.978656E-4,1.9871509E-3,3.3048643E-3,7.863285E-3,1.2221765E-3,7.2861096E-4,0E0,0E0,0E0,0E0,0E0,0E0,0E0,0E0,0E0,0E0,0E0,0E0,0E0,0E0,0E0,0E0,0E0,0E0,0E0,0E0,0E0,0E0,0E0,0E0,0E0,0E0,0E0,0E0,0E0,0E0,0E0,0E0,0E0,0E0,0E0,0E0,0E0,0E0,0E0,0E0,0E0,0E0],"parents":[2147483647,0,0,1,1,2,2,3,3,4,4,5,5,6,6,7,7,8,8,9,9,10,10,11,11,12,12,13,13,14,14,15,15,16,16,17,17,18,18,19,19,20,20,21,21,23,23,24,24,25,25,26,26,29,29,30,30,31,31,32,32,33,33,34,34,35,35,36,36,37,37,39,39,40,40,42,42,43,43,44,44,45,45,47,47,48,48,49,49,50,50,51,51,52,52],"right_children":[2,4,6,8,10,12,14,16,18,20,22,24,26,28,30,32,34,36,38,40,42,44,-1,46,48,50,52,-1,-1,54,56,58,60,62,64,66,68,70,-1,72,74,-1,76,78,80,82,-1,84,86,88,90,92,94,-1,-1,-1,-1,-1,-1,-1,-1,-1,-1,-1,-1,-1,-1,-1,-1,-1,-1,-1,-1,-1,-1,-1,-1,-1,-1,-1,-1,-1,-1,-1,-1,-1,-1,-1,-1,-1,-1,-1,-1,-1,-1],"split_conditions":[5.461202E-1,2.79323E-1,8.7181824E-1,1.4746667E-1,4.1978917E-1,4.089101E-1,3.5931352E-1,3.510061E-1,2.4388409E-1,5.594533E-1,5.0997365E-1,7.5120026E-1,4.4539994E-1,9.700266E-1,4.38308E-1,7.9036504E-2,1.3473843E-1,1.5769665E-1,2.656975E-1,4.1748148E-1,3.1392324E-1,4.5293707E-1,-3.2396438E-3,7.4774027E-1,8.002804E-1,1.1592021E-1,1.2570569E-1,-5.6726043E-4,2.0638616E-3,7.422964E-1,3.7961838E-1,1.4140493E-1,1.5527184E-1,4.0145218E-1,9.182672E-2,3.2656667E-1,4.5440695E-1,3.4839502E-1,-1.199116E-2,3.6349198E-1,3.9707085E-1,-1.1974936E-2,3.492344E-1,5.216009E-1,3.6802772E-1,7.0933133E-1,-8.400366E-3,3.5581943E-1,8.03637E-1,7.6506716E-1,7.184074E-1,4.7686452E-1,1.0801656E-1,3.5644413E-3,1.3523836E-2,1.3084799E-3,7.4090543E-3,-5.1051653E-3,-2.120404E-3,-1.0592885E-2,-2.7354984E-3,-2.4841689E-3,-5.6061368E-3,-3.2463402E-3,8.107674E-4,-3.5693932E-3,8.6620153E-4,5.997829E-4,-3.6664181E-3,-4.9680173E-3,-1.3087377E-3,-3.5177695E-3,-1.3130918E-3,3.294093E-4,-1.5336626E-3,-2.1237136E-4,-6.152069E-3,2.4409476E-3,-2.648324E-4,-5.99481E-4,6.320506E-4,2.5574546E-3,6.3496016E-5,9.326857E-3,4.2103888E-3,7.5930316E-4,4.1446686E-3,2.461204E-3,7.683134E-3,2.5891007E-3,1.9316884E-2,5.059483E-3,2.0977121E-3,-3.9658668E-3,1.2235481E-3],"split_indices":[1,2,2,2,1,5,4,5,6,4,8,1,5,0,4,6,8,6,2,4,2,0,0,2,0,8,6,0,0,0,3,1,1,5,0,0,3,5,0,5,5,0,3,3,5,2,0,5,1,2,0,5,7,0,0,0,0,0,0,0,0,0,0,0,0,0,0,0,0,0,0,0,0,0,0,0,0,0,0,0,0,0,0,0,0,0,0,0,0,0,0,0,0,0,0],"split_type":[0,0,0,0,0,0,0,0,0,0,0,0,0,0,0,0,0,0,0,0,0,0,0,0,0,0,0,0,0,0,0,0,0,0,0,0,0,0,0,0,0,0,0,0,0,0,0,0,0,0,0,0,0,0,0,0,0,0,0,0,0,0,0,0,0,0,0,0,0,0,0,0,0,0,0,0,0,0,0,0,0,0,0,0,0,0,0,0,0,0,0,0,0,0,0],"sum_hessian":[8.28E2,5.1E2,3.18E2,2.04E2,3.06E2,3.04E2,1.4E1,6.8E1,1.36E2,2.48E2,5.8E1,1.73E2,1.31E2,2E0,1.2E1,2.6E1,4.2E1,1.29E2,7E0,2.35E2,1.3E1,5.6E1,2E0,8.6E1,8.7E1,6.3E1,6.8E1,1E0,1E0,6E0,6E0,1.1E1,1.5E1,3.6E1,6E0,1.13E2,1.6E1,6E0,1E0,1.5E2,8.5E1,2E0,1.1E1,9E0,4.7E1,8.5E1,1E0,1.9E1,6.8E1,5.1E1,1.2E1,5.4E1,1.4E1,1E0,5E0,1E0,5E0,6E0,5E0,1.2E1,3E0,1.2E1,2.4E1,2E0,4E0,1.08E2,5E0,1.2E1,4E0,4E0,2E0,4E1,1.1E2,4.5E1,4E1,8E0,3E0,8E0,1E0,1.5E1,3.2E1,6.4E1,2.1E1,7E0,1.2E1,2.5E1,4.3E1,3.5E1,1.6E1,4E0,8E0,2.6E1,2.8E1,2E0,1.2E1],"tree_param":{"num_deleted":"0","num_feature":"9","num_nodes":"95","size_leaf_vector":"1"}},{"base_weights":[7.535708E-5,-5.7703876E-3,9.021969E-3,-8.69324E-3,-2.1041106E-3,8.267918E-3,2.4205303E-2,-2.0021258E-2,-7.788418E-3,-1.5815212E-3,-2.0827932E-2,5.9924196E-3,1.1053233E-2,1.7136438E-2,3.4915745E-2,-5.8739013E-3,-2.434545E-2,-2.2883743E-2,-7.155981E-3,-5.99834E-3,-7.936253E-4,-7.2514713E-3,-6.1646104E-4,2.6859734E-3,8.332465E-3,1.7721491E-2,8.831046E-3,1.93972E-3,1.8789291E-2,3.1117827E-3,1.1537514E-2,-1.0624454E-4,-2.0721068E-3,-3.0562893E-2,-1.2873675E-2,-8.3059445E-3,-2.448534E-3,-1.4488485E-2,-6.2074717E-3,3.989607E-3,-8.365647E-3,-1.2964065E-3,3.6960703E-3,4.6737385E-3,-4.289192E-3,2.6156783E-2,7.3380354E-3,3.3547014E-2,1.0682423E-2,4.2421278E-3,1.3426508E-2,6.288659E-3,2.2368254E-3,-2.3403566E-3,-1.2193064E-2,-1.7693159E-3,-4.9893637E-3,-1.7370277E-3,6.351874E-4,-5.574116E-3,-2.245275E-3,-2.562942E-4,-2.1889603E-3,2.0340444E-3,-5.9734884E-4,-4.4967444E-3,-1.2663502E-3,2.0783208E-3,-6.243856E-4,1.6950144E-3,-3.6346929E-3,9.901791E-3,-1.8599333E-4,3.003995E-3,2.8208675E-4,3.7722173E-3,1.5601548E-2,3.8885516E-3,-3.106171E-3,-3.0447813E-3,1.965695E-3,1.3369597E-2,3.5911978E-3],"categories":[],"categories_nodes":[],"categories_segments":[],"categories_sizes":[],"default_left":[0,0,0,0,0,0,0,0,0,0,0,0,0,0,0,0,0,0,0,0,0,0,0,0,0,0,0,0,0,0,0,0,0,0,0,0,0,0,0,0,0,0,0,0,0,0,0,0,0,0,0,0,0,0,0,0,0,0,0,0,0,0,0,0,0,0,0,0,0,0,0,0,0,0,0,0,0,0,0,0,0,0,0],"id":10,"left_children":[1,3,5,7,9,11,13,15,17,19,21,23,25,27,29,31,33,35,37,39,41,-1,-1,43,45,47,49,-1,51,-1,-1,-1,-1,53,55,-1,57,59,61,63,65,67,-1,69,-1,71,73,75,77,79,81,-1,-1,-1,-1,-1,-1,-1,-1,-1,-1,-1,-1,-1,-1,-1,-1,-1,-1,-1,-1,-1,-1,-1,-1,-1,-1,-1,-1,-1,-1,-1,-1],"loss_changes":[4.340843E-2,5.361134E-3,3.5551488E-3,2.703771E-3,2.1588702E-3,1.9238908E-3,5.373284E-4,1.0805149E-3,2.318425E-3,7.573582E-4,3.2695266E-4,1.3316348E-3,1.9180365E-3,7.252139E-5,3.5822857E-5,3.176932E-5,6.764196E-4,9.136582E-4,1.6557546E-3,8.136452E-4,1.2489379E-3,0E0,0E0,2.564971E-3,1.6160128E-3,3.4291325E-3,2.1994803E-3,0E0,6.53381E-5,0E0,0E0,0E0,0E0,1.7480077E-3,8.540065E-5,0E0,5.8030215E-5,6.634374E-4,1.29967E-3,1.3032742E-4,6.7790446E-4,1.1827655E-3,0E0,1.1666928E-3,0E0,9.374579E-4,1.6679303E-3,3.2173023E-3,1.3329687E-3,1.8950778E-3,1.8691942E-3,0E0,0E0,0E0,0E0,0E0,0E0,0E0,0E0,0E0,0E0,0E0,0E0,0E0,0E0,0E0,0E0,0E0,0E0,0E0,0E0,0E0,0E0,0E0,0E0,0E0,0E0,0E0,0E0,0E0,0E0,0E0,0E0],"parents":[2147483647,0,0,1,1,2,2,3,3,4,4,5,5,6,6,7,7,8,8,9,9,10,10,11,11,12,12,13,13,14,14,15,15,16,16,17,17,18,18,19,19,20,20,23,23,24,24,25,25,26,26,28,28,33,33,34,34,36,36,37,37,38,38,39,39,40,40,41,41,43,43,45,45,46,46,47,47,48,48,49,49,50,50],"right_children":[2,4,6,8,10,12,14,16,18,20,22,24,26,28,30,32,34,36,38,40,42,-1,-1,44,46,48,50,-1,52,-1,-1,-1,-1,54,56,-1,58,60,62,64,66,68,-1,70,-1,72,74,76,78,80,82,-1,-1,-1,-1,-1,-1,-1,-1,-1,-1,-1,-1,-1,-1,-1,-1,-1,-1,-1,-1,-1,-1,-1,-1,-1,-1,-1,-1,-1,-1,-1,-1],"split_conditions":[5.309122E-1,3.3452964E-1,8.6825097E-1,2.5867048E-1,3.9819345E-1,4.089101E-1,9.453638E-1,2.0035252E-1,2.1931627E-1,3.2038507E-1,4.412467E-1,7.541848E-1,4.2543453E-1,8.812001E-1,9.700266E-1,9.0951E-2,1.2608205E-1,4.8920938E-1,4.5916446E-2,3.5714117E-1,5.34212E-1,-7.2514713E-3,-6.1646104E-4,7.4669844E-1,7.5693256E-1,3.5790387E-1,7.202478E-1,1.93972E-3,4.5539486E-1,3.1117827E-3,1.1537514E-2,-1.0624454E-4,-2.0721068E-3,6.661648E-2,2.4350771E-1,-8.3059445E-3,1.412309E-1,5.6831013E-2,6.0594656E-2,3.4203255E-1,8.806925E-2,3.3520636E-1,3.6960703E-3,7.2663146E-1,-4.289192E-3,4.1359675E-1,9.973654E-2,3.144918E-1,4.2386857E-1,4.7421906E-2,7.278845E-1,6.288659E-3,2.2368254E-3,-2.3403566E-3,-1.2193064E-2,-1.7693159E-3,-4.9893637E-3,-1.7370277E-3,6.351874E-4,-5.574116E-3,-2.245275E-3,-2.562942E-4,-2.1889603E-3,2.0340444E-3,-5.9734884E-4,-4.4967444E-3,-1.2663502E-3,2.0783208E-3,-6.243856E-4,1.6950144E-3,-3.6346929E-3,9.901791E-3,-1.8599333E-4,3.003995E-3,2.8208675E-4,3.7722173E-3,1.5601548E-2,3.8885516E-3,-3.106171E-3,-3.0447813E-3,1.965695E-3,1.3369597E-2,3.5911978E-3],"split_indices":[1,0,1,5,8,5,2,5,4,4,1,0,5,0,0,3,8,3,8,3,5,0,0,0,0,3,1,0,3,0,0,0,0,8,8,0,0,7,8,2,8,4,0,2,0,3,8,3,5,8,0,0,0,0,0,0,0,0,0,0,0,0,0,0,0,0,0,0,0,0,0,0,0,0,0,0,0,0,0,0,0,0,0],"split_type":[0,0,0,0,0,0,0,0,0,0,0,0,0,0,0,0,0,0,0,0,0,0,0,0,0,0,0,0,0,0,0,0,0,0,0,0,0,0,0,0,0,0,0,0,0,0,0,0,0,0,0,0,0,0,0,0,0,0,0,0,0,0,0,0,0,0,0,0,0,0,0,0,0,0,0,0,0,0,0,0,0,0,0],"sum_hessian":[8.28E2,5.01E2,3.27E2,2.78E2,2.23E2,3.13E2,1.4E1,1.9E1,2.59E2,2.18E2,5E0,1.74E2,1.39E2,1E1,4E0,5E0,1.4E1,9E0,2.5E2,3.2E1,1.86E2,4E0,1E0,7.3E1,1.01E2,3.3E1,1.06E2,2E0,8E0,1E0,3E0,1E0,4E0,8E0,6E0,7E0,2E0,2.7E1,2.23E2,6E0,2.6E1,1.8E2,6E0,6.6E1,7E0,4E0,9.7E1,9E0,2.4E1,5.4E1,5.2E1,6E0,2E0,3E0,5E0,3E0,3E0,1E0,1E0,1.6E1,1.1E1,3.8E1,1.85E2,4E0,2E0,9E0,1.7E1,1.5E1,1.65E2,6.3E1,3E0,3E0,1E0,6.8E1,2.9E1,5E0,4E0,2.2E1,2E0,7E0,4.7E1,1E0,5.1E1],"tree_param":{"num_deleted":"0","num_feature":"9","num_nodes":"83","size_leaf_vector":"1"}},{"base_weights":[7.41441E-5,-4.3930826E-3,6.261297E-3,-8.592368E-3,-2.8178E-3,5.169023E-3,1.3690438E-2,-1.7193502E-2,-7.7394354E-3,-1.1309183E-2,-2.1898032E-3,3.7164472E-3,7.822234E-3,8.104817E-3,2.0613369E-2,-9.79274E-3,-2.4115868E-2,-6.986739E-3,-1.3994201E-2,6.0595274E-3,-1.5085902E-2,-8.343683E-3,-1.5444517E-3,7.099981E-4,6.5685604E-3,2.25983E-2,5.167459E-3,1.29163405E-2,-8.852541E-4,1.4265214E-2,9.597052E-3,-3.1756633E-3,-7.5538835E-4,-9.525675E-3,-2.532258E-3,-1.1798495E-2,-5.5790506E-3,-1.9413948E-2,-2.523765E-3,2.8050006E-3,7.4921054E-4,-1.19781215E-2,-1.0107602E-2,3.5764487E-3,-9.416572E-3,5.8409884E-3,-2.0664672E-3,2.0675391E-3,-1.2944301E-2,1.1648793E-2,3.7408452E-3,3.006513E-2,5.1427283E-3,-6.30945E-3,5.983342E-3,-7.683188E-4,1.5903648E-2,-7.596425E-3,3.3241825E-3,1.584489E-2,3.1914313E-3,-2.2762185E-3,-5.7816817E-3,-2.9072163E-3,-1.03905E-3,-2.3320473E-3,-6.599556E-3,-1.9183831E-3,1.2779609E-5,-1.7294884E-4,5.100936E-4,-3.6213847E-4,-4.0314016E-3,2.2436143E-3,-3.0771163E-3,3.8615838E-4,3.3791147E-3,1.316384E-3,-7.579945E-4,4.991169E-3,3.5892686E-4,1.0164231E-3,-4.6228077E-3,-9.852246E-4,3.9317533E-3,-6.160786E-5,2.4190275E-3,9.1495964E-4,1.1944387E-2,2.6889862E-3,-4.9967767E-4,3.1718747E-3,5.781938E-4,5.375445E-4,-1.267308E-3,5.6376862E-3,-2.856374E-4,-6.241277E-4,-3.3639953E-3,1.0775686E-3,4.9896794E-3,1.7071367E-4,1.2654305E-3],"categories":[],"categories_nodes":[],"categories_segments":[],"categories_sizes":[],"default_left":[0,0,0,0,0,0,0,0,0,0,0,0,0,0,0,0,0,0,0,0,0,0,0,0,0,0,0,0,0,0,0,0,0,0,0,0,0,0,0,0,0,0,0,0,0,0,0,0,0,0,0,0,0,0,0,0,0,0,0,0,0,0,0,0,0,0,0,0,0,0,0,0,0,0,0,0,0,0,0,0,0,0,0,0,0,0,0,0,0,0,0,0,0,0,0,0,0,0,0,0,0,0,0],"id":11,"left_children":[1,3,5,7,9,11,13,15,17,19,21,23,25,27,29,31,33,35,37,39,41,43,45,47,49,51,53,55,57,59,-1,-1,-1,-1,-1,61,63,65,67,-1,69,-1,71,-1,73,75,77,79,81,83,85,87,89,-1,91,93,95,97,-1,99,101,-1,-1,-1,-1,-1,-1,-1,-1,-1,-1,-1,-1,-1,-1,-1,-1,-1,-1,-1,-1,-1,-1,-1,-1,-1,-1,-1,-1,-1,-1,-1,-1,-1,-1,-1,-1,-1,-1,-1,-1,-1,-1],"loss_changes":[2.2940582E-2,3.1642485E-3,2.753132E-3,8.2797185E-4,1.8522972E-3,1.1463957E-3,1.5343633E-3,3.2737805E-4,4.718867E-4,1.6657352E-3,1.2937092E-3,1.7017082E-3,4.0805275E-3,1.1360887E-3,9.1586635E-4,1.3718323E-5,3.3048564E-4,6.7925546E-4,6.9700624E-4,8.036218E-5,2.0697685E-3,7.862707E-4,1.1648093E-3,1.8433173E-3,1.4216998E-3,1.9307882E-3,2.0923635E-3,7.0718396E-4,8.872224E-4,1.9433419E-4,0E0,0E0,0E0,0E0,0E0,6.09122E-4,7.2320085E-4,6.967946E-5,4.9942384E-5,0E0,4.762868E-6,0E0,5.173376E-4,0E0,5.0271535E-4,4.7938095E-4,8.4274216E-4,1.1223652E-3,4.1455042E-4,8.263276E-4,1.1445275E-3,2.775806E-3,1.709987E-4,0E0,1.6550126E-3,4.2960983E-5,6.9955573E-4,1.1632696E-4,0E0,5.6030694E-5,5.676684E-6,0E0,0E0,0E0,0E0,0E0,0E0,0E0,0E0,0E0,0E0,0E0,0E0,0E0,0E0,0E0,0E0,0E0,0E0,0E0,0E0,0E0,0E0,0E0,0E0,0E0,0E0,0E0,0E0,0E0,0E0,0E0,0E0,0E0,0E0,0E0,0E0,0E0,0E0,0E0,0E0,0E0,0E0],"parents":[2147483647,0,0,1,1,2,2,3,3,4,4,5,5,6,6,7,7,8,8,9,9,10,10,11,11,12,12,13,13,14,14,15,15,16,16,17,17,18,18,19,19,20,20,21,21,22,22,23,23,24,24,25,25,26,26,27,27,28,28,29,29,35,35,36,36,37,37,38,38,40,40,42,42,44,44,45,45,46,46,47,47,48,48,49,49,50,50,51,51,52,52,54,54,55,55,56,56,57,57,59,59,60,60],"right_children":[2,4,6,8,10,12,14,16,18,20,22,24,26,28,30,32,34,36,38,40,42,44,46,48,50,52,54,56,58,60,-1,-1,-1,-1,-1,62,64,66,68,-1,70,-1,72,-1,74,76,78,80,82,84,86,88,90,-1,92,94,96,98,-1,100,102,-1,-1,-1,-1,-1,-1,-1,-1,-1,-1,-1,-1,-1,-1,-1,-1,-1,-1,-1,-1,-1,-1,-1,-1,-1,-1,-1,-1,-1,-1,-1,-1,-1,-1,-1,-1,-1,-1,-1,-1,-1,-1],"split_conditions":[4.964461E-1,2.0545557E-1,8.7791955E-1,7.756887E-2,2.7794373E-1,1.1516748E-1,3.8203067E-1,3.333553E-1,4.9684954E-1,7.9789236E-2,4.365826E-2,7.55082E-1,1.264584E-1,8.4311885E-1,1.14038385E-1,3.1642136E-1,3.1642136E-1,3.3899704E-1,5.70833E-1,3.1327632E-1,8.468197E-2,2.939286E-1,4.9303725E-2,4.9579096E-1,5.231464E-2,4.5678428E-1,1.2721114E-1,3.3241567E-1,8.6825097E-1,9.484381E-2,9.597052E-3,-3.1756633E-3,-7.5538835E-4,-9.525675E-3,-2.532258E-3,4.495666E-1,5.758374E-2,8.054197E-2,9.2415534E-2,2.8050006E-3,3.2850134E-1,-1.19781215E-2,2.598235E-1,3.5764487E-3,2.2205494E-2,3.385189E-1,3.2596922E-1,2.4177863E-1,3.575461E-2,1.16672935E-2,8.091833E-2,7.0410764E-1,7.405019E-1,-6.30945E-3,4.0078598E-1,8.9415395E-1,8.97827E-1,3.67569E-1,3.3241825E-3,3.7260067E-2,9.1179025E-1,-2.2762185E-3,-5.7816817E-3,-2.9072163E-3,-1.03905E-3,-2.3320473E-3,-6.599556E-3,-1.9183831E-3,1.2779609E-5,-1.7294884E-4,5.100936E-4,-3.6213847E-4,-4.0314016E-3,2.2436143E-3,-3.0771163E-3,3.8615838E-4,3.3791147E-3,1.316384E-3,-7.579945E-4,4.991169E-3,3.5892686E-4,1.0164231E-3,-4.6228077E-3,-9.852246E-4,3.9317533E-3,-6.160786E-5,2.4190275E-3,9.1495964E-4,1.1944387E-2,2.6889862E-3,-4.9967767E-4,3.1718747E-3,5.781938E-4,5.375445E-4,-1.267308E-3,5.6376862E-3,-2.856374E-4,-6.241277E-4,-3.3639953E-3,1.0775686E-3,4.9896794E-3,1.7071367E-4,1.2654305E-3],"split_indices":[1,2,0,2,3,8,4,3,4,6,8,0,8,1,6,3,5,4,4,0,6,3,8,4,6,3,8,5,1,6,0,0,0,0,0,3,7,7,0,0,0,0,2,0,7,1,3,3,6,6,7,0,0,0,3,0,0,4,0,6,0,0,0,0,0,0,0,0,0,0,0,0,0,0,0,0,0,0,0,0,0,0,0,0,0,0,0,0,0,0,0,0,0,0,0,0,0,0,0,0,0,0,0],"split_type":[0,0,0,0,0,0,0,0,0,0,0,0,0,0,0,0,0,0,0,0,0,0,0,0,0,0,0,0,0,0,0,0,0,0,0,0,0,0,0,0,0,0,0,0,0,0,0,0,0,0,0,0,0,0,0,0,0,0,0,0,0,0,0,0,0,0,0,0,0,0,0,0,0,0,0,0,0,0,0,0,0,0,0,0,0,0,0,0,0,0,0,0,0,0,0,0,0,0,0,0,0,0,0],"sum_hessian":[8.28E2,4.81E2,3.47E2,1.3E2,3.51E2,3.04E2,4.3E1,1E1,1.2E2,2.3E1,3.28E2,1.98E2,1.06E2,2.5E1,1.8E1,6E0,4E0,1.09E2,1.1E1,4E0,1.9E1,3E1,2.98E2,9.7E1,1.01E2,1.5E1,9.1E1,1.6E1,9E0,1.3E1,5E0,5E0,1E0,2E0,2E0,2.3E1,8.6E1,7E0,4E0,2E0,2E0,2E0,1.7E1,1E0,2.9E1,1.9E1,2.79E2,8.9E1,8E0,3.5E1,6.6E1,1E1,5E0,2E0,8.9E1,3E0,1.3E1,6E0,3E0,1.1E1,2E0,1.6E1,7E0,2.8E1,5.8E1,2E0,5E0,1E0,3E0,1E0,1E0,5E0,1.2E1,1E0,2.8E1,1.1E1,8E0,1.8E1,2.61E2,4E0,8.5E1,1E0,7E0,3E0,3.2E1,3.5E1,3.1E1,3E0,7E0,3E0,2E0,4.1E1,4.8E1,2E0,1E0,1.1E1,2E0,3E0,3E0,1E0,1E1,1E0,1E0],"tree_param":{"num_deleted":"0","num_feature":"9","num_nodes":"103","size_leaf_vector":"1"}},{"base_weights":[4.6594883E-5,-3.459204E-3,4.2590094E-3,-6.646522E-3,-2.380341E-3,3.4818046E-3,1.0061905E-2,-9.864332E-3,-4.841736E-3,-7.94104E-3,-1.7365345E-3,1.4067946E-3,4.917691E-3,5.825602E-3,1.5329377E-2,-1.4549214E-2,-7.069788E-3,3.6924193E-3,-5.774552E-3,-1.74295E-2,-2.8659329E-3,-3.5216834E-3,-1.9917443E-5,8.034757E-3,-2.7779766E-4,5.739432E-3,-1.879768E-3,1.6534328E-2,3.1270005E-3,1.138271E-2,8.18511E-3,-1.0556222E-3,-1.723764E-2,-1.037605E-2,-1.3174022E-3,8.925428E-3,-3.7719458E-3,-1.640693E-2,-4.8536705E-3,-2.604262E-2,-4.475946E-3,-8.140841E-3,4.1081253E-3,-2.5888355E-3,-1.9756127E-2,-1.1973692E-3,4.2749043E-3,2.7703308E-3,1.3895993E-2,-8.683693E-3,6.404463E-4,3.787872E-3,9.644539E-3,-6.628769E-3,5.71643E-3,1.2485594E-3,5.5760937E-3,-2.9825717E-3,6.1769723E-3,1.4510751E-4,1.2077065E-2,-6.919405E-3,-2.5612973E-3,-1.8695657E-3,-5.7227006E-3,1.1601248E-3,-1.884696E-3,2.9487654E-3,7.965401E-4,3.889203E-7,-1.5090377E-3,-1.7143899E-3,-6.4890753E-3,-1.9464411E-3,8.3090895E-4,-1.888691E-3,-8.485354E-3,2.1646053E-3,-2.4771828E-3,1.3691784E-4,-3.4876124E-3,-2.154218E-3,3.4754148E-3,-4.440974E-3,-4.376467E-4,-7.2754906E-3,-1.2539208E-3,1.6842593E-4,-3.6901257E-3,1.7932589E-3,-2.038749E-3,2.8009966E-4,2.414073E-3,5.737746E-3,5.1093224E-4,-2.971782E-3,5.308181E-4,3.0201306E-3,-5.059065E-5,4.500277E-3,9.179212E-4,8.058817E-3,1.0666528E-3,-1.6169378E-4,-3.3386217E-3,3.6100687E-3,6.5773644E-4,-2.074513E-3,1.7629684E-3,1.766354E-4,2.6736564E-3,3.926406E-3,1.1011721E-3],"categories":[],"categories_nodes":[],"categories_segments":[],"categories_sizes":[],"default_left":[0,0,0,0,0,0,0,0,0,0,0,0,0,0,0,0,0,0,0,0,0,0,0,0,0,0,0,0,0,0,0,0,0,0,0,0,0,0,0,0,0,0,0,0,0,0,0,0,0,0,0,0,0,0,0,0,0,0,0,0,0,0,0,0,0,0,0,0,0,0,0,0,0,0,0,0,0,0,0,0,0,0,0,0,0,0,0,0,0,0,0,0,0,0,0,0,0,0,0,0,0,0,0,0,0,0,0,0,0,0,0,0,0],"id":12,"left_children":[1,3,5,7,9,11,13,15,17,19,21,23,25,27,29,31,33,35,37,39,41,43,45,47,49,51,53,55,57,59,-1,-1,61,63,65,67,69,71,73,75,77,79,81,83,85,87,89,91,93,95,97,99,101,103,105,-1,-1,107,109,-1,111,-1,-1,-1,-1,-1,-1,-1,-1,-1,-1,-1,-1,-1,-1,-1,-1,-1,-1,-1,-1,-1,-1,-1,-1,-1,-1,-1,-1,-1,-1,-1,-1,-1,-1,-1,-1,-1,-1,-1,-1,-1,-1,-1,-1,-1,-1,-1,-1,-1,-1,-1,-1],"loss_changes":[1.2257304E-2,1.5419004E-3,1.6652504E-3,6.1428966E-4,1.2034151E-3,9.882278E-4,8.9254E-4,4.2082462E-4,6.18382E-4,1.6354714E-3,9.376414E-4,1.5430592E-3,1.1111819E-3,6.996604E-4,5.858522E-4,3.545098E-4,4.998406E-4,3.461549E-4,5.8616535E-4,1.2222803E-3,9.163439E-4,2.2204944E-3,7.990591E-4,8.2547276E-4,8.6233293E-4,1.3047718E-3,8.3152857E-4,4.962529E-5,4.283717E-4,1.1524325E-4,0E0,0E0,3.6072824E-4,4.9401773E-4,3.0744015E-4,2.2372697E-6,1.8996183E-5,1.556375E-4,8.1541913E-4,1.3182499E-4,3.24831E-4,4.2470853E-4,1.01161E-3,1.9521544E-3,4.588249E-4,2.428368E-3,6.8149896E-4,1.4754783E-4,7.963935E-4,1.5806651E-4,7.7201816E-4,9.256897E-4,5.985327E-3,3.7765608E-4,1.7396972E-4,0E0,0E0,3.1934291E-4,2.240261E-4,0E0,7.943809E-5,0E0,0E0,0E0,0E0,0E0,0E0,0E0,0E0,0E0,0E0,0E0,0E0,0E0,0E0,0E0,0E0,0E0,0E0,0E0,0E0,0E0,0E0,0E0,0E0,0E0,0E0,0E0,0E0,0E0,0E0,0E0,0E0,0E0,0E0,0E0,0E0,0E0,0E0,0E0,0E0,0E0,0E0,0E0,0E0,0E0,0E0,0E0,0E0,0E0,0E0,0E0,0E0],"parents":[2147483647,0,0,1,1,2,2,3,3,4,4,5,5,6,6,7,7,8,8,9,9,10,10,11,11,12,12,13,13,14,14,15,15,16,16,17,17,18,18,19,19,20,20,21,21,22,22,23,23,24,24,25,25,26,26,27,27,28,28,29,29,32,32,33,33,34,34,35,35,36,36,37,37,38,38,39,39,40,40,41,41,42,42,43,43,44,44,45,45,46,46,47,47,48,48,49,49,50,50,51,51,52,52,53,53,54,54,57,57,58,58,60,60],"right_children":[2,4,6,8,10,12,14,16,18,20,22,24,26,28,30,32,34,36,38,40,42,44,46,48,50,52,54,56,58,60,-1,-1,62,64,66,68,70,72,74,76,78,80,82,84,86,88,90,92,94,96,98,100,102,104,106,-1,-1,108,110,-1,112,-1,-1,-1,-1,-1,-1,-1,-1,-1,-1,-1,-1,-1,-1,-1,-1,-1,-1,-1,-1,-1,-1,-1,-1,-1,-1,-1,-1,-1,-1,-1,-1,-1,-1,-1,-1,-1,-1,-1,-1,-1,-1,-1,-1,-1,-1,-1,-1,-1,-1,-1,-1],"split_conditions":[4.1978917E-1,1.8431993E-1,8.7791955E-1,3.510061E-1,3.144918E-1,3.912088E-1,3.8203067E-1,9.4602555E-2,3.7162855E-1,3.6549965E-1,3.9402083E-1,2.9706264E-1,1.9834399E-1,4.8927363E-2,1.392548E-1,5.6078285E-2,4.0261546E-1,1.298457E-1,3.8203067E-1,8.769289E-2,2.5850374E-1,3.9017525E-1,1.2156568E-1,6.864791E-1,3.1642136E-1,1.14038385E-1,5.050658E-1,8.812001E-1,4.0405253E-1,3.912088E-1,8.18511E-3,-1.0556222E-3,1.0387655E-1,3.5049772E-1,3.3918816E-1,1.6610122E-1,9.4602555E-2,1.0295808E-1,1.3699661E-1,2.308827E-1,2.0035252E-1,1.1027475E-1,5.494919E-2,2.7794373E-1,3.731109E-1,1.0086564E-1,5.315547E-1,2.2205494E-1,8.114398E-1,8.114398E-1,2.5867048E-1,3.961735E-1,4.3667033E-1,3.7069005E-1,1.2834023E-1,1.2485594E-3,5.5760937E-3,1.5205118E-1,3.1642136E-1,1.4510751E-4,4.4750175E-1,-6.919405E-3,-2.5612973E-3,-1.8695657E-3,-5.7227006E-3,1.1601248E-3,-1.884696E-3,2.9487654E-3,7.965401E-4,3.889203E-7,-1.5090377E-3,-1.7143899E-3,-6.4890753E-3,-1.9464411E-3,8.3090895E-4,-1.888691E-3,-8.485354E-3,2.1646053E-3,-2.4771828E-3,1.3691784E-4,-3.4876124E-3,-2.154218E-3,3.4754148E-3,-4.440974E-3,-4.376467E-4,-7.2754906E-3,-1.2539208E-3,1.6842593E-4,-3.6901257E-3,1.7932589E-3,-2.038749E-3,2.8009966E-4,2.414073E-3,5.737746E-3,5.1093224E-4,-2.971782E-3,5.308181E-4,3.0201306E-3,-5.059065E-5,4.500277E-3,9.179212E-4,8.058817E-3,1.0666528E-3,-1.6169378E-4,-3.3386217E-3,3.6100687E-3,6.5773644E-4,-2.074513E-3,1.7629684E-3,1.766354E-4,2.6736564E-3,3.926406E-3,1.1011721E-3],"split_indices":[1,2,0,3,5,5,4,0,3,3,4,5,6,6,6,7,5,8,3,6,5,4,8,2,5,8,3,0,3,4,0,0,6,5,3,0,0,0,8,1,5,8,6,3,0,8,3,6,0,0,3,5,5,3,7,0,0,6,5,0,3,0,0,0,0,0,0,0,0,0,0,0,0,0,0,0,0,0,0,0,0,0,0,0,0,0,0,0,0,0,0,0,0,0,0,0,0,0,0,0,0,0,0,0,0,0,0,0,0,0,0,0,0],"split_type":[0,0,0,0,0,0,0,0,0,0,0,0,0,0,0,0,0,0,0,0,0,0,0,0,0,0,0,0,0,0,0,0,0,0,0,0,0,0,0,0,0,0,0,0,0,0,0,0,0,0,0,0,0,0,0,0,0,0,0,0,0,0,0,0,0,0,0,0,0,0,0,0,0,0,0,0,0,0,0,0,0,0,0,0,0,0,0,0,0,0,0,0,0,0,0,0,0,0,0,0,0,0,0,0,0,0,0,0,0,0,0,0,0],"sum_hessian":[8.28E2,4.52E2,3.76E2,1.13E2,3.39E2,3.33E2,4.3E1,3.9E1,7.4E1,3.4E1,3.05E2,1.37E2,1.96E2,2.5E1,1.8E1,1.3E1,2.6E1,7E0,6.7E1,1.1E1,2.3E1,1.49E2,1.56E2,2.7E1,1.1E2,1.75E2,2.1E1,4E0,2.1E1,1.5E1,3E0,3E0,1E1,1.6E1,1E1,4E0,3E0,4E0,6.3E1,6E0,5E0,1.3E1,1E1,1.42E2,7E0,1.23E2,3.3E1,1.5E1,1.2E1,1E1,1E2,1.18E2,5.7E1,1.3E1,8E0,1E0,3E0,7E0,1.4E1,1E0,1.4E1,5E0,5E0,1.2E1,4E0,5E0,5E0,3E0,1E0,1E0,2E0,2E0,2E0,5.2E1,1.1E1,1E0,5E0,1E0,4E0,4E0,9E0,4E0,6E0,1.1E1,1.31E2,5E0,2E0,1.07E2,1.6E1,2.9E1,4E0,1.2E1,3E0,8E0,4E0,9E0,1E0,7E0,9.3E1,6E0,1.12E2,1.4E1,4.3E1,6E0,7E0,2E0,6E0,5E0,2E0,5E0,9E0,1.2E1,2E0],"tree_param":{"num_deleted":"0","num_feature":"9","num_nodes":"113","size_leaf_vector":"1"}},{"base_weights":[2.2582111E-5,-2.1807142E-3,3.737452E-3,-4.0092324E-3,-9.913547E-4,7.744074E-4,4.9326182E-3,-3.1622218E-3,-8.32813E-3,4.7817975E-3,-1.6563465E-3,8.416947E-3,-8.663265E-4,-1.65145E-3,6.404919E-3,-3.8215837E-3,7.967536E-3,2.4055347E-3,-9.089537E-3,2.935178E-3,1.2602389E-2,-6.706006E-3,-7.5596914E-4,1.5468329E-2,3.8055615E-3,1.1082813E-2,-2.2593676E-3,1.7471621E-3,-1.1079225E-2,7.6694423E-3,3.168285E-4,-8.608862E-3,-2.9796246E-3,1.2081543E-2,-5.658994E-3,-8.593282E-3,-7.53473E-3,-6.430957E-4,9.44038E-3,1.5349651E-2,-1.7008782E-4,-1.5094798E-2,-6.404576E-4,-4.105775E-4,-1.2341948E-2,1.323554E-3,5.039177E-3,-5.624493E-3,6.526073E-3,-1.549852E-3,1.4142121E-2,1.5800459E-5,-1.2878135E-2,6.3428017E-3,-4.286315E-3,-1.7300032E-2,4.1321963E-3,4.518939E-3,1.0636124E-2,-3.8016126E-3,9.757561E-3,2.0299652E-3,-2.8714668E-3,-7.8728166E-4,-4.348311E-3,4.5082844E-3,-1.2811437E-3,-4.438743E-4,-2.102673E-3,-6.557382E-4,-3.543348E-3,-1.3038681E-3,3.1784752E-3,-4.4485925E-5,3.556825E-3,6.983042E-4,5.406967E-3,-6.1896294E-3,-1.0337649E-3,-2.13891E-3,1.3780899E-3,1.6994472E-3,-2.452187E-4,-4.721154E-3,-7.707745E-4,-5.308092E-5,-2.477941E-3,3.4426332E-3,1.0417853E-3,6.138629E-3,-3.3156277E-4,-6.353021E-4,3.0764688E-3,-1.801779E-3,-7.536319E-3,5.6208513E-4,4.4906707E-3,-3.5505095E-3,1.4859362E-3,-6.782781E-3,-1.9015432E-3,-1.2941391E-3,2.515638E-3,1.601216E-3,-4.989034E-3,1.3752133E-3,4.1632177E-3,-5.7175505E-4,-4.741424E-3,4.521872E-3,1.1105539E-3],"categories":[],"categories_nodes":[],"categories_segments":[],"categories_sizes":[],"default_left":[0,0,0,0,0,0,0,0,0,0,0,0,0,0,0,0,0,0,0,0,0,0,0,0,0,0,0,0,0,0,0,0,0,0,0,0,0,0,0,0,0,0,0,0,0,0,0,0,0,0,0,0,0,0,0,0,0,0,0,0,0,0,0,0,0,0,0,0,0,0,0,0,0,0,0,0,0,0,0,0,0,0,0,0,0,0,0,0,0,0,0,0,0,0,0,0,0,0,0,0,0,0,0,0,0,0,0,0,0,0,0],"id":13,"left_children":[1,3,5,7,9,11,13,15,17,19,21,23,25,27,29,31,33,-1,35,37,39,41,43,45,47,49,51,53,55,57,59,61,63,65,67,-1,69,71,73,75,-1,77,79,81,83,-1,-1,85,87,-1,89,91,93,95,97,99,101,103,105,107,109,-1,-1,-1,-1,-1,-1,-1,-1,-1,-1,-1,-1,-1,-1,-1,-1,-1,-1,-1,-1,-1,-1,-1,-1,-1,-1,-1,-1,-1,-1,-1,-1,-1,-1,-1,-1,-1,-1,-1,-1,-1,-1,-1,-1,-1,-1,-1,-1,-1,-1],"loss_changes":[6.7934813E-3,1.1290782E-3,1.0904511E-3,7.235857E-4,1.2249148E-3,1.1358354E-3,2.1431982E-3,1.3000157E-3,4.8361486E-4,4.3958443E-4,1.2907112E-3,4.614006E-4,1.2734632E-3,1.3330524E-3,1.3833055E-3,6.353825E-4,6.289658E-4,0E0,7.5709564E-4,6.578381E-4,2.2578036E-4,2.1782857E-3,9.6734596E-4,1.4052726E-5,3.1890615E-4,4.7074596E-4,1.643048E-3,8.867455E-4,1.1123876E-3,1.3445709E-3,1.2812896E-3,4.2001007E-4,5.3890527E-4,4.4956896E-4,6.5553177E-6,0E0,6.832882E-4,8.367487E-4,2.3339177E-4,1.3212359E-4,0E0,1.0899673E-3,9.158484E-4,5.903956E-4,1.9183126E-4,0E0,0E0,4.1606545E-5,9.616432E-5,0E0,6.971542E-4,1.2668726E-3,8.5875555E-4,6.6588336E-4,1.0350626E-3,3.222716E-4,1.798653E-4,1.3696562E-3,1.4272323E-3,4.9324566E-4,2.6608456E-4,0E0,0E0,0E0,0E0,0E0,0E0,0E0,0E0,0E0,0E0,0E0,0E0,0E0,0E0,0E0,0E0,0E0,0E0,0E0,0E0,0E0,0E0,0E0,0E0,0E0,0E0,0E0,0E0,0E0,0E0,0E0,0E0,0E0,0E0,0E0,0E0,0E0,0E0,0E0,0E0,0E0,0E0,0E0,0E0,0E0,0E0,0E0,0E0,0E0,0E0],"parents":[2147483647,0,0,1,1,2,2,3,3,4,4,5,5,6,6,7,7,8,8,9,9,10,10,11,11,12,12,13,13,14,14,15,15,16,16,18,18,19,19,20,20,21,21,22,22,23,23,24,24,25,25,26,26,27,27,28,28,29,29,30,30,31,31,32,32,33,33,34,34,36,36,37,37,38,38,39,39,41,41,42,42,43,43,44,44,47,47,48,48,50,50,51,51,52,52,53,53,54,54,55,55,56,56,57,57,58,58,59,59,60,60],"right_children":[2,4,6,8,10,12,14,16,18,20,22,24,26,28,30,32,34,-1,36,38,40,42,44,46,48,50,52,54,56,58,60,62,64,66,68,-1,70,72,74,76,-1,78,80,82,84,-1,-1,86,88,-1,90,92,94,96,98,100,102,104,106,108,110,-1,-1,-1,-1,-1,-1,-1,-1,-1,-1,-1,-1,-1,-1,-1,-1,-1,-1,-1,-1,-1,-1,-1,-1,-1,-1,-1,-1,-1,-1,-1,-1,-1,-1,-1,-1,-1,-1,-1,-1,-1,-1,-1,-1,-1,-1,-1,-1,-1,-1],"split_conditions":[5.865944E-1,2.9199496E-1,5.5325557E-2,2.5958222E-1,3.1327632E-1,3.6050832E-1,3.4578383E-1,2.5172332E-1,2.0035252E-1,5.0777626E-1,3.3452964E-1,2.8603688E-2,3.109029E-1,3.2038507E-1,4.720462E-1,9.4602555E-2,2.559372E-1,2.4055347E-3,2.5850374E-1,3.0640686E-1,3.0424786E-1,3.6549965E-1,5.0997365E-1,6.885176E-1,4.3281898E-2,6.752676E-1,4.409337E-1,4.2510107E-1,1.392548E-1,3.898206E-1,8.262747E-1,3.575461E-2,2.2356041E-1,4.512718E-1,2.7779418E-1,-8.593282E-3,3.9311486E-1,1.392548E-1,5.946556E-2,2.553711E-1,-1.7008782E-4,8.392924E-2,3.1073144E-1,3.7260067E-2,4.412467E-1,1.323554E-3,5.039177E-3,7.2698724E-1,4.8927363E-2,-1.549852E-3,5.231464E-2,8.03637E-1,5.7207376E-2,3.8384905E-1,5.0871146E-1,3.3714154E-1,4.0153456E-1,3.873574E-1,7.8660145E-2,7.739184E-1,9.484381E-2,2.0299652E-3,-2.8714668E-3,-7.8728166E-4,-4.348311E-3,4.5082844E-3,-1.2811437E-3,-4.438743E-4,-2.102673E-3,-6.557382E-4,-3.543348E-3,-1.3038681E-3,3.1784752E-3,-4.4485925E-5,3.556825E-3,6.983042E-4,5.406967E-3,-6.1896294E-3,-1.0337649E-3,-2.13891E-3,1.3780899E-3,1.6994472E-3,-2.452187E-4,-4.721154E-3,-7.707745E-4,-5.308092E-5,-2.477941E-3,3.4426332E-3,1.0417853E-3,6.138629E-3,-3.3156277E-4,-6.353021E-4,3.0764688E-3,-1.801779E-3,-7.536319E-3,5.6208513E-4,4.4906707E-3,-3.5505095E-3,1.4859362E-3,-6.782781E-3,-1.9015432E-3,-1.2941391E-3,2.515638E-3,1.601216E-3,-4.989034E-3,1.3752133E-3,4.1632177E-3,-5.7175505E-4,-4.741424E-3,4.521872E-3,1.1105539E-3],"split_indices":[2,0,8,0,0,4,4,1,3,3,0,8,3,4,5,0,0,0,3,0,0,3,8,1,6,2,4,3,8,5,2,6,7,3,1,0,3,7,7,2,0,8,2,7,1,0,0,0,6,0,6,1,6,3,3,4,3,5,6,1,7,0,0,0,0,0,0,0,0,0,0,0,0,0,0,0,0,0,0,0,0,0,0,0,0,0,0,0,0,0,0,0,0,0,0,0,0,0,0,0,0,0,0,0,0,0,0,0,0,0,0],"split_type":[0,0,0,0,0,0,0,0,0,0,0,0,0,0,0,0,0,0,0,0,0,0,0,0,0,0,0,0,0,0,0,0,0,0,0,0,0,0,0,0,0,0,0,0,0,0,0,0,0,0,0,0,0,0,0,0,0,0,0,0,0,0,0,0,0,0,0,0,0,0,0,0,0,0,0,0,0,0,0,0,0,0,0,0,0,0,0,0,0,0,0,0,0,0,0,0,0,0,0,0,0,0,0,0,0,0,0,0,0,0,0],"sum_hessian":[8.28E2,5.2E2,3.08E2,2.04E2,3.16E2,8.9E1,2.19E2,1.72E2,3.2E1,3.2E1,2.84E2,1.5E1,7.4E1,4E1,1.79E2,1.63E2,9E0,1E0,3.1E1,2.7E1,5E0,4.2E1,2.42E2,5E0,1E1,7E0,6.7E1,3E1,1E1,1.48E2,3.1E1,2.3E1,1.4E2,7E0,2E0,1E0,3E1,1.8E1,9E0,4E0,1E0,1.7E1,2.5E1,2.36E2,6E0,1E0,4E0,2E0,8E0,1E0,6E0,5.6E1,1.1E1,1.7E1,1.3E1,7E0,3E0,7.3E1,7.5E1,2.2E1,9E0,1E0,2.2E1,1.37E2,3E0,6E0,1E0,1E0,1E0,1.4E1,1.6E1,1.4E1,4E0,2E0,7E0,1E0,3E0,1.1E1,6E0,1.1E1,1.4E1,1.4E1,2.22E2,4E0,2E0,1E0,1E0,2E0,6E0,4E0,2E0,4.7E1,9E0,8E0,3E0,1.2E1,5E0,7E0,6E0,4E0,3E0,1E0,2E0,7.1E1,2E0,2.7E1,4.8E1,2E1,2E0,4E0,5E0],"tree_param":{"num_deleted":"0","num_feature":"9","num_nodes":"111","size_leaf_vector":"1"}},{"base_weights":[4.7571822E-7,-1.4829243E-3,3.0105852E-3,-4.1454104E-3,-1.0003095E-3,-1.3181779E-3,3.8444276E-3,-9.0016285E-3,-2.3067053E-3,-3.337927E-3,-3.9459352E-4,1.0519776E-3,-1.0455305E-2,1.1773834E-2,3.5184547E-3,-1.5817698E-3,-1.4587537E-2,3.2993816E-3,-3.5560578E-3,4.4538435E-3,-4.4903397E-3,-3.8985487E-3,2.437262E-4,-1.0083028E-3,1.1791749E-2,5.810404E-3,3.2934893E-3,1.4136477E-3,-5.4590004E-3,-2.3039147E-2,-4.0519936E-3,-8.4697705E-4,6.382063E-3,-6.071329E-3,-3.686029E-4,4.4974345E-3,2.3264226E-3,-6.143561E-3,2.4839307E-3,-2.324904E-3,-1.50315445E-2,5.765408E-3,-5.459559E-4,-3.9237486E-3,5.3925216E-3,2.1105483E-2,-4.6992302E-4,2.9977646E-3,4.1059167E-3,-4.7639947E-5,7.8980497E-4,1.0495037E-4,-2.0996004E-3,-7.7246088E-3,-1.0172792E-3,-4.1386767E-4,-1.713429E-3,1.9460768E-4,-5.2709546E-4,-1.1819751E-4,2.7513849E-3,-9.996138E-4,-3.5365196E-3,7.8734284E-4,-2.4037305E-3,-8.6129835E-4,1.9347017E-3,-1.3883444E-3,-5.672288E-3,1.7905724E-3,-1.6565324E-4,-2.3237616E-3,-3.7160007E-5,-5.197406E-4,-6.0014045E-3,9.5811236E-4,3.6765023E-3,-3.116558E-3,-9.87671E-5,4.3706354E-4,-2.2133086E-3,3.0415393E-3,-3.6674382E-3,7.2133127E-3,1.8433214E-3,-1.8823118E-3,1.0669053E-3,-9.6694275E-4,1.0200399E-3],"categories":[],"categories_nodes":[],"categories_segments":[],"categories_sizes":[],"default_left":[0,0,0,0,0,0,0,0,0,0,0,0,0,0,0,0,0,0,0,0,0,0,0,0,0,0,0,0,0,0,0,0,0,0,0,0,0,0,0,0,0,0,0,0,0,0,0,0,0,0,0,0,0,0,0,0,0,0,0,0,0,0,0,0,0,0,0,0,0,0,0,0,0,0,0,0,0,0,0,0,0,0,0,0,0,0,0,0,0],"id":14,"left_children":[1,3,5,7,9,11,13,15,17,19,21,23,-1,-1,25,27,29,31,33,35,37,39,41,43,45,-1,47,49,51,53,55,57,59,61,63,-1,65,67,69,71,73,75,77,79,81,83,85,87,-1,-1,-1,-1,-1,-1,-1,-1,-1,-1,-1,-1,-1,-1,-1,-1,-1,-1,-1,-1,-1,-1,-1,-1,-1,-1,-1,-1,-1,-1,-1,-1,-1,-1,-1,-1,-1,-1,-1,-1,-1],"loss_changes":[3.7061123E-3,7.102885E-4,9.940723E-4,7.3821377E-4,6.6700287E-4,3.6131742E-3,2.5161125E-3,9.301988E-4,4.5298346E-4,8.90995E-4,8.419282E-4,9.633481E-4,0E0,0E0,7.5273425E-4,1.3547027E-4,1.0641955E-3,1.5878829E-4,4.146624E-4,2.565565E-4,9.953111E-4,9.81177E-4,1.3941068E-3,7.116254E-4,8.093317E-4,0E0,6.56642E-4,1.3836155E-5,4.716673E-5,2.8535235E-4,2.3163884E-5,9.306166E-6,1.3591276E-4,4.1488E-4,5.701146E-4,0E0,2.7563644E-4,1.2474484E-3,1.8315157E-4,6.194917E-4,4.2830931E-4,6.284333E-4,5.938765E-4,4.9394276E-4,1.1272698E-3,2.8137583E-5,1.1579508E-4,5.666462E-4,0E0,0E0,0E0,0E0,0E0,0E0,0E0,0E0,0E0,0E0,0E0,0E0,0E0,0E0,0E0,0E0,0E0,0E0,0E0,0E0,0E0,0E0,0E0,0E0,0E0,0E0,0E0,0E0,0E0,0E0,0E0,0E0,0E0,0E0,0E0,0E0,0E0,0E0,0E0,0E0,0E0],"parents":[2147483647,0,0,1,1,2,2,3,3,4,4,5,5,6,6,7,7,8,8,9,9,10,10,11,11,14,14,15,15,16,16,17,17,18,18,19,19,20,20,21,21,22,22,23,23,24,24,26,26,27,27,28,28,29,29,30,30,31,31,32,32,33,33,34,34,36,36,37,37,38,38,39,39,40,40,41,41,42,42,43,43,44,44,45,45,46,46,47,47],"right_children":[2,4,6,8,10,12,14,16,18,20,22,24,-1,-1,26,28,30,32,34,36,38,40,42,44,46,-1,48,50,52,54,56,58,60,62,64,-1,66,68,70,72,74,76,78,80,82,84,86,88,-1,-1,-1,-1,-1,-1,-1,-1,-1,-1,-1,-1,-1,-1,-1,-1,-1,-1,-1,-1,-1,-1,-1,-1,-1,-1,-1,-1,-1,-1,-1,-1,-1,-1,-1,-1,-1,-1,-1,-1,-1],"split_conditions":[6.995654E-1,1.588928E-1,3.4839502E-1,3.510061E-1,5.833647E-2,3.4661904E-1,3.492344E-1,7.9036504E-2,5.1938277E-2,3.3714154E-1,3.2736257E-1,4.662476E-1,-1.0455305E-2,1.1773834E-2,7.0278984E-1,3.4014475E-1,1.1253293E-1,4.0114605E-1,9.634927E-2,3.3026725E-1,4.3683022E-1,5.797808E-1,3.53271E-1,7.603197E-1,1.3172752E-1,5.810404E-3,9.453638E-1,4.8174635E-2,9.049701E-2,1.298457E-1,2.1059245E-1,3.3918816E-1,3.3918816E-1,4.495666E-1,1.588928E-1,4.4974345E-3,3.2457295E-1,4.203186E-1,3.9402083E-1,2.79323E-1,2.0545557E-1,4.6021512E-1,3.387279E-2,6.960009E-1,2.2205494E-1,7.55082E-1,7.0410764E-1,6.711906E-1,4.1059167E-3,-4.7639947E-5,7.8980497E-4,1.0495037E-4,-2.0996004E-3,-7.7246088E-3,-1.0172792E-3,-4.1386767E-4,-1.713429E-3,1.9460768E-4,-5.2709546E-4,-1.1819751E-4,2.7513849E-3,-9.996138E-4,-3.5365196E-3,7.8734284E-4,-2.4037305E-3,-8.6129835E-4,1.9347017E-3,-1.3883444E-3,-5.672288E-3,1.7905724E-3,-1.6565324E-4,-2.3237616E-3,-3.7160007E-5,-5.197406E-4,-6.0014045E-3,9.5811236E-4,3.6765023E-3,-3.116558E-3,-9.87671E-5,4.3706354E-4,-2.2133086E-3,3.0415393E-3,-3.6674382E-3,7.2133127E-3,1.8433214E-3,-1.8823118E-3,1.0669053E-3,-9.6694275E-4,1.0200399E-3],"split_indices":[0,1,3,5,7,3,3,6,7,4,5,4,0,0,0,5,6,3,8,5,3,4,5,2,6,0,2,7,1,7,3,3,4,3,2,0,4,3,5,1,2,4,8,2,8,0,0,2,0,0,0,0,0,0,0,0,0,0,0,0,0,0,0,0,0,0,0,0,0,0,0,0,0,0,0,0,0,0,0,0,0,0,0,0,0,0,0,0,0],"split_type":[0,0,0,0,0,0,0,0,0,0,0,0,0,0,0,0,0,0,0,0,0,0,0,0,0,0,0,0,0,0,0,0,0,0,0,0,0,0,0,0,0,0,0,0,0,0,0,0,0,0,0,0,0,0,0,0,0,0,0,0,0,0,0,0,0,0,0,0,0,0,0,0,0,0,0,0,0,0,0,0,0,0,0,0,0,0,0,0,0],"sum_hessian":[8.28E2,5.55E2,2.73E2,8.4E1,4.71E2,4.4E1,2.29E2,2.2E1,6.2E1,9.6E1,3.75E2,4.2E1,2E0,1E0,2.28E2,1E1,1.2E1,1.1E1,5.1E1,1.2E1,8.4E1,5.7E1,3.18E2,3.6E1,6E0,2E0,2.26E2,6E0,4E0,6E0,6E0,5E0,6E0,2.8E1,2.3E1,1E0,1.1E1,6.8E1,1.6E1,5.1E1,6E0,3.9E1,2.79E2,2.5E1,1.1E1,3E0,3E0,2.21E2,5E0,3E0,3E0,1E0,3E0,5E0,1E0,3E0,3E0,2E0,3E0,2E0,4E0,2E1,8E0,1.7E1,6E0,5E0,6E0,6.2E1,6E0,7E0,9E0,1.4E1,3.7E1,2E0,4E0,2.9E1,1E1,5E0,2.74E2,1E1,1.5E1,9E0,2E0,2E0,1E0,1E0,2E0,1.3E1,2.08E2],"tree_param":{"num_deleted":"0","num_feature":"9","num_nodes":"89","size_leaf_vector":"1"}},{"base_weights":[-7.1095974E-6,-1.7080987E-3,1.3812406E-3,-1.2746162E-3,-6.6217612E-3,7.633418E-3,1.180989E-3,-1.8965979E-3,5.066573E-3,-1.7197678E-3,-1.289977E-2,1.1256024E-2,2.402808E-3,-1.5771307E-2,1.3320734E-3,-6.696886E-3,-1.4581755E-3,-5.747929E-3,7.3673595E-3,-8.286864E-3,2.254352E-3,-7.3781325E-3,-6.9321916E-3,1.4221445E-2,1.5731752E-3,2.7623118E-3,-2.1606921E-3,-2.8384032E-4,-6.1192964E-3,-3.8078093E-4,2.1383842E-3,-1.0070688E-2,-1.9215593E-3,-2.0351761E-3,9.260237E-4,4.693419E-5,-2.0880282E-3,-2.5293007E-3,9.844149E-3,-1.6131409E-2,1.6293973E-3,7.7008484E-3,-1.4315024E-3,2.8794706E-3,-1.1548542E-2,4.6410495E-3,1.1966765E-3,-2.0374508E-4,9.1167394E-4,-2.073236E-4,-1.205872E-3,6.029847E-3,-1.4811285E-3,1.5911546E-2,1.6577311E-3,-9.468217E-4,-4.2989273E-3,-1.1780775E-3,3.020619E-3,7.295547E-5,-1.0335057E-3,8.9155533E-4,-9.966134E-4,-2.1687672E-3,4.8839004E-4,3.6112827E-3,7.0627034E-4,-1.4848307E-3,-5.4626763E-3,-4.0860326E-4,9.241611E-4,2.6840956E-3,4.0744545E-4,-9.922081E-4,3.8135872E-4,-3.3214243E-4,1.3732166E-3,-5.321074E-3,-2.2682988E-3,-5.547784E-4,4.0082363E-3,-5.8873283E-4,2.011957E-3,8.55694E-3,-3.0409836E-3,-1.2165735E-3,6.4201164E-4],"categories":[],"categories_nodes":[],"categories_segments":[],"categories_sizes":[],"default_left":[0,0,0,0,0,0,0,0,0,0,0,0,0,0,0,0,0,0,0,0,0,0,0,0,0,0,0,0,0,0,0,0,0,0,0,0,0,0,0,0,0,0,0,0,0,0,0,0,0,0,0,0,0,0,0,0,0,0,0,0,0,0,0,0,0,0,0,0,0,0,0,0,0,0,0,0,0,0,0,0,0,0,0,0,0,0,0],"id":15,"left_children":[1,3,5,7,9,11,13,15,17,19,21,23,25,27,29,31,33,35,37,39,41,-1,43,45,47,-1,49,-1,-1,51,53,55,57,59,61,-1,-1,63,65,67,69,71,73,75,77,-1,-1,-1,-1,-1,-1,79,81,83,85,-1,-1,-1,-1,-1,-1,-1,-1,-1,-1,-1,-1,-1,-1,-1,-1,-1,-1,-1,-1,-1,-1,-1,-1,-1,-1,-1,-1,-1,-1,-1,-1],"loss_changes":[1.9600997E-3,7.8604487E-4,5.63153E-4,1.366381E-3,9.0105785E-4,2.3823214E-4,1.158193E-3,6.5106456E-4,8.136846E-4,4.8845314E-4,7.3671504E-4,2.0733685E-4,2.372741E-4,2.5504665E-4,6.0987636E-4,3.9953494E-4,3.9945747E-4,4.4031345E-5,6.622097E-4,5.7080446E-4,2.5192372E-4,0E0,4.8619442E-4,1.4956109E-5,1.1967833E-5,0E0,1.0881342E-5,0E0,0E0,1.0105874E-3,1.959656E-3,3.9652153E-4,3.2807805E-4,7.4926426E-4,5.0524896E-4,0E0,0E0,1.2900196E-4,3.1666597E-4,2.7988572E-6,2.1559526E-5,2.7367962E-5,4.476333E-5,3.2143576E-5,3.8626138E-5,0E0,0E0,0E0,0E0,0E0,0E0,1.2376944E-3,4.9394264E-4,3.5742135E-3,8.10503E-4,0E0,0E0,0E0,0E0,0E0,0E0,0E0,0E0,0E0,0E0,0E0,0E0,0E0,0E0,0E0,0E0,0E0,0E0,0E0,0E0,0E0,0E0,0E0,0E0,0E0,0E0,0E0,0E0,0E0,0E0,0E0,0E0],"parents":[2147483647,0,0,1,1,2,2,3,3,4,4,5,5,6,6,7,7,8,8,9,9,10,10,11,11,12,12,13,13,14,14,15,15,16,16,17,17,18,18,19,19,20,20,22,22,23,23,24,24,26,26,29,29,30,30,31,31,32,32,33,33,34,34,37,37,38,38,39,39,40,40,41,41,42,42,43,43,44,44,51,51,52,52,53,53,54,54],"right_children":[2,4,6,8,10,12,14,16,18,20,22,24,26,28,30,32,34,36,38,40,42,-1,44,46,48,-1,50,-1,-1,52,54,56,58,60,62,-1,-1,64,66,68,70,72,74,76,78,-1,-1,-1,-1,-1,-1,80,82,84,86,-1,-1,-1,-1,-1,-1,-1,-1,-1,-1,-1,-1,-1,-1,-1,-1,-1,-1,-1,-1,-1,-1,-1,-1,-1,-1,-1,-1,-1,-1,-1,-1],"split_conditions":[3.731109E-1,3.6167112E-1,3.454121E-1,3.5168934E-1,8.844562E-2,3.9311486E-1,3.487917E-1,2.868591E-1,3.3714154E-1,5.758374E-2,9.409108E-2,8.769289E-2,3.3921626E-1,3.8368148E-1,3.7162855E-1,1.5205118E-1,1.328566E-1,3.2290855E-1,3.1842932E-1,4.158975E-1,6.774558E-2,-7.3781325E-3,1.0274746E-1,3.4203255E-1,3.757185E-1,2.7623118E-3,3.9708397E-1,-2.8384032E-4,-6.1192964E-3,4.8927363E-2,3.776978E-1,6.661648E-2,2.5850374E-1,6.473466E-2,1.6522394E-1,4.693419E-5,-2.0880282E-3,3.9045566E-1,3.585588E-1,3.510061E-1,3.1311858E-1,4.1829053E-1,3.4629723E-1,3.9045566E-1,3.620917E-1,4.6410495E-3,1.1966765E-3,-2.0374508E-4,9.1167394E-4,-2.073236E-4,-1.205872E-3,7.588953E-1,5.797808E-1,1.5468574E-1,2.8603688E-2,-9.468217E-4,-4.2989273E-3,-1.1780775E-3,3.020619E-3,7.295547E-5,-1.0335057E-3,8.9155533E-4,-9.966134E-4,-2.1687672E-3,4.8839004E-4,3.6112827E-3,7.0627034E-4,-1.4848307E-3,-5.4626763E-3,-4.0860326E-4,9.241611E-4,2.6840956E-3,4.0744545E-4,-9.922081E-4,3.8135872E-4,-3.3214243E-4,1.3732166E-3,-5.321074E-3,-2.2682988E-3,-5.547784E-4,4.0082363E-3,-5.8873283E-4,2.011957E-3,8.55694E-3,-3.0409836E-3,-1.2165735E-3,6.4201164E-4],"split_indices":[0,0,2,0,7,3,2,5,3,6,7,8,1,0,4,8,8,1,1,5,6,0,7,2,0,0,0,0,0,6,4,6,5,8,7,0,0,5,0,5,1,3,2,3,0,0,0,0,0,0,0,0,3,6,8,0,0,0,0,0,0,0,0,0,0,0,0,0,0,0,0,0,0,0,0,0,0,0,0,0,0,0,0,0,0,0,0],"split_type":[0,0,0,0,0,0,0,0,0,0,0,0,0,0,0,0,0,0,0,0,0,0,0,0,0,0,0,0,0,0,0,0,0,0,0,0,0,0,0,0,0,0,0,0,0,0,0,0,0,0,0,0,0,0,0,0,0,0,0,0,0,0,0,0,0,0,0,0,0,0,0,0,0,0,0,0,0,0,0,0,0,0,0,0,0,0,0],"sum_hessian":[8.28E2,3.72E2,4.56E2,3.43E2,2.9E1,1.3E1,4.43E2,3.13E2,3E1,1.7E1,1.2E1,7E0,6E0,3E0,4.4E2,2.5E1,2.88E2,5E0,2.5E1,6E0,1.1E1,3E0,9E0,5E0,2E0,2E0,4E0,1E0,2E0,1.41E2,2.99E2,1.4E1,1.1E1,2.32E2,5.6E1,1E0,4E0,5E0,2E1,3E0,3E0,4E0,7E0,3E0,6E0,4E0,1E0,1E0,1E0,3E0,1E0,2E1,1.21E2,9E0,2.9E2,6E0,8E0,1E1,1E0,8.9E1,1.43E2,3.8E1,1.8E1,2E0,3E0,1.5E1,5E0,1E0,2E0,1E0,2E0,3E0,1E0,4E0,3E0,1E0,2E0,1E0,5E0,1E1,1E1,1.15E2,6E0,6E0,3E0,2.2E1,2.68E2],"tree_param":{"num_deleted":"0","num_feature":"9","num_nodes":"87","size_leaf_vector":"1"}},{"base_weights":[-1.756875E-5,-9.035875E-4,1.7513336E-3,-7.753409E-4,-7.789844E-3,3.2574558E-4,3.270239E-3,-8.565802E-4,3.1218322E-3,-1.2565501E-2,7.5418553E-3,-2.094166E-3,1.6352109E-3,6.542504E-3,1.6521084E-3,-3.2138382E-3,-5.108986E-4,-5.6528584E-3,-5.030513E-3,-1.3691784E-4,3.5307528E-3,7.399338E-3,-3.524396E-3,7.036571E-3,-8.828814E-4,4.02446E-3,2.1819374E-2,-1.8121446E-2,2.7695298E-3,3.409505E-3,-3.8186552E-3,-1.040388E-3,1.6931866E-3,3.123522E-4,-2.0426186E-3,-2.362569E-3,3.5329843E-3,-1.8215136E-3,-1.6783154E-2,1.2324853E-2,2.267599E-3,-6.9066114E-3,1.9478123E-3,5.3394126E-4,7.6705874E-3,-9.0237864E-4,3.4985006E-2,-2.1032229E-2,-9.7174646E-4,1.3787195E-2,2.2119086E-3,-6.382227E-4,-3.4178754E-3,-2.699459E-4,-5.549676E-3,6.552919E-4,-2.897257E-3,-1.2004495E-3,1.3729335E-4,-1.5765574E-3,7.292739E-4,4.3005648E-4,-6.5087113E-3,-6.6441E-4,4.9474565E-3,-5.194754E-4,2.9664102E-3,-2.8685648E-3,1.0507894E-3,-1.0563931E-3,1.2839054E-3,2.3565756E-3,-3.3680402E-4,-1.8377603E-3,2.6332152E-3,2.7377398E-3,1.2168843E-2,-7.361871E-3,-1.576531E-3,1.6290547E-3,5.8287354E-3,-1.1642178E-3,1.1447167E-3],"categories":[],"categories_nodes":[],"categories_segments":[],"categories_sizes":[],"default_left":[0,0,0,0,0,0,0,0,0,0,0,0,0,0,0,0,0,0,0,0,0,0,0,0,0,0,0,0,0,0,0,0,0,0,0,0,0,0,0,0,0,0,0,0,0,0,0,0,0,0,0,0,0,0,0,0,0,0,0,0,0,0,0,0,0,0,0,0,0,0,0,0,0,0,0,0,0,0,0,0,0,0,0],"id":16,"left_children":[1,3,5,7,9,11,13,15,-1,17,19,21,23,25,27,29,31,-1,33,-1,-1,35,37,39,41,43,45,47,49,-1,51,53,55,-1,-1,57,-1,59,61,63,65,67,69,71,73,-1,75,77,-1,79,81,-1,-1,-1,-1,-1,-1,-1,-1,-1,-1,-1,-1,-1,-1,-1,-1,-1,-1,-1,-1,-1,-1,-1,-1,-1,-1,-1,-1,-1,-1,-1,-1],"loss_changes":[1.3008581E-3,4.8233612E-4,5.9873215E-4,5.0306844E-4,8.269566E-4,4.5973022E-4,6.987145E-4,4.3919767E-4,0E0,2.8360938E-4,1.06804844E-4,7.185508E-4,1.2847179E-3,1.6047732E-3,2.0608683E-3,6.518092E-4,5.537713E-4,0E0,6.1072904E-5,0E0,0E0,3.2693704E-4,9.854442E-4,7.286422E-4,1.1217896E-3,4.9225264E-4,2.0664355E-3,1.48469E-4,5.040045E-4,0E0,8.340287E-4,9.208269E-4,5.3395424E-4,0E0,0E0,1.5697655E-5,0E0,6.114348E-4,4.7855265E-4,8.846645E-4,5.352057E-4,6.139183E-4,5.8896834E-4,2.6352034E-4,3.4389633E-4,0E0,2.0678202E-4,9.2385104E-5,0E0,8.309481E-5,8.356097E-4,0E0,0E0,0E0,0E0,0E0,0E0,0E0,0E0,0E0,0E0,0E0,0E0,0E0,0E0,0E0,0E0,0E0,0E0,0E0,0E0,0E0,0E0,0E0,0E0,0E0,0E0,0E0,0E0,0E0,0E0,0E0,0E0],"parents":[2147483647,0,0,1,1,2,2,3,3,4,4,5,5,6,6,7,7,9,9,10,10,11,11,12,12,13,13,14,14,15,15,16,16,18,18,21,21,22,22,23,23,24,24,25,25,26,26,27,27,28,28,30,30,31,31,32,32,35,35,37,37,38,38,39,39,40,40,41,41,42,42,43,43,44,44,46,46,47,47,49,49,50,50],"right_children":[2,4,6,8,10,12,14,16,-1,18,20,22,24,26,28,30,32,-1,34,-1,-1,36,38,40,42,44,46,48,50,-1,52,54,56,-1,-1,58,-1,60,62,64,66,68,70,72,74,-1,76,78,-1,80,82,-1,-1,-1,-1,-1,-1,-1,-1,-1,-1,-1,-1,-1,-1,-1,-1,-1,-1,-1,-1,-1,-1,-1,-1,-1,-1,-1,-1,-1,-1,-1,-1],"split_conditions":[6.9805133E-1,6.8224126E-1,4.046669E-1,6.919669E-1,1.7463304E-1,5.38201E-2,4.2610872E-1,3.176022E-1,3.1218322E-3,1.0086564E-1,6.637073E-1,3.4154218E-1,9.936018E-2,1.1592021E-1,4.305315E-1,4.8174635E-2,4.662476E-1,-5.6528584E-3,1.0199473E-1,-1.3691784E-4,3.5307528E-3,7.184074E-1,4.5038787E-1,6.661648E-2,1.2156568E-1,7.526218E-1,2.709572E-1,8.15954E-1,7.0278984E-1,3.409505E-3,2.9543275E-1,4.655525E-1,3.2442605E-1,3.123522E-4,-2.0426186E-3,7.103323E-1,3.5329843E-3,4.1359675E-1,7.147904E-1,3.3401603E-1,9.108017E-2,1.7312759E-1,6.9342595E-1,2.4840046E-2,3.1642136E-1,-9.0237864E-4,7.184074E-1,3.9402083E-1,-9.7174646E-4,6.741679E-1,6.958936E-1,-6.382227E-4,-3.4178754E-3,-2.699459E-4,-5.549676E-3,6.552919E-4,-2.897257E-3,-1.2004495E-3,1.3729335E-4,-1.5765574E-3,7.292739E-4,4.3005648E-4,-6.5087113E-3,-6.6441E-4,4.9474565E-3,-5.194754E-4,2.9664102E-3,-2.8685648E-3,1.0507894E-3,-1.0563931E-3,1.2839054E-3,2.3565756E-3,-3.3680402E-4,-1.8377603E-3,2.6332152E-3,2.7377398E-3,1.2168843E-2,-7.361871E-3,-1.576531E-3,1.6290547E-3,5.8287354E-3,-1.1642178E-3,1.1447167E-3],"split_indices":[0,2,5,0,7,8,5,4,0,6,1,3,7,8,5,7,5,0,6,0,0,0,4,6,6,1,3,0,0,0,4,5,7,0,0,0,0,3,0,5,8,7,2,7,4,0,0,3,0,1,1,0,0,0,0,0,0,0,0,0,0,0,0,0,0,0,0,0,0,0,0,0,0,0,0,0,0,0,0,0,0,0,0],"split_type":[0,0,0,0,0,0,0,0,0,0,0,0,0,0,0,0,0,0,0,0,0,0,0,0,0,0,0,0,0,0,0,0,0,0,0,0,0,0,0,0,0,0,0,0,0,0,0,0,0,0,0,0,0,0,0,0,0,0,0,0,0,0,0,0,0,0,0,0,0,0,0,0,0,0,0,0,0,0,0,0,0,0,0],"sum_hessian":[8.28E2,5.52E2,2.76E2,5.43E2,9E0,1.43E2,1.33E2,5.4E2,3E0,7E0,2E0,5E1,9.3E1,4.3E1,9E1,6.8E1,4.72E2,3E0,4E0,1E0,1E0,6E0,4.4E1,2.9E1,6.4E1,3.8E1,5E0,4E0,8.6E1,2E0,6.6E1,3.81E2,9.1E1,1E0,3E0,2E0,4E0,4E1,4E0,1.3E1,1.6E1,2E1,4.4E1,2E1,1.8E1,2E0,3E0,3E0,1E0,3E0,8.3E1,5.5E1,1.1E1,3.79E2,2E0,8.8E1,3E0,1E0,1E0,2.2E1,1.8E1,1E0,3E0,3E0,1E1,1.1E1,5E0,1.6E1,4E0,1.3E1,3.1E1,3E0,1.7E1,1E0,1.7E1,1E0,2E0,2E0,1E0,2E0,1E0,1.7E1,6.6E1],"tree_param":{"num_deleted":"0","num_feature":"9","num_nodes":"83","size_leaf_vector":"1"}},{"base_weights":[-5.715083E-6,-1.0013509E-3,8.853693E-4,-4.0885503E-3,-6.872318E-4,7.0718755E-3,6.340518E-4,-4.9439445E-3,-2.8749518E-3,1.8921524E-3,-1.3006929E-3,8.056844E-3,2.6435633E-3,4.844409E-4,8.315861E-3,-5.033824E-4,-8.516381E-3,2.5935294E-4,1.631704E-2,-5.183356E-3,-8.309507E-4,-3.4985754E-3,7.127053E-3,6.19155E-4,-8.801763E-3,3.431672E-3,1.2462758E-3,-5.8419756E-3,1.4899616E-3,-1.1499465E-3,-1.3235678E-2,-2.0047487E-3,5.227409E-3,5.797157E-3,1.7600001E-3,-4.6120526E-4,-1.1686241E-2,-1.5203069E-3,1.8142038E-3,3.8734675E-4,-2.6426765E-3,-4.8215687E-4,9.8521495E-3,4.9250026E-4,9.065161E-3,-8.244932E-4,-1.1141412E-2,-2.660495E-3,3.447749E-4,-8.210019E-4,1.0953688E-3,4.640341E-4,-1.0390073E-3,-4.569066E-3,-4.8944505E-4,-3.697301E-5,-2.7924064E-3,3.159626E-3,6.605053E-4,3.4838513E-4,-2.8504722E-3,8.1959815E-4,-4.8854733E-3,1.05949366E-4,-1.0191622E-3,-1.6252149E-3,1.2028071E-3,1.2538568E-3,-4.8167334E-4,5.0723704E-4,3.2791735E-3,4.5931325E-4,-7.959058E-5,3.26103E-3,6.0707334E-6,-4.0381285E-3,-6.2765484E-4],"categories":[],"categories_nodes":[],"categories_segments":[],"categories_sizes":[],"default_left":[0,0,0,0,0,0,0,0,0,0,0,0,0,0,0,0,0,0,0,0,0,0,0,0,0,0,0,0,0,0,0,0,0,0,0,0,0,0,0,0,0,0,0,0,0,0,0,0,0,0,0,0,0,0,0,0,0,0,0,0,0,0,0,0,0,0,0,0,0,0,0,0,0,0,0,0,0],"id":17,"left_children":[1,3,5,7,9,11,13,-1,15,17,19,-1,21,23,25,27,29,31,33,35,37,39,41,43,45,-1,-1,47,49,51,53,55,57,-1,-1,59,61,63,65,67,-1,-1,69,71,73,-1,75,-1,-1,-1,-1,-1,-1,-1,-1,-1,-1,-1,-1,-1,-1,-1,-1,-1,-1,-1,-1,-1,-1,-1,-1,-1,-1,-1,-1,-1,-1],"loss_changes":[7.363717E-4,3.7733154E-4,6.765084E-4,4.9398997E-4,5.673608E-4,1.4183896E-3,4.8096868E-4,0E0,4.506004E-4,1.6209217E-3,5.227859E-4,0E0,4.3800776E-4,5.246074E-4,5.645503E-5,2.7474563E-4,3.324236E-4,7.1911525E-4,1.0658987E-4,9.4654603E-4,4.7503266E-4,1.4786122E-4,2.3004916E-4,4.3412356E-4,5.435772E-5,0E0,0E0,1.5829667E-4,1.835551E-4,3.6550242E-5,1.1402252E-4,6.0346327E-4,2.9782148E-4,0E0,0E0,2.8972406E-4,9.064515E-4,7.2556164E-4,8.7893987E-4,4.449815E-5,0E0,0E0,4.312885E-5,3.1914556E-4,9.7733224E-5,0E0,5.577953E-5,0E0,0E0,0E0,0E0,0E0,0E0,0E0,0E0,0E0,0E0,0E0,0E0,0E0,0E0,0E0,0E0,0E0,0E0,0E0,0E0,0E0,0E0,0E0,0E0,0E0,0E0,0E0,0E0,0E0,0E0],"parents":[2147483647,0,0,1,1,2,2,3,3,4,4,5,5,6,6,8,8,9,9,10,10,12,12,13,13,14,14,15,15,16,16,17,17,18,18,19,19,20,20,21,21,22,22,23,23,24,24,27,27,28,28,29,29,30,30,31,31,32,32,35,35,36,36,37,37,38,38,39,39,42,42,43,43,44,44,46,46],"right_children":[2,4,6,8,10,12,14,-1,16,18,20,-1,22,24,26,28,30,32,34,36,38,40,42,44,46,-1,-1,48,50,52,54,56,58,-1,-1,60,62,64,66,68,-1,-1,70,72,74,-1,76,-1,-1,-1,-1,-1,-1,-1,-1,-1,-1,-1,-1,-1,-1,-1,-1,-1,-1,-1,-1,-1,-1,-1,-1,-1,-1,-1,-1,-1,-1],"split_conditions":[3.6357054E-1,4.365826E-2,3.7000778E-1,3.2038507E-1,5.946556E-2,3.2596922E-1,5.893765E-1,-4.9439445E-3,3.35511E-1,5.90892E-2,2.8052673E-1,8.056844E-3,6.812194E-2,5.594533E-1,7.913258E-1,3.5983643E-1,4.0699646E-1,4.1452077E-1,3.9311486E-1,2.598235E-1,1.4414753E-1,3.58984E-1,3.6161253E-1,9.700266E-1,3.7499666E-1,3.431672E-3,1.2462758E-3,8.3176516E-2,3.6307812E-1,3.750736E-1,4.23136E-1,3.3108923E-1,5.1938277E-2,5.797157E-3,1.7600001E-3,2.763437E-1,7.9789236E-2,8.167106E-2,3.4513205E-1,3.6167112E-1,-2.6426765E-3,-4.8215687E-4,3.7260067E-2,3.9355072E-1,4.7944015E-1,-8.244932E-4,4.3683022E-1,-2.660495E-3,3.447749E-4,-8.210019E-4,1.0953688E-3,4.640341E-4,-1.0390073E-3,-4.569066E-3,-4.8944505E-4,-3.697301E-5,-2.7924064E-3,3.159626E-3,6.605053E-4,3.4838513E-4,-2.8504722E-3,8.1959815E-4,-4.8854733E-3,1.05949366E-4,-1.0191622E-3,-1.6252149E-3,1.2028071E-3,1.2538568E-3,-4.8167334E-4,5.0723704E-4,3.2791735E-3,4.5931325E-4,-7.959058E-5,3.26103E-3,6.0707334E-6,-4.0381285E-3,-6.2765484E-4],"split_indices":[1,8,1,3,8,3,4,0,0,8,3,0,8,4,1,4,5,5,3,2,7,2,2,0,2,0,0,6,5,0,3,2,6,0,0,3,6,7,5,0,0,0,6,3,3,0,3,0,0,0,0,0,0,0,0,0,0,0,0,0,0,0,0,0,0,0,0,0,0,0,0,0,0,0,0,0,0],"split_type":[0,0,0,0,0,0,0,0,0,0,0,0,0,0,0,0,0,0,0,0,0,0,0,0,0,0,0,0,0,0,0,0,0,0,0,0,0,0,0,0,0,0,0,0,0,0,0,0,0,0,0,0,0,0,0,0,0,0,0,0,0,0,0,0,0,0,0,0,0,0,0,0,0,0,0,0,0],"sum_hessian":[8.28E2,3.91E2,4.37E2,3.5E1,3.56E2,1.6E1,4.21E2,2E0,3.3E1,6.8E1,2.88E2,2E0,1.4E1,4.14E2,7E0,2.4E1,9E0,6.2E1,6E0,3E1,2.58E2,6E0,8E0,4.09E2,5E0,3E0,4E0,6E0,1.8E1,4E0,5E0,4.3E1,1.9E1,4E0,2E0,1.8E1,1.2E1,2.05E2,5.3E1,4E0,2E0,2E0,6E0,4.04E2,5E0,2E0,3E0,4E0,2E0,6E0,1.2E1,2E0,2E0,4E0,1E0,3.5E1,8E0,6E0,1.3E1,1.6E1,2E0,3E0,9E0,1.03E2,1.02E2,1.2E1,4.1E1,1E0,3E0,1E0,5E0,1.7E2,2.34E2,4E0,1E0,2E0,1E0],"tree_param":{"num_deleted":"0","num_feature":"9","num_nodes":"77","size_leaf_vector":"1"}},{"base_weights":[-3.5819633E-6,-5.4182904E-4,1.0886405E-3,-1.1375456E-3,6.687366E-4,1.1328936E-2,8.9497346E-4,-9.6063095E-4,-1.0250418E-2,2.7637682E-3,-4.44906E-4,1.7651707E-3,4.9663605E-3,-2.323694E-3,1.4980775E-3,-1.289568E-3,2.7774146E-3,-3.4098118E-3,-5.335048E-4,4.077713E-3,-3.2698016E-3,-4.9505695E-3,3.3919828E-4,-6.815704E-4,-7.197446E-3,6.829995E-3,1.3040898E-3,-6.8974984E-4,-5.5004354E-3,8.32636E-3,-4.1337608E-4,5.145352E-3,-1.7135623E-3,1.1080466E-3,-9.620398E-3,-1.154166E-2,-1.5277147E-3,-3.0587988E-3,6.4573146E-4,-8.976375E-3,9.968638E-4,3.1986504E-3,5.075702E-4,-5.845069E-4,2.1497071E-4,1.2954855E-3,-1.9942874E-3,-9.3801325E-4,2.9353015E-3,-1.95037E-3,1.0094388E-3,-1.2415554E-4,1.9639947E-3,-1.1052802E-3,1.0367811E-3,-3.3334878E-4,2.4963766E-3,-3.2149495E-3,-7.854E-4,-1.405567E-4,-4.098775E-3,-1.9248155E-3,4.0733218E-4,5.882384E-4,-4.862135E-4,5.135536E-4,-4.0782094E-3,-1.1742986E-3,1.3372166E-3,4.172627E-4,2.8118636E-3,-2.9433027E-3,2.4988633E-4],"categories":[],"categories_nodes":[],"categories_segments":[],"categories_sizes":[],"default_left":[0,0,0,0,0,0,0,0,0,0,0,0,0,0,0,0,0,0,0,0,0,0,0,0,0,0,0,0,0,0,0,0,0,0,0,0,0,0,0,0,0,0,0,0,0,0,0,0,0,0,0,0,0,0,0,0,0,0,0,0,0,0,0,0,0,0,0,0,0,0,0,0,0],"id":18,"left_children":[1,3,5,7,9,11,13,15,17,19,21,-1,-1,23,25,27,29,-1,-1,31,33,35,37,39,-1,-1,41,43,45,47,49,51,53,55,57,59,61,-1,63,65,67,69,71,-1,-1,-1,-1,-1,-1,-1,-1,-1,-1,-1,-1,-1,-1,-1,-1,-1,-1,-1,-1,-1,-1,-1,-1,-1,-1,-1,-1,-1,-1],"loss_changes":[4.8794705E-4,4.0172233E-4,5.3325994E-4,5.915037E-4,4.3052298E-4,4.4862507E-5,5.2760274E-4,4.5483818E-4,4.5948487E-5,5.20711E-4,4.291613E-4,0E0,0E0,1.5136393E-3,9.110024E-4,8.4991124E-4,5.3460756E-4,0E0,0E0,3.3651543E-4,3.4428324E-4,3.884539E-4,3.4244003E-4,5.797618E-4,0E0,0E0,3.4093185E-4,5.2708667E-4,5.0179113E-4,2.1427439E-4,4.818947E-4,3.5326357E-4,1.0442062E-4,1.3730723E-4,1.0320859E-5,1.3451034E-4,1.9207963E-4,0E0,3.071905E-4,3.6875258E-4,6.122833E-4,7.347916E-4,5.4873E-4,0E0,0E0,0E0,0E0,0E0,0E0,0E0,0E0,0E0,0E0,0E0,0E0,0E0,0E0,0E0,0E0,0E0,0E0,0E0,0E0,0E0,0E0,0E0,0E0,0E0,0E0,0E0,0E0,0E0,0E0],"parents":[2147483647,0,0,1,1,2,2,3,3,4,4,5,5,6,6,7,7,8,8,9,9,10,10,13,13,14,14,15,15,16,16,19,19,20,20,21,21,22,22,23,23,26,26,27,27,28,28,29,29,30,30,31,31,32,32,33,33,34,34,35,35,36,36,38,38,39,39,40,40,41,41,42,42],"right_children":[2,4,6,8,10,12,14,16,18,20,22,-1,-1,24,26,28,30,-1,-1,32,34,36,38,40,-1,-1,42,44,46,48,50,52,54,56,58,60,62,-1,64,66,68,70,72,-1,-1,-1,-1,-1,-1,-1,-1,-1,-1,-1,-1,-1,-1,-1,-1,-1,-1,-1,-1,-1,-1,-1,-1,-1,-1,-1,-1,-1,-1],"split_conditions":[6.995654E-1,1.1140384E-1,7.0278984E-1,1.1065111E-1,9.3714714E-2,6.757235E-1,3.4839502E-1,1.4414753E-1,4.409337E-1,4.67218E-1,1.0801656E-1,1.7651707E-3,4.9663605E-3,3.4661904E-1,3.492344E-1,1.08392924E-1,3.7589392E-1,-3.4098118E-3,-5.335048E-4,4.3768245E-1,2.559372E-1,3.7162855E-1,9.0951E-2,3.4513205E-1,-7.197446E-3,6.829995E-3,3.9355072E-1,4.0114605E-1,4.6669174E-2,9.0951E-2,4.2610872E-1,1.5250245E-1,8.6563796E-2,2.2868358E-1,4.9587142E-1,3.2656667E-1,1.8431993E-1,-3.0587988E-3,2.0511855E-1,7.215621E-1,7.527828E-1,1.1516748E-1,8.280015E-3,-5.845069E-4,2.1497071E-4,1.2954855E-3,-1.9942874E-3,-9.3801325E-4,2.9353015E-3,-1.95037E-3,1.0094388E-3,-1.2415554E-4,1.9639947E-3,-1.1052802E-3,1.0367811E-3,-3.3334878E-4,2.4963766E-3,-3.2149495E-3,-7.854E-4,-1.405567E-4,-4.098775E-3,-1.9248155E-3,4.0733218E-4,5.882384E-4,-4.862135E-4,5.135536E-4,-4.0782094E-3,-1.1742986E-3,1.3372166E-3,4.172627E-4,2.8118636E-3,-2.9433027E-3,2.4988633E-4],"split_indices":[0,6,0,6,8,1,3,7,4,4,8,0,0,3,3,7,5,0,0,5,0,5,3,4,0,0,3,4,6,5,5,0,7,0,3,0,1,0,7,1,0,8,6,0,0,0,0,0,0,0,0,0,0,0,0,0,0,0,0,0,0,0,0,0,0,0,0,0,0,0,0,0,0],"split_type":[0,0,0,0,0,0,0,0,0,0,0,0,0,0,0,0,0,0,0,0,0,0,0,0,0,0,0,0,0,0,0,0,0,0,0,0,0,0,0,0,0,0,0,0,0,0,0,0,0,0,0,0,0,0,0,0,0,0,0,0,0,0,0,0,0,0,0,0,0,0,0,0,0],"sum_hessian":[8.28E2,5.55E2,2.73E2,3.72E2,1.83E2,4E0,2.69E2,3.66E2,6E0,6.3E1,1.2E2,3E0,1E0,4.2E1,2.27E2,3.37E2,2.9E1,5E0,1E0,5.2E1,1.1E1,1.7E1,1.03E2,4E1,2E0,1E0,2.26E2,2.96E2,4.1E1,1E1,1.9E1,4.4E1,8E0,7E0,4E0,5E0,1.2E1,2E0,1.01E2,6E0,3.4E1,6.6E1,1.6E2,1.56E2,1.4E2,4E0,3.7E1,1E0,9E0,7E0,1.2E1,9E0,3.5E1,6E0,2E0,6E0,1E0,3E0,1E0,1E0,4E0,4E0,8E0,6.4E1,3.7E1,2E0,4E0,1.4E1,2E1,5.2E1,1.4E1,4E0,1.56E2],"tree_param":{"num_deleted":"0","num_feature":"9","num_nodes":"73","size_leaf_vector":"1"}},{"base_weights":[-1.3646347E-5,1.1785412E-3,-3.3909993E-4,-8.285416E-6,5.5512786E-3,-3.445742E-3,1.3902187E-4,-4.1680904E-3,1.1535365E-3,1.1038125E-2,3.4678394E-3,-1.695399E-3,-1.245143E-2,-2.0034246E-3,4.7540828E-4,3.023073E-3,-5.046539E-3,2.6294666E-3,-1.531976E-3,4.6452456E-3,1.9466132E-2,5.910061E-3,-1.0658015E-3,2.8009366E-4,-6.694504E-3,-7.964397E-3,-5.680563E-3,-6.0745054E-3,-7.4870983E-4,2.836698E-4,5.7935636E-3,1.8025042E-3,-8.899123E-4,1.2043208E-3,-5.530811E-3,1.7607365E-3,8.514941E-3,-5.941442E-3,1.3513613E-3,7.821391E-3,-2.1617443E-3,6.7592803E-3,1.5407592E-3,-2.2141188E-3,7.571727E-3,-5.101964E-3,1.0855049E-3,-2.1831794E-3,3.9622714E-3,-1.1890544E-2,-2.5822842E-3,-1.0608934E-2,1.7425021E-3,-1.1357409E-2,-7.1244163E-4,1.5856707E-3,-4.852898E-3,3.9749686E-4,-8.661091E-3,4.9680322E-3,3.2540173E-3,-1.77736E-3,7.0589484E-4,9.7635755E-4,-7.6817785E-4,-1.6554834E-3,3.9938274E-3,-2.238343E-3,1.4488399E-4,7.898346E-4,-9.435803E-4,2.6586056E-3,3.92738E-4,-1.4643699E-3,9.059906E-5,2.6458628E-3,-2.3259522E-4,-1.4338196E-4,-1.9451977E-3,-3.4906866E-4,6.087363E-4,2.2344236E-4,-2.6976091E-3,7.8599324E-4,3.477043E-3,-5.4632575E-4,-4.986528E-3,6.5773726E-4,-3.1981089E-3,-3.3885192E-3,-8.7090436E-4,1.0688604E-5,7.734374E-4,-4.302229E-3,-1.8313453E-4,-6.178362E-4,1.7116003E-3,1.7100854E-3,-5.558722E-4,-3.962871E-3,-4.8540582E-4,2.7287453E-3,9.0933514E-5,-3.7631404E-3,-1.7913432E-4,1.4917557E-3,-8.144975E-4],"categories":[],"categories_nodes":[],"categories_segments":[],"categories_sizes":[],"default_left":[0,0,0,0,0,0,0,0,0,0,0,0,0,0,0,0,0,0,0,0,0,0,0,0,0,0,0,0,0,0,0,0,0,0,0,0,0,0,0,0,0,0,0,0,0,0,0,0,0,0,0,0,0,0,0,0,0,0,0,0,0,0,0,0,0,0,0,0,0,0,0,0,0,0,0,0,0,0,0,0,0,0,0,0,0,0,0,0,0,0,0,0,0,0,0,0,0,0,0,0,0,0,0,0,0,0,0],"id":19,"left_children":[1,3,5,7,9,11,13,15,17,19,21,23,25,27,29,31,33,35,37,39,41,43,45,47,49,51,-1,53,55,57,59,-1,-1,-1,61,63,65,67,69,71,-1,-1,-1,73,75,77,79,81,83,85,87,89,91,93,95,97,99,101,103,-1,105,-1,-1,-1,-1,-1,-1,-1,-1,-1,-1,-1,-1,-1,-1,-1,-1,-1,-1,-1,-1,-1,-1,-1,-1,-1,-1,-1,-1,-1,-1,-1,-1,-1,-1,-1,-1,-1,-1,-1,-1,-1,-1,-1,-1,-1,-1],"loss_changes":[3.220531E-4,9.2380925E-4,9.689293E-4,6.8625435E-4,3.9611885E-4,1.3502745E-3,4.088629E-4,2.1108513E-4,4.439911E-4,4.4836744E-4,3.273915E-4,7.326766E-4,2.564937E-4,3.8877132E-4,4.9800717E-4,